{"learner":{"attributes":{"scikit_learn":"{\"_estimator_type\": \"classifier\"}"},"feature_names":[],"feature_types":[],"gradient_booster":{"model":{"gbtree_model_param":{"num_parallel_tree":"1","num_trees":"3000"},"iteration_indptr":[0,3,6,9,12,15,18,21,24,27,30,33,36,39,42,45,48,51,54,57,60,63,66,69,72,75,78,81,84,87,90,93,96,99,102,105,108,111,114,117,120,123,126,129,132,135,138,141,144,147,150,153,156,159,162,165,168,171,174,177,180,183,186,189,192,195,198,201,204,207,210,213,216,219,222,225,228,231,234,237,240,243,246,249,252,255,258,261,264,267,270,273,276,279,282,285,288,291,294,297,300,303,306,309,312,315,318,321,324,327,330,333,336,339,342,345,348,351,354,357,360,363,366,369,372,375,378,381,384,387,390,393,396,399,402,405,408,411,414,417,420,423,426,429,432,435,438,441,444,447,450,453,456,459,462,465,468,471,474,477,480,483,486,489,492,495,498,501,504,507,510,513,516,519,522,525,528,531,534,537,540,543,546,549,552,555,558,561,564,567,570,573,576,579,582,585,588,591,594,597,600,603,606,609,612,615,618,621,624,627,630,633,636,639,642,645,648,651,654,657,660,663,666,669,672,675,678,681,684,687,690,693,696,699,702,705,708,711,714,717,720,723,726,729,732,735,738,741,744,747,750,753,756,759,762,765,768,771,774,777,780,783,786,789,792,795,798,801,804,807,810,813,816,819,822,825,828,831,834,837,840,843,846,849,852,855,858,861,864,867,870,873,876,879,882,885,888,891,894,897,900,903,906,909,912,915,918,921,924,927,930,933,936,939,942,945,948,951,954,957,960,963,966,969,972,975,978,981,984,987,990,993,996,999,1002,1005,1008,1011,1014,1017,1020,1023,1026,1029,1032,1035,1038,1041,1044,1047,1050,1053,1056,1059,1062,1065,1068,1071,1074,1077,1080,1083,1086,1089,1092,1095,1098,1101,1104,1107,1110,1113,1116,1119,1122,1125,1128,1131,1134,1137,1140,1143,1146,1149,1152,1155,1158,1161,1164,1167,1170,1173,1176,1179,1182,1185,1188,1191,1194,1197,1200,1203,1206,1209,1212,1215,1218,1221,1224,1227,1230,1233,1236,1239,1242,1245,1248,1251,1254,1257,1260,1263,1266,1269,1272,1275,1278,1281,1284,1287,1290,1293,1296,1299,1302,1305,1308,1311,1314,1317,1320,1323,1326,1329,1332,1335,1338,1341,1344,1347,1350,1353,1356,1359,1362,1365,1368,1371,1374,1377,1380,1383,1386,1389,1392,1395,1398,1401,1404,1407,1410,1413,1416,1419,1422,1425,1428,1431,1434,1437,1440,1443,1446,1449,1452,1455,1458,1461,1464,1467,1470,1473,1476,1479,1482,1485,1488,1491,1494,1497,1500,1503,1506,1509,1512,1515,1518,1521,1524,1527,1530,1533,1536,1539,1542,1545,1548,1551,1554,1557,1560,1563,1566,1569,1572,1575,1578,1581,1584,1587,1590,1593,1596,1599,1602,1605,1608,1611,1614,1617,1620,1623,1626,1629,1632,1635,1638,1641,1644,1647,1650,1653,1656,1659,1662,1665,1668,1671,1674,1677,1680,1683,1686,1689,1692,1695,1698,1701,1704,1707,1710,1713,1716,1719,1722,1725,1728,1731,1734,1737,1740,1743,1746,1749,1752,1755,1758,1761,1764,1767,1770,1773,1776,1779,1782,1785,1788,1791,1794,1797,1800,1803,1806,1809,1812,1815,1818,1821,1824,1827,1830,1833,1836,1839,1842,1845,1848,1851,1854,1857,1860,1863,1866,1869,1872,1875,1878,1881,1884,1887,1890,1893,1896,1899,1902,1905,1908,1911,1914,1917,1920,1923,1926,1929,1932,1935,1938,1941,1944,1947,1950,1953,1956,1959,1962,1965,1968,1971,1974,1977,1980,1983,1986,1989,1992,1995,1998,2001,2004,2007,2010,2013,2016,2019,2022,2025,2028,2031,2034,2037,2040,2043,2046,2049,2052,2055,2058,2061,2064,2067,2070,2073,2076,2079,2082,2085,2088,2091,2094,2097,2100,2103,2106,2109,2112,2115,2118,2121,2124,2127,2130,2133,2136,2139,2142,2145,2148,2151,2154,2157,2160,2163,2166,2169,2172,2175,2178,2181,2184,2187,2190,2193,2196,2199,2202,2205,2208,2211,2214,2217,2220,2223,2226,2229,2232,2235,2238,2241,2244,2247,2250,2253,2256,2259,2262,2265,2268,2271,2274,2277,2280,2283,2286,2289,2292,2295,2298,2301,2304,2307,2310,2313,2316,2319,2322,2325,2328,2331,2334,2337,2340,2343,2346,2349,2352,2355,2358,2361,2364,2367,2370,2373,2376,2379,2382,2385,2388,2391,2394,2397,2400,2403,2406,2409,2412,2415,2418,2421,2424,2427,2430,2433,2436,2439,2442,2445,2448,2451,2454,2457,2460,2463,2466,2469,2472,2475,2478,2481,2484,2487,2490,2493,2496,2499,2502,2505,2508,2511,2514,2517,2520,2523,2526,2529,2532,2535,2538,2541,2544,2547,2550,2553,2556,2559,2562,2565,2568,2571,2574,2577,2580,2583,2586,2589,2592,2595,2598,2601,2604,2607,2610,2613,2616,2619,2622,2625,2628,2631,2634,2637,2640,2643,2646,2649,2652,2655,2658,2661,2664,2667,2670,2673,2676,2679,2682,2685,2688,2691,2694,2697,2700,2703,2706,2709,2712,2715,2718,2721,2724,2727,2730,2733,2736,2739,2742,2745,2748,2751,2754,2757,2760,2763,2766,2769,2772,2775,2778,2781,2784,2787,2790,2793,2796,2799,2802,2805,2808,2811,2814,2817,2820,2823,2826,2829,2832,2835,2838,2841,2844,2847,2850,2853,2856,2859,2862,2865,2868,2871,2874,2877,2880,2883,2886,2889,2892,2895,2898,2901,2904,2907,2910,2913,2916,2919,2922,2925,2928,2931,2934,2937,2940,2943,2946,2949,2952,2955,2958,2961,2964,2967,2970,2973,2976,2979,2982,2985,2988,2991,2994,2997,3000],"tree_info":[0,1,2,0,1,2,0,1,2,0,1,2,0,1,2,0,1,2,0,1,2,0,1,2,0,1,2,0,1,2,0,1,2,0,1,2,0,1,2,0,1,2,0,1,2,0,1,2,0,1,2,0,1,2,0,1,2,0,1,2,0,1,2,0,1,2,0,1,2,0,1,2,0,1,2,0,1,2,0,1,2,0,1,2,0,1,2,0,1,2,0,1,2,0,1,2,0,1,2,0,1,2,0,1,2,0,1,2,0,1,2,0,1,2,0,1,2,0,1,2,0,1,2,0,1,2,0,1,2,0,1,2,0,1,2,0,1,2,0,1,2,0,1,2,0,1,2,0,1,2,0,1,2,0,1,2,0,1,2,0,1,2,0,1,2,0,1,2,0,1,2,0,1,2,0,1,2,0,1,2,0,1,2,0,1,2,0,1,2,0,1,2,0,1,2,0,1,2,0,1,2,0,1,2,0,1,2,0,1,2,0,1,2,0,1,2,0,1,2,0,1,2,0,1,2,0,1,2,0,1,2,0,1,2,0,1,2,0,1,2,0,1,2,0,1,2,0,1,2,0,1,2,0,1,2,0,1,2,0,1,2,0,1,2,0,1,2,0,1,2,0,1,2,0,1,2,0,1,2,0,1,2,0,1,2,0,1,2,0,1,2,0,1,2,0,1,2,0,1,2,0,1,2,0,1,2,0,1,2,0,1,2,0,1,2,0,1,2,0,1,2,0,1,2,0,1,2,0,1,2,0,1,2,0,1,2,0,1,2,0,1,2,0,1,2,0,1,2,0,1,2,0,1,2,0,1,2,0,1,2,0,1,2,0,1,2,0,1,2,0,1,2,0,1,2,0,1,2,0,1,2,0,1,2,0,1,2,0,1,2,0,1,2,0,1,2,0,1,2,0,1,2,0,1,2,0,1,2,0,1,2,0,1,2,0,1,2,0,1,2,0,1,2,0,1,2,0,1,2,0,1,2,0,1,2,0,1,2,0,1,2,0,1,2,0,1,2,0,1,2,0,1,2,0,1,2,0,1,2,0,1,2,0,1,2,0,1,2,0,1,2,0,1,2,0,1,2,0,1,2,0,1,2,0,1,2,0,1,2,0,1,2,0,1,2,0,1,2,0,1,2,0,1,2,0,1,2,0,1,2,0,1,2,0,1,2,0,1,2,0,1,2,0,1,2,0,1,2,0,1,2,0,1,2,0,1,2,0,1,2,0,1,2,0,1,2,0,1,2,0,1,2,0,1,2,0,1,2,0,1,2,0,1,2,0,1,2,0,1,2,0,1,2,0,1,2,0,1,2,0,1,2,0,1,2,0,1,2,0,1,2,0,1,2,0,1,2,0,1,2,0,1,2,0,1,2,0,1,2,0,1,2,0,1,2,0,1,2,0,1,2,0,1,2,0,1,2,0,1,2,0,1,2,0,1,2,0,1,2,0,1,2,0,1,2,0,1,2,0,1,2,0,1,2,0,1,2,0,1,2,0,1,2,0,1,2,0,1,2,0,1,2,0,1,2,0,1,2,0,1,2,0,1,2,0,1,2,0,1,2,0,1,2,0,1,2,0,1,2,0,1,2,0,1,2,0,1,2,0,1,2,0,1,2,0,1,2,0,1,2,0,1,2,0,1,2,0,1,2,0,1,2,0,1,2,0,1,2,0,1,2,0,1,2,0,1,2,0,1,2,0,1,2,0,1,2,0,1,2,0,1,2,0,1,2,0,1,2,0,1,2,0,1,2,0,1,2,0,1,2,0,1,2,0,1,2,0,1,2,0,1,2,0,1,2,0,1,2,0,1,2,0,1,2,0,1,2,0,1,2,0,1,2,0,1,2,0,1,2,0,1,2,0,1,2,0,1,2,0,1,2,0,1,2,0,1,2,0,1,2,0,1,2,0,1,2,0,1,2,0,1,2,0,1,2,0,1,2,0,1,2,0,1,2,0,1,2,0,1,2,0,1,2,0,1,2,0,1,2,0,1,2,0,1,2,0,1,2,0,1,2,0,1,2,0,1,2,0,1,2,0,1,2,0,1,2,0,1,2,0,1,2,0,1,2,0,1,2,0,1,2,0,1,2,0,1,2,0,1,2,0,1,2,0,1,2,0,1,2,0,1,2,0,1,2,0,1,2,0,1,2,0,1,2,0,1,2,0,1,2,0,1,2,0,1,2,0,1,2,0,1,2,0,1,2,0,1,2,0,1,2,0,1,2,0,1,2,0,1,2,0,1,2,0,1,2,0,1,2,0,1,2,0,1,2,0,1,2,0,1,2,0,1,2,0,1,2,0,1,2,0,1,2,0,1,2,0,1,2,0,1,2,0,1,2,0,1,2,0,1,2,0,1,2,0,1,2,0,1,2,0,1,2,0,1,2,0,1,2,0,1,2,0,1,2,0,1,2,0,1,2,0,1,2,0,1,2,0,1,2,0,1,2,0,1,2,0,1,2,0,1,2,0,1,2,0,1,2,0,1,2,0,1,2,0,1,2,0,1,2,0,1,2,0,1,2,0,1,2,0,1,2,0,1,2,0,1,2,0,1,2,0,1,2,0,1,2,0,1,2,0,1,2,0,1,2,0,1,2,0,1,2,0,1,2,0,1,2,0,1,2,0,1,2,0,1,2,0,1,2,0,1,2,0,1,2,0,1,2,0,1,2,0,1,2,0,1,2,0,1,2,0,1,2,0,1,2,0,1,2,0,1,2,0,1,2,0,1,2,0,1,2,0,1,2,0,1,2,0,1,2,0,1,2,0,1,2,0,1,2,0,1,2,0,1,2,0,1,2,0,1,2,0,1,2,0,1,2,0,1,2,0,1,2,0,1,2,0,1,2,0,1,2,0,1,2,0,1,2,0,1,2,0,1,2,0,1,2,0,1,2,0,1,2,0,1,2,0,1,2,0,1,2,0,1,2,0,1,2,0,1,2,0,1,2,0,1,2,0,1,2,0,1,2,0,1,2,0,1,2,0,1,2,0,1,2,0,1,2,0,1,2,0,1,2,0,1,2,0,1,2,0,1,2,0,1,2,0,1,2,0,1,2,0,1,2,0,1,2,0,1,2,0,1,2,0,1,2,0,1,2,0,1,2,0,1,2,0,1,2,0,1,2,0,1,2,0,1,2,0,1,2,0,1,2,0,1,2,0,1,2,0,1,2,0,1,2,0,1,2,0,1,2,0,1,2,0,1,2,0,1,2,0,1,2,0,1,2,0,1,2,0,1,2,0,1,2,0,1,2,0,1,2,0,1,2,0,1,2,0,1,2,0,1,2,0,1,2,0,1,2,0,1,2,0,1,2,0,1,2,0,1,2,0,1,2,0,1,2,0,1,2,0,1,2,0,1,2,0,1,2,0,1,2,0,1,2,0,1,2,0,1,2,0,1,2,0,1,2,0,1,2,0,1,2,0,1,2,0,1,2,0,1,2,0,1,2,0,1,2,0,1,2,0,1,2,0,1,2,0,1,2,0,1,2,0,1,2,0,1,2,0,1,2,0,1,2,0,1,2,0,1,2,0,1,2,0,1,2,0,1,2,0,1,2,0,1,2,0,1,2,0,1,2,0,1,2,0,1,2,0,1,2,0,1,2,0,1,2,0,1,2,0,1,2,0,1,2,0,1,2,0,1,2,0,1,2,0,1,2,0,1,2,0,1,2,0,1,2,0,1,2,0,1,2,0,1,2,0,1,2,0,1,2,0,1,2,0,1,2,0,1,2,0,1,2,0,1,2,0,1,2,0,1,2,0,1,2,0,1,2,0,1,2,0,1,2,0,1,2,0,1,2,0,1,2,0,1,2,0,1,2,0,1,2,0,1,2,0,1,2,0,1,2,0,1,2,0,1,2,0,1,2,0,1,2,0,1,2,0,1,2,0,1,2,0,1,2,0,1,2,0,1,2,0,1,2,0,1,2,0,1,2,0,1,2,0,1,2,0,1,2,0,1,2,0,1,2,0,1,2,0,1,2,0,1,2,0,1,2,0,1,2,0,1,2,0,1,2,0,1,2,0,1,2,0,1,2,0,1,2,0,1,2,0,1,2,0,1,2,0,1,2,0,1,2,0,1,2,0,1,2,0,1,2,0,1,2,0,1,2,0,1,2,0,1,2,0,1,2,0,1,2,0,1,2,0,1,2,0,1,2,0,1,2,0,1,2,0,1,2,0,1,2,0,1,2,0,1,2,0,1,2,0,1,2,0,1,2,0,1,2,0,1,2,0,1,2,0,1,2,0,1,2,0,1,2,0,1,2,0,1,2,0,1,2,0,1,2,0,1,2,0,1,2,0,1,2,0,1,2,0,1,2,0,1,2,0,1,2,0,1,2,0,1,2,0,1,2,0,1,2,0,1,2,0,1,2,0,1,2,0,1,2,0,1,2,0,1,2,0,1,2,0,1,2,0,1,2,0,1,2,0,1,2,0,1,2,0,1,2,0,1,2,0,1,2,0,1,2,0,1,2,0,1,2,0,1,2,0,1,2,0,1,2,0,1,2,0,1,2,0,1,2,0,1,2,0,1,2,0,1,2,0,1,2,0,1,2,0,1,2,0,1,2,0,1,2,0,1,2,0,1,2,0,1,2,0,1,2,0,1,2,0,1,2,0,1,2,0,1,2,0,1,2,0,1,2,0,1,2,0,1,2,0,1,2,0,1,2,0,1,2,0,1,2,0,1,2,0,1,2,0,1,2,0,1,2,0,1,2,0,1,2,0,1,2,0,1,2,0,1,2,0,1,2,0,1,2,0,1,2,0,1,2,0,1,2,0,1,2,0,1,2,0,1,2,0,1,2,0,1,2,0,1,2,0,1,2,0,1,2,0,1,2,0,1,2,0,1,2,0,1,2,0,1,2,0,1,2,0,1,2,0,1,2,0,1,2,0,1,2,0,1,2,0,1,2,0,1,2,0,1,2,0,1,2,0,1,2,0,1,2,0,1,2,0,1,2,0,1,2,0,1,2,0,1,2,0,1,2,0,1,2,0,1,2,0,1,2,0,1,2,0,1,2,0,1,2,0,1,2,0,1,2,0,1,2,0,1,2,0,1,2,0,1,2,0,1,2,0,1,2,0,1,2,0,1,2,0,1,2,0,1,2,0,1,2,0,1,2,0,1,2,0,1,2,0,1,2,0,1,2,0,1,2,0,1,2,0,1,2,0,1,2,0,1,2,0,1,2,0,1,2,0,1,2,0,1,2,0,1,2,0,1,2,0,1,2,0,1,2,0,1,2,0,1,2,0,1,2,0,1,2,0,1,2,0,1,2,0,1,2,0,1,2,0,1,2,0,1,2,0,1,2,0,1,2,0,1,2,0,1,2,0,1,2,0,1,2,0,1,2,0,1,2,0,1,2,0,1,2,0,1,2,0,1,2,0,1,2,0,1,2,0,1,2,0,1,2,0,1,2,0,1,2,0,1,2,0,1,2,0,1,2,0,1,2,0,1,2,0,1,2,0,1,2,0,1,2,0,1,2,0,1,2,0,1,2,0,1,2,0,1,2,0,1,2,0,1,2,0,1,2,0,1,2,0,1,2,0,1,2,0,1,2,0,1,2,0,1,2,0,1,2,0,1,2,0,1,2,0,1,2,0,1,2,0,1,2,0,1,2,0,1,2,0,1,2,0,1,2,0,1,2,0,1,2,0,1,2,0,1,2,0,1,2,0,1,2,0,1,2,0,1,2,0,1,2,0,1,2,0,1,2,0,1,2,0,1,2,0,1,2,0,1,2,0,1,2,0,1,2,0,1,2,0,1,2,0,1,2,0,1,2,0,1,2,0,1,2,0,1,2,0,1,2,0,1,2,0,1,2,0,1,2,0,1,2,0,1,2,0,1,2,0,1,2,0,1,2,0,1,2,0,1,2,0,1,2,0,1,2,0,1,2,0,1,2,0,1,2,0,1,2,0,1,2,0,1,2,0,1,2,0,1,2,0,1,2,0,1,2,0,1,2,0,1,2,0,1,2,0,1,2,0,1,2,0,1,2,0,1,2,0,1,2,0,1,2,0,1,2,0,1,2,0,1,2,0,1,2,0,1,2,0,1,2,0,1,2,0,1,2,0,1,2,0,1,2,0,1,2,0,1,2,0,1,2,0,1,2,0,1,2,0,1,2,0,1,2,0,1,2,0,1,2,0,1,2,0,1,2,0,1,2,0,1,2,0,1,2,0,1,2,0,1,2,0,1,2,0,1,2,0,1,2,0,1,2,0,1,2,0,1,2,0,1,2,0,1,2,0,1,2,0,1,2,0,1,2,0,1,2,0,1,2,0,1,2,0,1,2,0,1,2,0,1,2,0,1,2,0,1,2,0,1,2,0,1,2,0,1,2,0,1,2,0,1,2,0,1,2,0,1,2,0,1,2,0,1,2,0,1,2,0,1,2,0,1,2,0,1,2,0,1,2,0,1,2,0,1,2,0,1,2,0,1,2,0,1,2,0,1,2,0,1,2,0,1,2,0,1,2,0,1,2,0,1,2,0,1,2,0,1,2,0,1,2,0,1,2,0,1,2,0,1,2,0,1,2,0,1,2,0,1,2,0,1,2,0,1,2,0,1,2,0,1,2,0,1,2,0,1,2,0,1,2,0,1,2,0,1,2,0,1,2,0,1,2,0,1,2,0,1,2,0,1,2,0,1,2,0,1,2,0,1,2,0,1,2,0,1,2,0,1,2,0,1,2,0,1,2,0,1,2,0,1,2,0,1,2,0,1,2,0,1,2,0,1,2,0,1,2,0,1,2,0,1,2],"trees":[{"base_weights":[-2.1704663E-1,-7.2941184E-1,1.339921E0,-7.410359E-3,-2.5544847E-10,-4.2857146E-3,1.4439834E-2],"categories":[],"categories_nodes":[],"categories_segments":[],"categories_sizes":[],"default_left":[0,0,0,0,0,0,0],"id":0,"left_children":[1,3,5,-1,-1,-1,-1],"loss_changes":[9.041242E1,7.206917E-1,5.79224E0,0E0,0E0,0E0,0E0],"parents":[2147483647,0,0,1,1,2,2],"right_children":[2,4,6,-1,-1,-1,-1],"split_conditions":[4.665359E-1,2.5231876E0,-4.221962E-1,-7.410359E-3,-2.5544847E-10,-4.2857146E-3,1.4439834E-2],"split_indices":[10875,281,175,0,0,0,0],"split_type":[0,0,0,0,0,0,0],"sum_hessian":[1.1111111E2,8.399999E1,2.7111109E1,8.2666664E1,1.3333333E0,1.3333333E0,2.5777777E1],"tree_param":{"num_deleted":"0","num_feature":"13163","num_nodes":"7","size_leaf_vector":"1"}},{"base_weights":[-1.8126933E-2,3.0862325E-1,-6.510264E-1,-2.3651457E-1,6.083916E-1,-7.2948337E-3,8.571428E-3,9.0566033E-1,-5.32995E-1,-2.752294E-1,8.844985E-1,-2.5544847E-10,1.1707316E-2,-7.1186447E-3,7.241379E-3,-5.806452E-1,9.5999995E-3,-1.5789478E-1,1.0676156E0,-2.5544847E-10,-6.6666673E-3,-6E-3,8.571428E-3,1.2572614E-2,-6.122453E-4],"categories":[],"categories_nodes":[],"categories_segments":[],"categories_sizes":[],"default_left":[0,0,0,0,0,0,0,0,0,0,0,0,0,0,0,0,0,0,0,0,0,0,0,0,0],"id":1,"left_children":[1,3,5,7,9,-1,-1,11,13,15,17,-1,-1,-1,-1,19,-1,21,23,-1,-1,-1,-1,-1,-1],"loss_changes":[2.3017859E1,1.2145823E1,5.1085205E0,9.550538E0,1.187286E1,0E0,0E0,1.4137135E0,5.4374824E0,5.1264396E0,7.1462955E0,0E0,0E0,0E0,0E0,5.16129E-1,0E0,3.356391E0,6.7610207E0,0E0,0E0,0E0,0E0,0E0,0E0],"parents":[2147483647,0,0,1,1,2,2,3,3,4,4,7,7,8,8,9,9,10,10,15,15,17,17,18,18],"right_children":[2,4,6,8,10,-1,-1,12,14,16,18,-1,-1,-1,-1,20,-1,22,24,-1,-1,-1,-1,-1,-1],"split_conditions":[2.1228337E-1,-6.173248E-1,8.652543E-1,-5.4442215E-1,-6.902777E-1,-7.2948337E-3,8.571428E-3,-2.4212684E-1,4.5221514E-1,3.2554525E-1,-1.1047469E0,-2.5544847E-10,1.1707316E-2,-7.1186447E-3,7.241379E-3,-1.2103912E0,9.5999995E-3,1.3588254E-1,5.758627E-1,-2.5544847E-10,-6.6666673E-3,-6E-3,8.571428E-3,1.2572614E-2,-6.122453E-4],"split_indices":[1743,10703,2204,1571,5247,0,0,9,6782,527,10084,0,0,0,0,0,0,0,6550,0,0,0,0,0,0],"split_type":[0,0,0,0,0,0,0,0,0,0,0,0,0,0,0,0,0,0,0,0,0,0,0,0,0],"sum_hessian":[1.0933333E2,7.244444E1,3.6888885E1,2.5777777E1,4.6666664E1,3.5555553E1,1.3333333E0,4.8888884E0,2.0888887E1,1.1111111E1,3.5555553E1,1.3333333E0,3.5555553E0,1.8666666E1,2.222222E0,9.333333E0,1.7777777E0,5.333333E0,3.0222221E1,1.3333333E0,7.9999995E0,3.9999998E0,1.3333333E0,2.5777777E1,4.444444E0],"tree_param":{"num_deleted":"0","num_feature":"13163","num_nodes":"25","size_leaf_vector":"1"}},{"base_weights":[2.0979017E-1,-3.3655712E-1,7.789046E-1,-6.782609E-1,3.3149168E-1,1.1467577E0,2.2966504E-1,-7.2972975E-3,4.285714E-3,7.674418E-1,-6.3934433E-3,1.307393E0,-3.576279E-8,6.788321E-1,-5.555556E-1,1.1881188E0,-5.675676E-3,1.44303795E-2,-2.068966E-3,-5.4545454E-3,8.571428E-3,-4.109593E-2,1.3150685E-2,-6.52174E-3,-2.5544847E-10,-2.5544847E-10,1.3483146E-2,1.0344827E-2,-6.2264153E-3],"categories":[],"categories_nodes":[],"categories_segments":[],"categories_sizes":[],"default_left":[0,0,0,0,0,0,0,0,0,0,0,0,0,0,0,0,0,0,0,0,0,0,0,0,0,0,0,0,0],"id":2,"left_children":[1,3,5,7,9,11,13,-1,-1,15,-1,17,19,21,23,25,-1,-1,-1,-1,-1,27,-1,-1,-1,-1,-1,-1,-1],"loss_changes":[3.484493E1,1.3337957E1,1.0803902E1,2.4964943E0,9.002407E0,5.9970512E0,8.567495E0,0E0,0E0,8.724048E0,0E0,6.1640396E0,2.8051949E0,7.0264974E0,4.8309207E-1,2.1359444E0,0E0,0E0,0E0,0E0,0E0,5.717596E0,0E0,0E0,0E0,0E0,0E0,0E0,0E0],"parents":[2147483647,0,0,1,1,2,2,3,3,4,4,5,5,6,6,9,9,11,11,12,12,13,13,14,14,15,15,21,21],"right_children":[2,4,6,8,10,12,14,-1,-1,16,-1,18,20,22,24,26,-1,-1,-1,-1,-1,28,-1,-1,-1,-1,-1,-1,-1],"split_conditions":[-3.455199E-1,-2.8510535E-1,-2.5692242E-1,5.24639E-1,1.5665707E-1,3.7184536E-2,4.687359E-1,-7.2972975E-3,4.285714E-3,2.5351354E-1,-6.3934433E-3,9.2675364E-1,-3.9773083E-1,-1.541593E-1,3.2977244E-1,-9.0820605E-1,-5.675676E-3,1.44303795E-2,-2.068966E-3,-5.4545454E-3,8.571428E-3,-1.0526994E0,1.3150685E-2,-6.52174E-3,-2.5544847E-10,-2.5544847E-10,1.3483146E-2,1.0344827E-2,-6.2264153E-3],"split_indices":[417,7334,6631,2279,6119,6028,4429,0,0,1316,0,4278,56,7615,30,48,0,0,0,0,0,1283,0,0,0,0,0,0,0],"split_type":[0,0,0,0,0,0,0,0,0,0,0,0,0,0,0,0,0,0,0,0,0,0,0,0,0,0,0,0,0],"sum_hessian":[1.1022221E2,5.6444443E1,5.3777775E1,3.7333332E1,1.911111E1,3.1555553E1,2.2222221E1,3.5999996E1,1.3333333E0,1.3333332E1,5.7777777E0,2.7555553E1,3.9999998E0,1.4222221E1,7.9999995E0,1.0222221E1,3.111111E0,2.5333332E1,2.222222E0,2.6666665E0,1.3333333E0,7.1111107E0,7.1111107E0,6.666666E0,1.3333333E0,1.3333333E0,8.888888E0,2.222222E0,4.8888884E0],"tree_param":{"num_deleted":"0","num_feature":"13163","num_nodes":"29","size_leaf_vector":"1"}},{"base_weights":[-2.2030391E-1,-7.2783655E-1,1.2987258E0,-7.388591E-3,1.8942972E-5,-4.7765E-3,1.4267873E-2],"categories":[],"categories_nodes":[],"categories_segments":[],"categories_sizes":[],"default_left":[0,0,0,0,0,0,0],"id":3,"left_children":[1,3,5,-1,-1,-1,-1],"loss_changes":[9.241264E1,7.2184753E-1,7.522377E0,0E0,0E0,0E0,0E0],"parents":[2147483647,0,0,1,1,2,2],"right_children":[2,4,6,-1,-1,-1,-1],"split_conditions":[7.479304E-2,2.373339E-1,-4.855943E-1,-7.388591E-3,1.8942972E-5,-4.7765E-3,1.4267873E-2],"split_indices":[4306,62,212,0,0,0,0],"split_type":[0,0,0,0,0,0,0],"sum_hessian":[1.1764133E2,8.856962E1,2.9071703E1,8.7239365E1,1.3302578E0,1.7713249E0,2.7300379E1],"tree_param":{"num_deleted":"0","num_feature":"13163","num_nodes":"7","size_leaf_vector":"1"}},{"base_weights":[3.8425755E-2,3.432662E-1,-7.2457236E-3,-3.4572798E-1,5.4815876E-1,-5.335635E-1,9.52637E-3,-4.5836043E-1,7.1256053E-1,-7.018912E-3,8.521258E-3,4.279814E-3,-6.57025E-3,-3.4335148E-1,8.447969E-1,-6.1086533E-3,4.2600557E-3,2.7547935E-3,1.1768909E-2],"categories":[],"categories_nodes":[],"categories_segments":[],"categories_sizes":[],"default_left":[0,0,0,0,0,0,0,0,0,0,0,0,0,0,0,0,0,0,0],"id":4,"left_children":[1,3,-1,5,7,9,-1,11,13,-1,-1,-1,-1,15,17,-1,-1,-1,-1],"loss_changes":[2.6428719E1,1.1638893E1,0E0,5.1916065E0,1.0734928E1,4.6606984E0,0E0,1.9434296E0,7.8943405E0,0E0,0E0,0E0,0E0,1.6540504E0,8.881081E0,0E0,0E0,0E0,0E0],"parents":[2147483647,0,0,1,1,3,3,4,4,5,5,7,7,8,8,13,13,14,14],"right_children":[2,4,-1,6,8,10,-1,12,14,-1,-1,-1,-1,16,18,-1,-1,-1,-1],"split_conditions":[2.9572513E-2,-5.582891E-1,-7.2457236E-3,6.55397E-1,-9.7345823E-1,6.091475E-1,9.52637E-3,-7.73096E-1,-7.2815245E-1,-7.018912E-3,8.521258E-3,4.279814E-3,-6.57025E-3,-1.3083759E-1,-3.609125E-1,-6.1086533E-3,4.2600557E-3,2.7547935E-3,1.1768909E-2],"split_indices":[5626,5515,0,12658,6240,2219,0,253,7282,0,0,0,0,1687,9662,0,0,0,0],"split_type":[0,0,0,0,0,0,0,0,0,0,0,0,0,0,0,0,0,0,0],"sum_hessian":[1.1155728E2,8.0103615E1,3.1453665E1,1.8203426E1,6.190019E1,1.6417362E1,1.7860634E0,8.439974E0,5.3460213E1,1.5079089E1,1.338273E0,1.3340076E0,7.1059666E0,5.7722325E0,4.768798E1,4.435846E0,1.3363868E0,1.8243017E1,2.9444963E1],"tree_param":{"num_deleted":"0","num_feature":"13163","num_nodes":"19","size_leaf_vector":"1"}},{"base_weights":[1.7528991E-1,-4.1906396E-1,7.02747E-1,-5.823994E-1,5.7008296E-1,9.0324825E-1,-2.0695496E-3,9.491778E-3,-6.646182E-1,1.2123121E-2,-5.444493E-3,1.0336411E0,-3.9889914E-1,-6.618019E-3,8.274023E-1,1.6138318E-1,-7.30032E-3,1.1308246E0,-5.1664026E-3,1.3202958E-5,-5.4468703E-3,1.2121345E-2,-4.287607E-3,-4.7789095E-3,8.49435E-3,-2.739316E-3,1.2365652E-2],"categories":[],"categories_nodes":[],"categories_segments":[],"categories_sizes":[],"default_left":[0,0,0,0,0,0,0,0,0,0,0,0,0,0,0,0,0,0,0,0,0,0,0,0,0,0,0],"id":5,"left_children":[1,3,5,7,9,11,13,-1,15,-1,-1,17,19,-1,21,23,-1,25,-1,-1,-1,-1,-1,-1,-1,-1,-1],"loss_changes":[3.575425E1,9.025582E0,8.523466E0,6.508707E0,6.4804134E0,8.383774E0,8.401803E0,0E0,2.543192E0,0E0,0E0,7.055725E0,2.921583E-1,0E0,3.807413E0,2.2150195E0,0E0,6.38929E0,0E0,0E0,0E0,0E0,0E0,0E0,0E0,0E0,0E0],"parents":[2147483647,0,0,1,1,2,2,3,3,4,4,5,5,6,6,8,8,11,11,12,12,14,14,15,15,17,17],"right_children":[2,4,6,8,10,12,14,-1,16,-1,-1,18,20,-1,22,24,-1,26,-1,-1,-1,-1,-1,-1,-1,-1,-1],"split_conditions":[-4.264206E-1,5.732768E-1,2.7748296E-1,-3.8223165E-1,4.943841E-1,1.346456E0,-3.1539497E-1,9.491778E-3,-5.5019134E-1,1.2123121E-2,-5.444493E-3,1.0737932E0,-3.34328E-1,-6.618019E-3,1.2016681E-1,-5.735907E-1,-7.30032E-3,-6.391108E-1,-5.1664026E-3,1.3202958E-5,-5.4468703E-3,1.2121345E-2,-4.287607E-3,-4.7789095E-3,8.49435E-3,-2.739316E-3,1.2365652E-2],"split_indices":[3513,9997,9313,2725,311,6440,10480,0,12426,0,0,11610,184,0,630,1,0,9783,0,0,0,0,0,0,0,0,0],"split_type":[0,0,0,0,0,0,0,0,0,0,0,0,0,0,0,0,0,0,0,0,0,0,0,0,0,0,0],"sum_hessian":[1.1211066E2,5.280921E1,5.9301445E1,4.567776E1,7.1314507E0,4.5948734E1,1.3352711E1,1.7899469E0,4.3887817E1,4.468707E0,2.6627436E0,4.1953815E1,3.9949164E0,7.5499167E0,5.8027945E0,3.112918E0,4.07749E1,3.973358E1,2.2202375E0,1.3312608E0,2.6636558E0,4.469075E0,1.3337193E0,1.771991E0,1.3409269E0,2.670156E0,3.7063423E1],"tree_param":{"num_deleted":"0","num_feature":"13163","num_nodes":"27","size_leaf_vector":"1"}},{"base_weights":[-1.8361467E-1,-7.359544E-3,1.3185171E0,1.4101102E-2,-4.2444407E-3],"categories":[],"categories_nodes":[],"categories_segments":[],"categories_sizes":[],"default_left":[0,0,0,0,0],"id":6,"left_children":[1,-1,3,-1,-1],"loss_changes":[9.601761E1,0E0,5.5724945E0,0E0,0E0],"parents":[2147483647,0,0,2,2],"right_children":[2,-1,4,-1,-1],"split_conditions":[5.7989615E-1,-7.359544E-3,2.1715185E-1,1.4101102E-2,-4.2444407E-3],"split_indices":[707,0,9,0,0],"split_type":[0,0,0,0,0],"sum_hessian":[1.13557945E2,8.340109E1,3.015685E1,2.8832653E1,1.3241975E0],"tree_param":{"num_deleted":"0","num_feature":"13163","num_nodes":"5","size_leaf_vector":"1"}},{"base_weights":[-3.16316E-3,2.8018406E-1,-7.221742E-3,5.375752E-1,-3.790889E-1,-1.17637366E-1,7.814687E-1,-6.079523E-1,5.900906E-1,-6.7518055E-3,6.443723E-1,-5.8329315E-3,9.172867E-1,-7.0679304E-3,4.2506233E-3,1.0733161E-2,-4.279192E-3,-5.146789E-3,1.20646255E-2,-5.1618163E-3,1.01534175E-2],"categories":[],"categories_nodes":[],"categories_segments":[],"categories_sizes":[],"default_left":[0,0,0,0,0,0,0,0,0,0,0,0,0,0,0,0,0,0,0,0,0],"id":7,"left_children":[1,3,-1,5,7,9,11,13,15,-1,17,-1,19,-1,-1,-1,-1,-1,-1,-1,-1],"loss_changes":[2.3315464E1,1.4135469E1,0E0,9.593891E0,5.602212E0,7.656992E0,8.591162E0,2.3033185E0,2.9304109E0,0E0,5.6335235E0,0E0,6.1348076E0,0E0,0E0,0E0,0E0,0E0,0E0,0E0,0E0],"parents":[2147483647,0,0,1,1,3,3,4,4,5,5,6,6,7,7,8,8,10,10,12,12],"right_children":[2,4,-1,6,8,10,12,14,16,-1,18,-1,20,-1,-1,-1,-1,-1,-1,-1,-1],"split_conditions":[1.6047709E-3,1.6041641E-1,-7.221742E-3,-3.8223165E-1,5.3604025E-1,-8.274079E-2,-9.1296303E-1,1.511669E-2,1.1983914E0,-6.7518055E-3,-4.359022E-1,-5.8329315E-3,-6.416958E-1,-7.0679304E-3,4.2506233E-3,1.0733161E-2,-4.279192E-3,-5.146789E-3,1.20646255E-2,-5.1618163E-3,1.01534175E-2],"split_indices":[5626,5903,0,2725,7191,2891,6204,7381,45,0,6847,0,9452,0,0,0,0,0,0,0,0],"split_type":[0,0,0,0,0,0,0,0,0,0,0,0,0,0,0,0,0,0,0,0,0],"sum_hessian":[1.124499E2,8.110029E1,3.1349606E1,5.846081E1,2.2639477E1,1.5998633E1,4.2462177E1,1.8616148E1,4.023329E0,9.304624E0,6.69401E0,3.5450652E0,3.8917114E1,1.7278687E1,1.3374615E0,2.6914377E0,1.331891E0,2.213676E0,4.480334E0,2.2186375E0,3.6698475E1],"tree_param":{"num_deleted":"0","num_feature":"13163","num_nodes":"21","size_leaf_vector":"1"}},{"base_weights":[2.0162323E-1,5.244313E-1,-6.608541E-1,1.0101731E0,2.132142E-1,-7.213185E-3,4.239678E-3,-5.1682703E-3,1.1360737E0,-3.3278834E-2,1.0927445E0,1.3370891E0,5.3197432E-2,-4.9608362E-1,4.6730915E-1,1.3290039E-2,-4.297204E-3,-2.8473567E-5,1.4094708E-2,-5.6613474E-3,9.431811E-3,8.47989E-3,-6.200157E-3,-1.34731E-3,1.2133163E-2],"categories":[],"categories_nodes":[],"categories_segments":[],"categories_sizes":[],"default_left":[0,0,0,0,0,0,0,0,0,0,0,0,0,0,0,0,0,0,0,0,0,0,0,0,0],"id":8,"left_children":[1,3,5,7,9,-1,-1,-1,11,13,15,17,19,21,23,-1,-1,-1,-1,-1,-1,-1,-1,-1,-1],"loss_changes":[3.2984245E1,1.2763884E1,2.4289846E0,6.9815063E0,1.165621E1,0E0,0E0,0E0,6.6854515E0,1.01556425E1,4.8019857E0,2.5391083E0,3.7867098E0,4.3140926E0,9.636688E0,0E0,0E0,0E0,0E0,0E0,0E0,0E0,0E0,0E0,0E0],"parents":[2147483647,0,0,1,1,2,2,3,3,4,4,8,8,9,9,10,10,11,11,12,12,13,13,14,14],"right_children":[2,4,6,8,10,-1,-1,-1,12,14,16,18,20,22,24,-1,-1,-1,-1,-1,-1,-1,-1,-1,-1],"split_conditions":[-2.106305E-1,-5.8900756E-1,1.022738E0,-9.149594E-1,-1.1377914E-1,-7.213185E-3,4.239678E-3,-5.1682703E-3,1.2900099E0,-9.1933657E-4,1.1538295E0,-1.1220222E0,-5.112823E-2,-8.513556E-1,4.4395246E-2,1.3290039E-2,-4.297204E-3,-2.8473567E-5,1.4094708E-2,-5.6613474E-3,9.431811E-3,8.47989E-3,-6.200157E-3,-1.34731E-3,1.2133163E-2],"split_indices":[12682,10703,12499,8506,11328,0,0,0,2852,12227,25,449,711,7189,1534,0,0,0,0,0,0,0,0,0,0],"split_type":[0,0,0,0,0,0,0,0,0,0,0,0,0,0,0,0,0,0,0,0,0,0,0,0,0],"sum_hessian":[1.1622685E2,8.48581E1,3.1368752E1,3.226056E1,5.2597546E1,3.0030054E1,1.3386968E0,2.2207618E0,3.0039797E1,4.1835175E1,1.0762368E1,2.5138548E1,4.9012494E0,2.1742628E1,2.0092548E1,9.426599E0,1.3357695E0,1.337593E0,2.3800955E1,3.104639E0,1.7966104E0,1.3423347E0,2.0400293E1,1.1572636E1,8.519912E0],"tree_param":{"num_deleted":"0","num_feature":"13163","num_nodes":"25","size_leaf_vector":"1"}},{"base_weights":[-1.9545579E-1,1.2937127E0,-7.102478E-1,-4.219827E-3,1.388905E-2,4.181176E-3,-7.333891E-3],"categories":[],"categories_nodes":[],"categories_segments":[],"categories_sizes":[],"default_left":[0,0,0,0,0,0,0],"id":9,"left_children":[1,3,5,-1,-1,-1,-1],"loss_changes":[8.79493E1,5.406975E0,2.5263634E0,0E0,0E0,0E0,0E0],"parents":[2147483647,0,0,1,1,2,2],"right_children":[2,4,6,-1,-1,-1,-1],"split_conditions":[-7.135422E-1,-4.901619E-1,-8.917497E-1,-4.219827E-3,1.388905E-2,4.181176E-3,-7.333891E-3],"split_indices":[1792,51,1714,0,0,0,0],"split_type":[0,0,0,0,0,0,0],"sum_hessian":[1.1252605E2,2.8517822E1,8.4008224E1,1.3186266E0,2.7199194E1,1.3452687E0,8.266296E1],"tree_param":{"num_deleted":"0","num_feature":"13163","num_nodes":"7","size_leaf_vector":"1"}},{"base_weights":[3.365675E-2,3.107823E-1,-7.1910825E-3,-1.3806106E-1,6.6376793E-1,5.0987303E-1,-5.180006E-1,-5.8514923E-2,1.0215851E0,9.7023565E-1,-5.9651467E-3,-7.1094935E-3,3.008871E-1,-5.953646E-1,9.259176E-1,-3.9857063E-1,1.2348967E0,-4.761038E-3,1.3036103E-2,-5.1400075E-3,1.0138985E-2,-6.729318E-3,2.4613237E-5,1.7755523E-6,1.169903E-2,1.968199E-5,-5.445389E-3,1.3321726E-2,-4.2724027E-3],"categories":[],"categories_nodes":[],"categories_segments":[],"categories_sizes":[],"default_left":[0,0,0,0,0,0,0,0,0,0,0,0,0,0,0,0,0,0,0,0,0,0,0,0,0,0,0,0,0],"id":10,"left_children":[1,3,-1,5,7,9,11,13,15,17,-1,-1,19,21,23,25,27,-1,-1,-1,-1,-1,-1,-1,-1,-1,-1,-1,-1],"loss_changes":[2.4633858E1,1.3752867E1,0E0,9.812453E0,1.2578669E1,8.137827E0,4.1554284E0,9.531851E0,1.0321362E1,5.8574877E0,0E0,0E0,3.6932926E0,5.3979254E-1,1.4426346E0,2.929989E-1,5.169651E0,0E0,0E0,0E0,0E0,0E0,0E0,0E0,0E0,0E0,0E0,0E0,0E0],"parents":[2147483647,0,0,1,1,3,3,4,4,5,5,6,6,7,7,8,8,9,9,12,12,13,13,14,14,15,15,16,16],"right_children":[2,4,-1,6,8,10,12,14,16,18,-1,-1,20,22,24,26,28,-1,-1,-1,-1,-1,-1,-1,-1,-1,-1,-1,-1],"split_conditions":[5.6504413E-2,-4.3731073E-1,-7.1910825E-3,-5.650231E-1,-1.677807E-1,7.8858626E-1,2.7540374E-1,1.9880694E-1,-8.419331E-1,-7.2786057E-1,-5.9651467E-3,-7.1094935E-3,-5.9578794E-1,1.232648E0,-6.606908E-1,-1.0201569E0,1.3799039E0,-4.761038E-3,1.3036103E-2,-5.1400075E-3,1.0138985E-2,-6.729318E-3,2.4613237E-5,1.7755523E-6,1.169903E-2,1.968199E-5,-5.445389E-3,1.3321726E-2,-4.2724027E-3],"split_indices":[5626,6289,0,6307,6521,6390,12063,6929,58,6125,0,0,0,1935,32,0,3257,0,0,0,0,0,0,0,0,0,0,0,0],"split_type":[0,0,0,0,0,0,0,0,0,0,0,0,0,0,0,0,0,0,0,0,0,0,0,0,0,0,0,0,0],"sum_hessian":[1.16014145E2,8.5225914E1,3.0788223E1,3.7786667E1,4.7439247E1,1.38409195E1,2.394575E1,1.5992855E1,3.1446394E1,9.860905E0,3.9800148E0,1.948617E1,4.4595785E0,1.060484E1,5.3880143E0,3.9931118E0,2.7453281E1,1.766939E0,8.093966E0,2.2113638E0,2.248215E0,9.275698E0,1.3291429E0,1.3325862E0,4.055428E0,1.3300244E0,2.6630874E0,2.6122963E1,1.33032E0],"tree_param":{"num_deleted":"0","num_feature":"13163","num_nodes":"29","size_leaf_vector":"1"}},{"base_weights":[1.6653858E-1,-4.152765E-1,6.462759E-1,-5.794408E-1,6.33943E-1,8.588598E-1,-1.9253768E-1,-7.014036E-1,2.4565582E-1,-5.1631713E-3,1.1907596E-2,9.610179E-1,-5.6447154E-3,-5.852232E-1,8.723023E-3,-7.2504133E-3,4.1673447E-5,-5.618574E-3,1.07259005E-2,1.1022584E0,-1.5773058E-1,-8.72296E-6,-6.6794837E-3,1.2333227E-2,1.4789297E-3,8.375749E-3,-5.9630703E-3],"categories":[],"categories_nodes":[],"categories_segments":[],"categories_sizes":[],"default_left":[0,0,0,0,0,0,0,0,0,0,0,0,0,0,0,0,0,0,0,0,0,0,0,0,0,0,0],"id":11,"left_children":[1,3,5,7,9,11,13,15,17,-1,-1,19,-1,21,-1,-1,-1,-1,-1,23,25,-1,-1,-1,-1,-1,-1],"loss_changes":[3.30027E1,9.601165E0,1.1696951E1,4.8897285E0,5.5660963E0,8.0709915E0,6.3195314E0,6.8850327E-1,5.1284804E0,0E0,0E0,7.865753E0,0E0,5.1897955E-1,0E0,0E0,0E0,0E0,0E0,5.2396317E0,3.2632918E0,0E0,0E0,0E0,0E0,0E0,0E0],"parents":[2147483647,0,0,1,1,2,2,3,3,4,4,5,5,6,6,7,7,8,8,11,11,13,13,19,19,20,20],"right_children":[2,4,6,8,10,12,14,16,18,-1,-1,20,-1,22,-1,-1,-1,-1,-1,24,26,-1,-1,-1,-1,-1,-1],"split_conditions":[-3.4816918E-1,-4.5219667E-2,8.2924485E-1,1.3049247E0,-8.6684805E-1,1.0858477E0,2.0930537E-3,1.7110717E0,-3.573208E-1,-5.1631713E-3,1.1907596E-2,4.983481E-1,-5.6447154E-3,-5.653065E-1,8.723023E-3,-7.2504133E-3,4.1673447E-5,-5.618574E-3,1.07259005E-2,8.4782E-1,-5.436926E-1,-8.72296E-6,-6.6794837E-3,1.2333227E-2,1.4789297E-3,8.375749E-3,-5.9630703E-3],"split_indices":[4950,8861,6616,11639,583,11610,5538,185,2188,0,0,3858,0,5445,0,0,0,0,0,5670,33,0,0,0,0,0,0],"split_type":[0,0,0,0,0,0,0,0,0,0,0,0,0,0,0,0,0,0,0,0,0,0,0,0,0,0,0],"sum_hessian":[1.1627753E2,5.2608925E1,6.3668602E1,4.5878387E1,6.730538E0,5.077627E1,1.289233E1,4.010075E1,5.777637E0,2.2191005E0,4.5114374E0,4.7678974E1,3.0972993E0,9.747951E0,3.14438E0,3.877416E1,1.3265915E0,3.085326E0,2.6923113E0,4.234741E1,5.331566E0,1.3341784E0,8.413772E0,3.6977013E1,5.370394E0,1.352483E0,3.979083E0],"tree_param":{"num_deleted":"0","num_feature":"13163","num_nodes":"27","size_leaf_vector":"1"}},{"base_weights":[-1.7520763E-1,-7.310159E-3,1.2644116E0,-4.7134617E-3,1.3757808E-2],"categories":[],"categories_nodes":[],"categories_segments":[],"categories_sizes":[],"default_left":[0,0,0,0,0],"id":12,"left_children":[1,-1,3,-1,-1],"loss_changes":[9.557381E1,0E0,7.0885544E0,0E0,0E0],"parents":[2147483647,0,0,2,2],"right_children":[2,-1,4,-1,-1],"split_conditions":[4.9382588E-1,-7.310159E-3,-1.6547517E-1,-4.7134617E-3,1.3757808E-2],"split_indices":[707,0,113,0,0],"split_type":[0,0,0,0,0],"sum_hessian":[1.1728936E2,8.497458E1,3.2314777E1,1.7534788E0,3.0561298E1],"tree_param":{"num_deleted":"0","num_feature":"13163","num_nodes":"5","size_leaf_vector":"1"}},{"base_weights":[6.217794E-3,2.989374E-1,-7.174472E-3,6.7793065E-1,-1.1788512E-1,-3.8829136E-1,8.8746905E-1,-4.9155957E-1,3.7091142E-1,-6.2657343E-3,4.1611083E-3,-1.9535495E-1,1.1029992E0,-6.1539054E-1,8.377503E-3,-3.8873845E-1,8.70004E-1,8.3268965E-3,-6.0704383E-3,-1.4694819E-3,1.2773734E-2,4.207414E-3,-7.0623774E-3,4.217984E-3,-6.279809E-3,1.2724528E-2,-2.7180344E-3],"categories":[],"categories_nodes":[],"categories_segments":[],"categories_sizes":[],"default_left":[0,0,0,0,0,0,0,0,0,0,0,0,0,0,0,0,0,0,0,0,0,0,0,0,0,0,0],"id":13,"left_children":[1,3,-1,5,7,9,11,13,15,-1,-1,17,19,21,-1,23,25,-1,-1,-1,-1,-1,-1,-1,-1,-1,-1],"loss_changes":[2.3948633E1,1.2793638E1,0E0,9.79528E0,7.3384404E0,1.725775E0,8.537319E0,4.241399E0,6.990042E0,0E0,0E0,3.370273E0,6.7022476E0,2.3004274E0,0E0,1.7478794E0,5.3532686E0,0E0,0E0,0E0,0E0,0E0,0E0,0E0,0E0,0E0,0E0],"parents":[2147483647,0,0,1,1,3,3,4,4,5,5,6,6,7,7,8,8,11,11,12,12,13,13,15,15,16,16],"right_children":[2,4,-1,6,8,10,12,14,16,-1,-1,18,20,22,-1,24,26,-1,-1,-1,-1,-1,-1,-1,-1,-1,-1],"split_conditions":[1.6503753E-1,2.8054207E-3,-7.174472E-3,-6.4852464E-1,-2.216598E-1,1.4530238E0,-8.354134E-1,2.5354064E0,-1.2493388E-1,-6.2657343E-3,4.1611083E-3,-4.2402843E-1,-6.0807484E-1,-7.3744416E-1,8.377503E-3,-1.0503764E0,6.617328E-1,8.3268965E-3,-6.0704383E-3,-1.4694819E-3,1.2773734E-2,4.207414E-3,-7.0623774E-3,4.217984E-3,-6.279809E-3,1.2724528E-2,-2.7180344E-3],"split_indices":[707,912,0,6703,1193,780,5788,9992,9417,0,0,317,3544,11166,0,92,4960,0,0,0,0,0,0,0,0,0,0],"split_type":[0,0,0,0,0,0,0,0,0,0,0,0,0,0,0,0,0,0,0,0,0,0,0,0,0,0,0],"sum_hessian":[1.1104294E2,7.948036E1,3.1562578E1,4.1301136E1,3.8179222E1,6.6434264E0,3.465771E1,2.1634478E1,1.6544744E1,5.2957697E0,1.3476568E0,5.768809E0,2.8888903E1,2.0282166E1,1.3523114E0,6.6476774E0,9.897068E0,1.3571634E0,4.4116454E0,3.5560124E0,2.533289E1,1.3422468E0,1.893992E1,1.341092E0,5.3065853E0,7.2331905E0,2.6638772E0],"tree_param":{"num_deleted":"0","num_feature":"13163","num_nodes":"27","size_leaf_vector":"1"}},{"base_weights":[2.036574E-1,5.5771244E-1,-6.893418E-1,7.9723185E-1,-3.76579E-3,-7.1772197E-3,4.8092457E-5,9.968214E-1,-1.5000243E-1,-2.3365353E-1,1.1277037E-2,1.1218244E0,-1.1449061E-1,-6.5354737E-3,8.632476E-3,-5.4716694E-1,9.7395E-3,9.17136E-4,1.274315E-2,8.315664E-3,-5.8125556E-3,-7.031929E-3,8.354187E-3],"categories":[],"categories_nodes":[],"categories_segments":[],"categories_sizes":[],"default_left":[0,0,0,0,0,0,0,0,0,0,0,0,0,0,0,0,0,0,0,0,0,0,0],"id":14,"left_children":[1,3,5,7,9,-1,-1,11,13,15,-1,17,19,-1,-1,21,-1,-1,-1,-1,-1,-1,-1],"loss_changes":[3.7638348E1,1.1424557E1,6.7128944E-1,1.1405487E1,7.128093E0,0E0,0E0,6.977928E0,6.2943406E0,9.150927E0,0E0,6.8596954E0,3.0854924E0,0E0,0E0,4.623901E0,0E0,0E0,0E0,0E0,0E0,0E0,0E0],"parents":[2147483647,0,0,1,1,2,2,3,3,4,4,7,7,8,8,9,9,11,11,12,12,15,15],"right_children":[2,4,6,8,10,-1,-1,12,14,16,-1,18,20,-1,-1,22,-1,-1,-1,-1,-1,-1,-1],"split_conditions":[-1.12650804E-1,1.0399033E-1,1.4955088E0,1.1575192E0,3.4678173E-1,-7.1772197E-3,4.8092457E-5,1.7037635E0,-1.9205497E-1,7.689904E-1,1.1277037E-2,-7.5750005E-1,-6.7683464E-1,-6.5354737E-3,8.632476E-3,4.637252E-1,9.7395E-3,9.17136E-4,1.274315E-2,8.315664E-3,-5.8125556E-3,-7.031929E-3,8.354187E-3],"split_indices":[8921,247,5455,10622,2431,0,0,10445,4533,9769,0,12667,113,0,0,6486,0,0,0,0,0,0,0],"split_type":[0,0,0,0,0,0,0,0,0,0,0,0,0,0,0,0,0,0,0,0,0,0,0],"sum_hessian":[1.1682836E2,8.392812E1,3.2900238E1,5.853707E1,2.5391048E1,3.157533E1,1.3249085E0,4.830623E1,1.0230844E1,2.176285E1,3.628199E0,4.3413517E1,4.89271E0,7.0715594E0,3.159284E0,1.7711544E1,4.0513053E0,5.8044567E0,3.7609062E1,1.358235E0,3.5344753E0,1.6357033E1,1.3545119E0],"tree_param":{"num_deleted":"0","num_feature":"13163","num_nodes":"23","size_leaf_vector":"1"}},{"base_weights":[-1.9532162E-1,-7.2846864E-3,1.2379832E0,1.3548988E-2,-4.7521675E-3],"categories":[],"categories_nodes":[],"categories_segments":[],"categories_sizes":[],"default_left":[0,0,0,0,0],"id":15,"left_children":[1,-1,3,-1,-1],"loss_changes":[8.913769E1,0E0,6.9885902E0,0E0,0E0],"parents":[2147483647,0,0,2,2],"right_children":[2,-1,4,-1,-1],"split_conditions":[4.9382588E-1,-7.2846864E-3,-3.2536966E-1,1.3548988E-2,-4.7521675E-3],"split_indices":[707,0,1056,0,0],"split_type":[0,0,0,0,0],"sum_hessian":[1.1446743E2,8.37913E1,3.067613E1,2.891219E1,1.763941E0],"tree_param":{"num_deleted":"0","num_feature":"13163","num_nodes":"5","size_leaf_vector":"1"}},{"base_weights":[4.6869837E-2,3.4008554E-1,-6.875205E-1,6.2243176E-1,-1.4054285E-1,2.4046076E-5,-7.1544694E-3,-1.9635154E-1,7.98013E-1,7.594086E-1,-4.0585122E-1,7.849753E-3,-6.48606E-3,-5.623494E-3,9.1238415E-1,-4.7169006E-3,1.1989331E-2,7.947903E-3,-5.8128875E-1,1.08723985E-2,-2.702807E-5,-7.0739663E-3,5.822893E-3],"categories":[],"categories_nodes":[],"categories_segments":[],"categories_sizes":[],"default_left":[0,0,0,0,0,0,0,0,0,0,0,0,0,0,0,0,0,0,0,0,0,0,0],"id":16,"left_children":[1,3,5,7,9,-1,-1,11,13,15,17,-1,-1,-1,19,-1,-1,-1,21,-1,-1,-1,-1],"loss_changes":[2.5808264E1,1.1696451E1,6.610317E-1,7.930441E0,8.06164E0,0E0,0E0,5.102841E0,7.471327E0,4.754613E0,5.8819804E0,0E0,0E0,0E0,6.6649895E0,0E0,0E0,0E0,3.791007E0,0E0,0E0,0E0,0E0],"parents":[2147483647,0,0,1,1,2,2,3,3,4,4,7,7,8,8,9,9,10,10,14,14,18,18],"right_children":[2,4,6,8,10,-1,-1,12,14,16,18,-1,-1,-1,20,-1,-1,-1,22,-1,-1,-1,-1],"split_conditions":[-2.4526816E-2,1.9629814E-1,-8.545665E-1,-8.7831163E-1,-7.2277117E-1,2.4046076E-5,-7.1544694E-3,-3.6452395E-1,-1.2722056E0,-6.806044E-1,-1.1815319E0,7.849753E-3,-6.48606E-3,-5.623494E-3,9.88741E-1,-4.7169006E-3,1.1989331E-2,7.947903E-3,5.3494498E-2,1.08723985E-2,-2.702807E-5,-7.0739663E-3,5.822893E-3],"split_indices":[12224,11476,1780,6150,2453,0,0,2469,8373,597,3143,0,0,0,3435,0,0,0,10616,0,0,0,0],"split_type":[0,0,0,0,0,0,0,0,0,0,0,0,0,0,0,0,0,0,0,0,0,0,0],"sum_hessian":[1.1776599E2,8.454652E1,3.3219475E1,5.307339E1,3.1473122E1,1.3278854E0,3.189159E1,9.3506155E0,4.372278E1,6.7418284E0,2.4731293E1,2.7177646E0,6.6328506E0,3.0870976E0,4.063568E1,1.7544551E0,4.9873734E0,2.7029293E0,2.2028364E1,3.395869E1,6.6769886E0,2.0228106E1,1.8002589E0],"tree_param":{"num_deleted":"0","num_feature":"13163","num_nodes":"23","size_leaf_vector":"1"}},{"base_weights":[2.0592763E-1,-4.2773372E-1,7.077906E-1,-5.963951E-1,7.0308286E-1,9.967094E-1,2.7285686E-1,-6.782089E-1,7.039202E-3,-4.769244E-3,1.1639379E-2,1.1577971E0,-1.1745087E-1,7.499295E-1,-3.7111706E-1,4.1568847E-3,-7.2214985E-3,1.2839384E0,-8.6641714E-2,8.226455E-3,-5.8189607E-3,-5.156884E-3,9.8477656E-1,-6.733973E-3,6.9500636E-3,-1.0658682E-4,1.3421688E-2,4.1667344E-3,-4.8050857E-3,-4.7645182E-3,1.2320209E-2],"categories":[],"categories_nodes":[],"categories_segments":[],"categories_sizes":[],"default_left":[0,0,0,0,0,0,0,0,0,0,0,0,0,0,0,0,0,0,0,0,0,0,0,0,0,0,0,0,0,0,0],"id":17,"left_children":[1,3,5,7,9,11,13,15,-1,-1,-1,17,19,21,23,-1,-1,25,27,-1,-1,-1,29,-1,-1,-1,-1,-1,-1,-1,-1],"loss_changes":[3.7961758E1,1.0520326E1,8.079353E0,5.437893E0,4.5428076E0,7.2353554E0,8.850904E0,2.4332752E0,0E0,0E0,0E0,5.550625E0,3.0567503E0,5.370453E0,4.510414E0,0E0,0E0,2.3908463E0,1.0181321E0,0E0,0E0,0E0,5.6966057E0,0E0,0E0,0E0,0E0,0E0,0E0,0E0,0E0],"parents":[2147483647,0,0,1,1,2,2,3,3,4,4,5,5,6,6,7,7,11,11,12,12,13,13,14,14,17,17,18,18,22,22],"right_children":[2,4,6,8,10,12,14,16,-1,-1,-1,18,20,22,24,-1,-1,26,28,-1,-1,-1,30,-1,-1,-1,-1,-1,-1,-1,-1],"split_conditions":[-3.9585117E-1,3.6808795E-1,2.2098497E-1,1.0213943E0,-4.0184632E-1,1.0029922E0,-2.603571E-2,-1.4091744E0,7.039202E-3,-4.769244E-3,1.1639379E-2,1.3464824E0,-8.518726E-1,-5.017099E-1,-2.087185E-2,4.1568847E-3,-7.2214985E-3,-9.518536E-1,-1.8244168E-1,8.226455E-3,-5.8189607E-3,-5.156884E-3,3.9684036E-1,-6.733973E-3,6.9500636E-3,-1.0658682E-4,1.3421688E-2,4.1667344E-3,-4.8050857E-3,-4.7645182E-3,1.2320209E-2],"split_indices":[9960,1877,2676,1817,2254,1293,7744,4788,0,0,0,11320,0,3201,12898,0,0,3322,82,0,0,0,2676,0,0,0,0,0,0,0,0],"split_type":[0,0,0,0,0,0,0,0,0,0,0,0,0,0,0,0,0,0,0,0,0,0,0,0,0,0,0,0,0,0,0],"sum_hessian":[1.1742042E2,5.19611E1,6.545932E1,4.5628242E1,6.332857E0,3.855577E1,2.690355E1,4.337743E1,2.2508135E0,1.7688624E0,4.563995E0,3.3651237E1,4.904533E0,1.5359959E1,1.1543591E1,1.3484327E0,4.2028996E1,3.0525328E1,3.1259098E0,1.3667706E0,3.5377622E0,2.2169125E0,1.3143046E1,9.280608E0,2.2629824E0,1.3490824E0,2.9176245E1,1.346868E0,1.7790418E0,1.7678579E0,1.1375188E1],"tree_param":{"num_deleted":"0","num_feature":"13163","num_nodes":"31","size_leaf_vector":"1"}},{"base_weights":[-2.0294158E-1,-7.254933E-3,1.2154863E0,1.3351685E-2,-4.722376E-3],"categories":[],"categories_nodes":[],"categories_segments":[],"categories_sizes":[],"default_left":[0,0,0,0,0],"id":18,"left_children":[1,-1,3,-1,-1],"loss_changes":[8.368814E1,0E0,6.7813034E0,0E0,0E0],"parents":[2147483647,0,0,2,2],"right_children":[2,-1,4,-1,-1],"split_conditions":[1.1319836E-1,-7.254933E-3,-3.2536966E-1,1.3351685E-2,-4.722376E-3],"split_indices":[12224,0,1056,0,0],"split_type":[0,0,0,0,0],"sum_hessian":[1.1071897E2,8.126815E1,2.9450829E1,2.7695723E1,1.755105E0],"tree_param":{"num_deleted":"0","num_feature":"13163","num_nodes":"5","size_leaf_vector":"1"}},{"base_weights":[-3.4830213E-2,-4.933814E-1,3.6089635E-1,6.086057E-1,-6.3579494E-1,7.4176794E-1,-1.0774887E-1,-4.6882248E-3,1.1138688E-2,-6.9855833E-1,5.834704E-3,1.2083461E0,-2.7434146E-2,-4.2341617E-1,7.5700545E-1,3.4775218E-5,-7.2033447E-3,1.341761E-2,-4.220263E-3,-5.4770195E-1,8.153396E-1,9.184166E-3,-5.999865E-1,-4.6951533E-3,1.1925744E-2,1.611517E-5,-6.4406334E-3,1.0826641E-2,-9.537536E-5,-7.006708E-3,4.149788E-3],"categories":[],"categories_nodes":[],"categories_segments":[],"categories_sizes":[],"default_left":[0,0,0,0,0,0,0,0,0,0,0,0,0,0,0,0,0,0,0,0,0,0,0,0,0,0,0,0,0,0,0],"id":19,"left_children":[1,3,5,7,9,11,13,-1,-1,15,-1,17,19,21,23,-1,-1,-1,-1,25,27,-1,29,-1,-1,-1,-1,-1,-1,-1,-1],"loss_changes":[2.0161257E1,8.459068E0,1.0734008E1,4.004821E0,3.9306374E0,1.1896299E1,7.863915E0,0E0,0E0,6.7881775E-1,0E0,5.046421E0,6.3474255E0,5.499383E0,4.69948E0,0E0,0E0,0E0,0E0,4.7315717E-1,1.2316546E0,0E0,2.2386909E0,0E0,0E0,0E0,0E0,0E0,0E0,0E0,0E0],"parents":[2147483647,0,0,1,1,2,2,3,3,4,4,5,5,6,6,9,9,11,11,12,12,13,13,14,14,19,19,20,20,22,22],"right_children":[2,4,6,8,10,12,14,-1,-1,16,-1,18,20,22,24,-1,-1,-1,-1,26,28,-1,30,-1,-1,-1,-1,-1,-1,-1,-1],"split_conditions":[-2.7673182E-1,-1.0314813E0,-1.4741011E-1,-3.464196E-1,1.838022E0,3.212604E-1,4.4246688E-1,-4.6882248E-3,1.1138688E-2,-8.4720653E-1,5.834704E-3,2.183045E0,4.7779545E-1,-1.007752E0,-7.937877E-1,3.4775218E-5,-7.2033447E-3,1.341761E-2,-4.220263E-3,-3.8382187E-1,6.8317406E-2,9.184166E-3,2.0929656E0,-4.6951533E-3,1.1925744E-2,1.611517E-5,-6.4406334E-3,1.0826641E-2,-9.537536E-5,-7.006708E-3,4.149788E-3],"split_indices":[5142,8152,10399,259,9673,8397,2294,0,0,9621,0,2717,3038,6795,444,0,0,0,0,11,286,0,6636,0,0,0,0,0,0,0,0],"split_type":[0,0,0,0,0,0,0,0,0,0,0,0,0,0,0,0,0,0,0,0,0,0,0,0,0,0,0,0,0,0,0],"sum_hessian":[1.09124E2,5.043513E1,5.868887E1,5.39734E0,4.503779E1,3.205485E1,2.6634018E1,1.7460876E0,3.6512523E0,4.3239067E1,1.7987239E0,1.9596943E1,1.2457909E1,1.9885454E1,6.748564E0,1.3261434E0,4.191292E1,1.827824E1,1.3187026E0,7.9192524E0,4.538656E0,1.8238468E0,1.8061607E1,1.7481116E0,5.000452E0,1.3286253E0,6.5906267E0,3.1917608E0,1.3468952E0,1.671331E1,1.3482962E0],"tree_param":{"num_deleted":"0","num_feature":"13163","num_nodes":"31","size_leaf_vector":"1"}},{"base_weights":[2.0827553E-1,5.0059754E-1,-6.446128E-1,7.747798E-1,-5.102948E-2,-7.0969956E-3,4.2071533E-3,1.0812355E0,2.3095116E-1,-3.3608618E-1,9.283918E-1,1.1984403E0,-5.123658E-3,7.1409E-1,-3.8645518E-1,7.831043E-3,-5.193152E-1,1.1553211E-2,-7.92665E-5,1.3593801E-2,1.0578622E-3,-3.9020898E-3,1.2571861E-2,-6.6177836E-3,8.126699E-3,-7.0324787E-3,5.249526E-3],"categories":[],"categories_nodes":[],"categories_segments":[],"categories_sizes":[],"default_left":[0,0,0,0,0,0,0,0,0,0,0,0,0,0,0,0,0,0,0,0,0,0,0,0,0,0,0],"id":20,"left_children":[1,3,5,7,9,-1,-1,11,13,15,17,19,-1,21,23,-1,25,-1,-1,-1,-1,-1,-1,-1,-1,-1,-1],"loss_changes":[2.8971802E1,1.3068098E1,2.3626966E0,9.35033E0,8.558904E0,0E0,0E0,7.4445496E0,6.84812E0,5.2491064E0,1.4805245E0,5.8992157E0,0E0,8.1141205E0,3.9452982E0,0E0,4.382187E0,0E0,0E0,0E0,0E0,0E0,0E0,0E0,0E0,0E0,0E0],"parents":[2147483647,0,0,1,1,2,2,3,3,4,4,7,7,8,8,9,9,10,10,11,11,13,13,14,14,16,16],"right_children":[2,4,6,8,10,-1,-1,12,14,16,18,20,-1,22,24,-1,26,-1,-1,-1,-1,-1,-1,-1,-1,-1,-1],"split_conditions":[-1.12650804E-1,3.1162983E-1,1.4790876E0,-3.3036017E-1,7.899219E-1,-7.0969956E-3,4.2071533E-3,1.4007044E0,1.0871609E-1,-7.160966E-1,2.8127871E-2,7.256347E-1,-5.123658E-3,-5.4778564E-1,-1.347503E-1,7.831043E-3,1.3372281E-1,1.1553211E-2,-7.92665E-5,1.3593801E-2,1.0578622E-3,-3.9020898E-3,1.2571861E-2,-6.6177836E-3,8.126699E-3,-7.0324787E-3,5.249526E-3],"split_indices":[8921,5881,6553,3057,7047,0,0,1666,4146,11543,169,4603,0,9813,866,0,1067,0,0,0,0,0,0,0,0,0,0],"split_type":[0,0,0,0,0,0,0,0,0,0,0,0,0,0,0,0,0,0,0,0,0,0,0,0,0,0,0],"sum_hessian":[1.13909904E2,8.514132E1,2.8768583E1,5.6602776E1,2.8538546E1,2.7426754E1,1.3418307E0,3.5570225E1,2.1032553E1,2.2613754E1,5.9247913E0,3.3364338E1,2.2058845E0,1.171142E1,9.321132E0,2.7207978E0,1.9892956E1,4.5807E0,1.3440917E0,2.8868164E1,4.496175E0,3.9537055E0,7.757715E0,7.9450393E0,1.3760927E0,1.7191486E1,2.7014694E0],"tree_param":{"num_deleted":"0","num_feature":"13163","num_nodes":"27","size_leaf_vector":"1"}},{"base_weights":[-1.9560386E-1,1.2574897E0,-7.0037836E-1,1.31778885E-2,-2.3836894E-5,4.086738E-3,-7.235493E-3],"categories":[],"categories_nodes":[],"categories_segments":[],"categories_sizes":[],"default_left":[0,0,0,0,0,0,0],"id":21,"left_children":[1,3,5,-1,-1,-1,-1],"loss_changes":[8.306521E1,2.2248917E0,2.4491959E0,0E0,0E0,0E0,0E0],"parents":[2147483647,0,0,1,1,2,2],"right_children":[2,4,6,-1,-1,-1,-1],"split_conditions":[-7.135422E-1,-3.1460103E-2,-9.624191E-1,1.31778885E-2,-2.3836894E-5,4.086738E-3,-7.235493E-3],"split_indices":[1792,200,3132,0,0,0,0],"split_type":[0,0,0,0,0,0,0],"sum_hessian":[1.11046646E2,2.8245419E1,8.280122E1,2.6911432E1,1.3339859E0,1.3540403E0,8.144719E1],"tree_param":{"num_deleted":"0","num_feature":"13163","num_nodes":"7","size_leaf_vector":"1"}},{"base_weights":[-3.574631E-2,2.5525358E-1,-7.102708E-3,-3.0472854E-1,5.1087046E-1,7.048534E-1,-5.9937984E-1,7.128251E-1,-3.8405508E-1,1.1136056E-2,-4.206732E-3,-6.977847E-3,4.1052666E-3,8.8443583E-1,-3.4147254E-1,8.145224E-3,-6.5991823E-3,1.0074437E-2,-5.36093E-3,4.104532E-3,-6.057641E-3],"categories":[],"categories_nodes":[],"categories_segments":[],"categories_sizes":[],"default_left":[0,0,0,0,0,0,0,0,0,0,0,0,0,0,0,0,0,0,0,0,0],"id":22,"left_children":[1,3,-1,5,7,9,11,13,15,-1,-1,-1,-1,17,19,-1,-1,-1,-1,-1,-1],"loss_changes":[2.126694E1,1.1003206E1,0E0,7.674094E0,9.745133E0,3.2135851E0,2.2154617E0,8.101198E0,3.9426556E0,0E0,0E0,0E0,0E0,7.0665913E0,1.5911956E0,0E0,0E0,0E0,0E0,0E0,0E0],"parents":[2147483647,0,0,1,1,3,3,4,4,5,5,6,6,7,7,8,8,13,13,14,14],"right_children":[2,4,-1,6,8,10,12,14,16,-1,-1,-1,-1,18,20,-1,-1,-1,-1,-1,-1],"split_conditions":[2.9572513E-2,-6.902777E-1,-7.102708E-3,-6.7692024E-1,1.0834174E0,6.965207E-1,2.491598E0,-4.2587306E-2,-1.0270363E0,1.1136056E-2,-4.206732E-3,-6.977847E-3,4.1052666E-3,3.955524E-1,-7.00874E-1,8.145224E-3,-6.5991823E-3,1.0074437E-2,-5.36093E-3,4.104532E-3,-6.057641E-3],"split_indices":[5626,5247,0,4817,5478,27,8639,10603,191,0,0,0,0,10880,18,0,0,0,0,0,0],"split_type":[0,0,0,0,0,0,0,0,0,0,0,0,0,0,0,0,0,0,0,0,0],"sum_hessian":[1.06422745E2,7.478218E1,3.1640564E1,2.337727E1,5.140491E1,4.9668574E0,1.8410412E1,4.210639E1,9.298518E0,3.6513906E0,1.3154669E0,1.7057405E1,1.3530073E0,3.6350624E1,5.755769E0,1.374392E0,7.9241266E0,3.3721386E1,2.6292388E0,1.3530958E0,4.402673E0],"tree_param":{"num_deleted":"0","num_feature":"13163","num_nodes":"21","size_leaf_vector":"1"}},{"base_weights":[1.4189279E-1,-6.277972E-1,4.7265324E-1,-7.1168337E-3,5.69743E-3,1.9837183E-1,1.0427372E0,9.086748E-1,-6.724631E-3,-1.5286219E-1,1.2425786E0,-2.716156E-1,1.2600341E-2,8.599083E-1,-2.4476017E-1,-5.153592E-3,4.0629916E-3,1.3247951E-2,-1.2947389E-4,-4.2350343E-3,-4.6575773E-5,1.21654505E-2,-4.7341995E-3,-4.012821E-3,7.6018637E-3],"categories":[],"categories_nodes":[],"categories_segments":[],"categories_sizes":[],"default_left":[0,0,0,0,0,0,0,0,0,0,0,0,0,0,0,0,0,0,0,0,0,0,0,0,0],"id":23,"left_children":[1,3,5,-1,-1,7,9,11,13,15,17,19,-1,21,23,-1,-1,-1,-1,-1,-1,-1,-1,-1,-1],"loss_changes":[2.9173311E1,3.8734617E0,1.2287359E1,0E0,0E0,8.045314E0,6.3355103E0,5.4727154E0,9.24851E0,1.1365118E0,2.3032913E0,1.4645803E-1,0E0,5.170509E0,5.8340225E0,0E0,0E0,0E0,0E0,0E0,0E0,0E0,0E0,0E0,0E0],"parents":[2147483647,0,0,1,1,2,2,5,5,6,6,7,7,8,8,9,9,10,10,11,11,13,13,14,14],"right_children":[2,4,6,-1,-1,8,10,12,14,16,18,20,-1,22,24,-1,-1,-1,-1,-1,-1,-1,-1,-1,-1],"split_conditions":[-7.1638954E-1,5.907439E-1,1.9629814E-1,-7.1168337E-3,5.69743E-3,-6.644398E-1,-9.710326E-1,-4.991525E-1,-3.5515913E-1,-2.965635E-1,1.9876751E0,-6.466879E-1,1.2600341E-2,-4.1660085E-2,-5.4284073E-2,-5.153592E-3,4.0629916E-3,1.3247951E-2,-1.2947389E-4,-4.2350343E-3,-4.6575773E-5,1.21654505E-2,-4.7341995E-3,-4.012821E-3,7.6018637E-3],"split_indices":[2453,4369,11476,0,0,8690,5952,9194,7778,16,6149,10,0,78,9074,0,0,0,0,0,0,0,0,0,0],"split_type":[0,0,0,0,0,0,0,0,0,0,0,0,0,0,0,0,0,0,0,0,0,0,0,0,0],"sum_hessian":[1.1242698E2,3.3522057E1,7.890492E1,3.170675E1,1.8153055E0,5.4183758E1,2.4721167E1,1.1371342E1,4.2812416E1,3.5739899E0,2.1147177E1,2.660642E0,8.7107E0,8.662332E0,3.4150085E1,2.215831E0,1.3581588E0,1.979571E1,1.3514676E0,1.3220477E0,1.3385941E0,6.9034057E0,1.7589257E0,3.0067692E1,4.0823946E0],"tree_param":{"num_deleted":"0","num_feature":"13163","num_nodes":"25","size_leaf_vector":"1"}},{"base_weights":[-2.3497526E-1,-7.2170435E-3,1.1567003E0,1.301949E-2,-5.068111E-3],"categories":[],"categories_nodes":[],"categories_segments":[],"categories_sizes":[],"default_left":[0,0,0,0,0],"id":24,"left_children":[1,-1,3,-1,-1],"loss_changes":[8.0107376E1,0E0,8.079815E0,0E0,0E0],"parents":[2147483647,0,0,2,2],"right_children":[2,-1,4,-1,-1],"split_conditions":[3.5603094E-1,-7.2170435E-3,-3.5594243E-1,1.301949E-2,-5.068111E-3],"split_indices":[11544,0,8077,0,0],"split_type":[0,0,0,0,0],"sum_hessian":[1.1603011E2,8.632125E1,2.9708862E1,2.7523046E1,2.1858153E0],"tree_param":{"num_deleted":"0","num_feature":"13163","num_nodes":"5","size_leaf_vector":"1"}},{"base_weights":[2.0006953E-2,3.177709E-1,-6.2893766E-1,-5.477581E-1,5.026613E-1,-7.106152E-3,8.198714E-3,4.0816288E-3,-6.8081617E-3,7.6480204E-1,-6.1592296E-2,9.571197E-1,-4.095224E-2,-3.9293233E-1,8.510867E-1,-5.6047784E-3,1.1175544E-2,-6.302815E-3,1.018486E-2,6.935006E-3,-6.1617624E-3,-6.194171E-5,1.0981723E-2],"categories":[],"categories_nodes":[],"categories_segments":[],"categories_sizes":[],"default_left":[0,0,0,0,0,0,0,0,0,0,0,0,0,0,0,0,0,0,0,0,0,0,0],"id":25,"left_children":[1,3,5,7,9,-1,-1,-1,-1,11,13,15,17,19,21,-1,-1,-1,-1,-1,-1,-1,-1],"loss_changes":[2.1924677E1,1.2714506E1,4.806861E0,2.0789948E0,9.598019E0,0E0,0E0,0E0,0E0,6.8826942E0,6.808343E0,9.316998E0,6.5537653E0,4.4025855E0,1.2815022E0,0E0,0E0,0E0,0E0,0E0,0E0,0E0,0E0],"parents":[2147483647,0,0,1,1,2,2,3,3,4,4,9,9,10,10,11,11,12,12,13,13,14,14],"right_children":[2,4,6,8,10,-1,-1,-1,-1,12,14,16,18,20,22,-1,-1,-1,-1,-1,-1,-1,-1],"split_conditions":[2.4740325E-1,-7.4425244E-1,1.1536025E0,-8.823556E-1,3.586907E-1,-7.106152E-3,8.198714E-3,4.0816288E-3,-6.8081617E-3,-8.484471E-2,4.723761E-1,-1.0094625E0,-3.0161938E-1,-4.377266E-1,-1.110064E0,-5.6047784E-3,1.1175544E-2,-6.302815E-3,1.018486E-2,6.935006E-3,-6.1617624E-3,-6.194171E-5,1.0981723E-2],"split_indices":[1743,6204,4047,9877,7241,0,0,0,0,1677,1193,3245,1343,10689,20,0,0,0,0,0,0,0,0],"split_type":[0,0,0,0,0,0,0,0,0,0,0,0,0,0,0,0,0,0,0,0,0,0,0],"sum_hessian":[1.11428505E2,7.673122E1,3.469729E1,1.3160454E1,6.3570763E1,3.332792E1,1.3693668E0,1.3553975E0,1.1805056E1,4.3162785E1,2.0407978E1,3.4694126E1,8.468658E0,1.53901825E1,5.0177956E0,3.0786638E0,3.1615461E1,5.7019424E0,2.7667162E0,2.2643049E0,1.3125877E1,1.340784E0,3.6770117E0],"tree_param":{"num_deleted":"0","num_feature":"13163","num_nodes":"23","size_leaf_vector":"1"}},{"base_weights":[2.3483428E-1,7.913029E-1,-2.6302987E-1,1.0555216E0,1.24814145E-1,4.301934E-1,-5.594355E-1,-1.17886886E-1,1.2271054E0,-2.3269074E-1,1.089226E-2,9.601615E-1,-4.0792385E-1,-6.445938E-1,6.912171E-3,-5.7847016E-3,8.051695E-3,-1.2404474E-3,1.3051922E0,-5.749937E-1,7.681719E-3,-2.0865619E-3,1.2480519E-2,4.120177E-3,-6.337543E-3,-6.9065815E-1,4.174397E-3,3.9466973E-3,1.3326666E-2,8.662176E-6,-6.607556E-3,-7.1457718E-3,6.228926E-5],"categories":[],"categories_nodes":[],"categories_segments":[],"categories_sizes":[],"default_left":[0,0,0,0,0,0,0,0,0,0,0,0,0,0,0,0,0,0,0,0,0,0,0,0,0,0,0,0,0,0,0,0,0],"id":26,"left_children":[1,3,5,7,9,11,13,15,17,19,-1,21,23,25,-1,-1,-1,-1,27,29,-1,-1,-1,-1,-1,31,-1,-1,-1,-1,-1,-1,-1],"loss_changes":[3.222134E1,9.5209465E0,1.2926294E1,8.0207405E0,6.009681E0,8.856128E0,5.09778E0,2.9753172E0,3.7719307E0,4.8968782E0,0E0,4.289095E0,1.7580048E0,2.3143673E0,0E0,0E0,0E0,0E0,2.8538895E-1,5.073776E-1,0E0,0E0,0E0,0E0,0E0,6.7235947E-1,0E0,0E0,0E0,0E0,0E0,0E0,0E0],"parents":[2147483647,0,0,1,1,2,2,3,3,4,4,5,5,6,6,7,7,8,8,9,9,11,11,12,12,13,13,18,18,19,19,25,25],"right_children":[2,4,6,8,10,12,14,16,18,20,-1,22,24,26,-1,-1,-1,-1,28,30,-1,-1,-1,-1,-1,32,-1,-1,-1,-1,-1,-1,-1],"split_conditions":[-4.9546388E-1,-1.970979E-1,-3.6272365E-1,-8.092337E-1,3.1128487E-1,-1.0193588E-1,3.4743217E-1,1.4197541E0,-7.850561E-1,1.1340822E0,1.089226E-2,-6.3708025E-1,-7.0806146E-1,2.1101425E0,6.912171E-3,-5.7847016E-3,8.051695E-3,-1.2404474E-3,-5.66791E-1,-7.257709E-1,7.681719E-3,-2.0865619E-3,1.2480519E-2,4.120177E-3,-6.337543E-3,2.0809329E0,4.174397E-3,3.9466973E-3,1.3326666E-2,8.662176E-6,-6.607556E-3,-7.1457718E-3,6.228926E-5],"split_indices":[12171,2616,9226,5599,5753,6404,6280,18,9809,2228,0,12403,614,1824,0,0,0,0,480,1120,0,0,0,0,0,6811,0,0,0,0,0,0,0],"split_type":[0,0,0,0,0,0,0,0,0,0,0,0,0,0,0,0,0,0,0,0,0,0,0,0,0,0,0,0,0,0,0,0,0],"sum_hessian":[1.14552025E2,5.3814037E1,6.0737984E1,3.8118763E1,1.5695273E1,1.8056559E1,4.2681427E1,4.90282E0,3.3215946E1,1.20041065E1,3.691167E0,1.0972611E1,7.0839477E0,4.0414173E1,2.267252E0,3.5198226E0,1.3829978E0,1.7826104E0,3.1433334E1,9.261949E0,2.742158E0,2.2229183E0,8.749693E0,1.3517135E0,5.732234E0,3.9069275E1,1.3448977E0,1.3707465E0,3.0062588E1,1.3288827E0,7.933066E0,3.7748272E1,1.3210061E0],"tree_param":{"num_deleted":"0","num_feature":"13163","num_nodes":"33","size_leaf_vector":"1"}},{"base_weights":[-2.0155345E-1,-7.193856E-3,1.1801207E0,1.2891315E-2,-4.6656644E-3],"categories":[],"categories_nodes":[],"categories_segments":[],"categories_sizes":[],"default_left":[0,0,0,0,0],"id":27,"left_children":[1,-1,3,-1,-1],"loss_changes":[8.455777E1,0E0,6.394848E0,0E0,0E0],"parents":[2147483647,0,0,2,2],"right_children":[2,-1,4,-1,-1],"split_conditions":[5.7989615E-1,-7.193856E-3,-3.2536966E-1,1.2891315E-2,-4.6656644E-3],"split_indices":[707,0,1056,0,0],"split_type":[0,0,0,0,0],"sum_hessian":[1.1599748E2,8.4723595E1,3.1273882E1,2.953575E1,1.738133E0],"tree_param":{"num_deleted":"0","num_feature":"13163","num_nodes":"5","size_leaf_vector":"1"}},{"base_weights":[2.6843347E-2,2.8127465E-1,-7.043735E-3,-1.9276792E-1,6.173604E-1,4.2672032E-1,-5.8079123E-1,8.342185E-2,9.5413506E-1,-4.6464643E-1,9.605773E-1,-7.034146E-3,3.9297966E-3,9.961715E-3,-2.6649347E-1,1.1064643E0,-5.329492E-3,-5.897043E-3,-2.2281306E-6,-4.1635116E-3,1.2252152E-2,-5.37443E-3,7.692222E-3,1.25448E-2,-8.9706405E-4],"categories":[],"categories_nodes":[],"categories_segments":[],"categories_sizes":[],"default_left":[0,0,0,0,0,0,0,0,0,0,0,0,0,0,0,0,0,0,0,0,0,0,0,0,0],"id":28,"left_children":[1,3,-1,5,7,9,11,13,15,17,19,-1,-1,-1,21,23,-1,-1,-1,-1,-1,-1,-1,-1,-1],"loss_changes":[2.2107643E1,1.4151854E1,0E0,9.214471E0,9.230904E0,7.55705E0,3.0657482E0,7.011645E0,7.760441E0,3.641001E-1,4.0343246E0,0E0,0E0,0E0,4.9196596E0,5.253956E0,0E0,0E0,0E0,0E0,0E0,0E0,0E0,0E0,0E0],"parents":[2147483647,0,0,1,1,3,3,4,4,5,5,6,6,7,7,8,8,9,9,10,10,14,14,15,15],"right_children":[2,4,-1,6,8,10,12,14,16,18,20,-1,-1,-1,22,24,-1,-1,-1,-1,-1,-1,-1,-1,-1],"split_conditions":[3.5603094E-1,-5.1256514E-1,-7.043735E-3,2.516236E-2,-2.3364586E-1,-5.79868E-1,1.9503015E0,-7.8525144E-1,1.2128056E0,2.6490235E-1,-1.04247E0,-7.034146E-3,3.9297966E-3,9.961715E-3,7.696829E-1,5.524797E-1,-5.329492E-3,-5.897043E-3,-2.2281306E-6,-4.1635116E-3,1.2252152E-2,-5.37443E-3,7.692222E-3,1.25448E-2,-8.9706405E-4],"split_indices":[11544,6289,0,8338,12715,4486,10269,6460,1463,50,3535,0,0,0,10369,2401,0,0,0,0,0,0,0,0,0],"split_type":[0,0,0,0,0,0,0,0,0,0,0,0,0,0,0,0,0,0,0,0,0,0,0,0,0],"sum_hessian":[1.1676495E2,8.708021E1,2.9684748E1,3.6302563E1,5.0777645E1,1.3942812E1,2.2359753E1,2.0122377E1,3.0655266E1,5.271227E0,8.671585E0,2.010557E1,2.2541826E0,5.064584E0,1.5057795E1,2.8039043E1,2.6162229E0,3.9404151E0,1.3308117E0,1.3055314E0,7.3660536E0,1.2316748E1,2.7410464E0,2.490813E1,3.1309125E0],"tree_param":{"num_deleted":"0","num_feature":"13163","num_nodes":"25","size_leaf_vector":"1"}},{"base_weights":[2.1831098E-1,-5.747758E-1,5.719344E-1,9.602815E-3,-7.0831436E-3,8.026892E-1,-8.003439E-2,1.0302824E0,7.817006E-2,9.609497E-3,-4.1291434E-1,1.1372981E0,-3.2042044E-1,-5.359113E-1,7.322446E-1,8.125312E-3,-5.6981045E-1,1.2172305E-2,-2.0626027E-3,-1.2108376E-5,-4.7409288E-3,5.6379344E-5,-6.369702E-3,1.15446E-2,-4.6898886E-3,-6.8866345E-3,4.072354E-3],"categories":[],"categories_nodes":[],"categories_segments":[],"categories_sizes":[],"default_left":[0,0,0,0,0,0,0,0,0,0,0,0,0,0,0,0,0,0,0,0,0,0,0,0,0,0,0],"id":29,"left_children":[1,3,5,-1,-1,7,9,11,13,-1,15,17,19,21,23,-1,25,-1,-1,-1,-1,-1,-1,-1,-1,-1,-1],"loss_changes":[3.2706978E1,8.080525E0,1.2152222E1,0E0,0E0,9.7200165E0,7.9902625E0,6.89003E0,6.5334935E0,0E0,3.7898557E0,4.7670784E0,2.0027465E-1,4.6676922E-1,4.510725E0,0E0,2.1299877E0,0E0,0E0,0E0,0E0,0E0,0E0,0E0,0E0,0E0,0E0],"parents":[2147483647,0,0,1,1,2,2,5,5,6,6,7,7,8,8,10,10,11,11,12,12,13,13,14,14,16,16],"right_children":[2,4,6,-1,-1,8,10,12,14,-1,16,18,20,22,24,-1,26,-1,-1,-1,-1,-1,-1,-1,-1,-1,-1],"split_conditions":[-7.2277117E-1,-1.1777323E0,3.445274E-1,9.602815E-3,-7.0831436E-3,7.280301E-2,-5.207418E-1,1.493255E0,-4.2102274E-1,9.609497E-3,-1.0155773E0,1.973749E0,4.244961E-1,-8.309146E-1,1.12733506E-1,8.125312E-3,-6.799461E-2,1.2172305E-2,-2.0626027E-3,-1.2108376E-5,-4.7409288E-3,5.6379344E-5,-6.369702E-3,1.15446E-2,-4.6898886E-3,-6.8866345E-3,4.072354E-3],"split_indices":[2453,5977,1193,0,0,12822,2201,1474,3156,0,8041,10104,9,40,12,0,3648,0,0,0,0,0,0,0,0,0,0],"split_type":[0,0,0,0,0,0,0,0,0,0,0,0,0,0,0,0,0,0,0,0,0,0,0,0,0,0,0],"sum_hessian":[1.14449356E2,3.5101128E1,7.934823E1,2.3136876E0,3.2787437E1,5.843488E1,2.0913347E1,4.414545E1,1.428943E1,4.610037E0,1.630331E1,4.1050987E1,3.0944633E0,7.463211E0,6.8262186E0,1.376137E0,1.4927174E1,3.8834625E1,2.2163649E0,1.3331382E0,1.761325E0,1.3221818E0,6.141029E0,5.0797133E0,1.7465049E0,1.3571431E1,1.3557426E0],"tree_param":{"num_deleted":"0","num_feature":"13163","num_nodes":"27","size_leaf_vector":"1"}},{"base_weights":[-2.2428024E-1,-6.934963E-1,1.2044713E0,4.013377E-3,-7.1634143E-3,-1.2014535E-4,1.2668893E-2],"categories":[],"categories_nodes":[],"categories_segments":[],"categories_sizes":[],"default_left":[0,0,0,0,0,0,0],"id":30,"left_children":[1,3,5,-1,-1,-1,-1],"loss_changes":[7.5187645E1,2.3915825E0,2.1248932E0,0E0,0E0,0E0,0E0],"parents":[2147483647,0,0,1,1,2,2],"right_children":[2,4,6,-1,-1,-1,-1],"split_conditions":[2.2431087E-1,-8.7132764E-1,-2.6610988E-1,4.013377E-3,-7.1634143E-3,-1.2014535E-4,1.2668893E-2],"split_indices":[5626,11509,175,0,0,0,0],"split_type":[0,0,0,0,0,0,0],"sum_hessian":[1.0990857E2,8.312434E1,2.6784235E1,1.360404E0,8.176393E1,1.3466386E0,2.5437597E1],"tree_param":{"num_deleted":"0","num_feature":"13163","num_nodes":"7","size_leaf_vector":"1"}},{"base_weights":[-3.313187E-2,-5.18331E-1,3.4350213E-1,-6.6787493E-1,5.812497E-1,-3.0975208E-2,7.5141275E-1,-7.1172207E-3,4.16439E-3,1.0678967E-2,-4.6856618E-3,6.640589E-1,-3.4390402E-1,-5.748379E-3,9.4358194E-1,1.1028143E-2,-5.33898E-3,-5.2454126E-1,9.578732E-3,1.1498942E0,-2.0110919E-1,-6.9429744E-3,1.8556265E-3,-4.1526775E-3,1.2622224E-2,4.0195948E-3,-5.3762784E-3],"categories":[],"categories_nodes":[],"categories_segments":[],"categories_sizes":[],"default_left":[0,0,0,0,0,0,0,0,0,0,0,0,0,0,0,0,0,0,0,0,0,0,0,0,0,0,0],"id":31,"left_children":[1,3,5,7,9,11,13,-1,-1,-1,-1,15,17,-1,19,-1,-1,21,-1,23,25,-1,-1,-1,-1,-1,-1],"loss_changes":[2.0742952E1,8.540593E0,9.792899E0,2.3934574E0,3.8058913E0,7.6896586E0,8.354389E0,0E0,0E0,0E0,0E0,6.366042E0,6.2198315E0,0E0,6.6433105E0,0E0,0E0,2.780488E0,0E0,4.5948257E0,1.2302887E0,0E0,0E0,0E0,0E0,0E0,0E0],"parents":[2147483647,0,0,1,1,2,2,3,3,4,4,5,5,6,6,11,11,12,12,14,14,17,17,19,19,20,20],"right_children":[2,4,6,8,10,12,14,-1,-1,-1,-1,16,18,-1,20,-1,-1,22,-1,24,26,-1,-1,-1,-1,-1,-1],"split_conditions":[-3.3041787E-1,8.0780715E-1,-5.5056762E-2,1.8933947E0,4.9265003E-1,-3.331626E-1,-7.567999E-1,-7.1172207E-3,4.16439E-3,1.0678967E-2,-4.6856618E-3,1.4944272E-1,1.1158395E0,-5.748379E-3,4.6241697E-2,1.1028143E-2,-5.33898E-3,-9.872151E-2,9.578732E-3,-1.2742069E0,-4.0727523E-1,-6.9429744E-3,1.8556265E-3,-4.1526775E-3,1.2622224E-2,4.0195948E-3,-5.3762784E-3],"split_indices":[7634,7920,6782,758,300,2785,6213,0,0,0,0,10010,3543,0,2029,0,0,12525,0,7069,56,0,0,0,0,0,0],"split_type":[0,0,0,0,0,0,0,0,0,0,0,0,0,0,0,0,0,0,0,0,0,0,0,0,0,0,0],"sum_hessian":[1.1153488E2,4.8578007E1,6.295688E1,4.3107903E1,5.470105E0,3.3305363E1,2.9651516E1,4.1762733E1,1.3451663E0,3.7257798E0,1.7443254E0,9.991515E0,2.3313848E1,3.5006378E0,2.6150879E1,7.3712087E0,2.620307E0,2.099728E1,2.3165674E0,2.2153515E1,3.9973626E0,1.6964125E1,4.033155E0,1.3028549E0,2.085066E1,1.3620304E0,2.6353323E0],"tree_param":{"num_deleted":"0","num_feature":"13163","num_nodes":"27","size_leaf_vector":"1"}},{"base_weights":[2.127646E-1,5.010318E-1,-6.1100405E-1,8.127307E-1,8.772809E-4,8.100846E-3,-7.0272773E-3,9.825967E-1,-1.2322922E-2,5.396573E-1,-3.8128617E-1,-3.622707E-1,1.1039308E0,-5.148493E-1,9.987078E-3,9.927939E-1,-5.903994E-3,4.4373757E-1,-6.9129663E-3,-5.1103453E-3,-3.1867068E-5,1.1832433E-2,-4.678332E-3,-6.240506E-3,2.7429664E-6,-4.2428845E-3,1.2271045E-2,1.0462574E-2,-5.027067E-3],"categories":[],"categories_nodes":[],"categories_segments":[],"categories_sizes":[],"default_left":[0,0,0,0,0,0,0,0,0,0,0,0,0,0,0,0,0,0,0,0,0,0,0,0,0,0,0,0,0],"id":32,"left_children":[1,3,5,7,9,-1,-1,11,13,15,17,19,21,23,-1,25,-1,27,-1,-1,-1,-1,-1,-1,-1,-1,-1,-1,-1],"loss_changes":[2.8811373E1,1.3947716E1,4.6840487E0,7.737007E0,7.484897E0,0E0,0E0,7.8605957E0,5.797257E0,8.3103075E0,5.746442E0,2.4070644E-1,5.8123016E0,4.2801118E-1,0E0,4.2194633E0,0E0,4.185844E0,0E0,0E0,0E0,0E0,0E0,0E0,0E0,0E0,0E0,0E0,0E0],"parents":[2147483647,0,0,1,1,2,2,3,3,4,4,7,7,8,8,9,9,10,10,11,11,12,12,13,13,15,15,17,17],"right_children":[2,4,6,8,10,-1,-1,12,14,16,18,20,22,24,-1,26,-1,28,-1,-1,-1,-1,-1,-1,-1,-1,-1,-1,-1],"split_conditions":[-2.106305E-1,3.1162983E-1,-3.6883686E-2,7.256347E-1,-1.5870449E-1,8.100846E-3,-7.0272773E-3,-7.1982175E-1,8.7574005E-1,2.1116722E-1,-5.5030257E-1,4.2638427E-1,1.9449877E0,7.566996E-1,9.987078E-3,-7.4359685E-1,-5.903994E-3,-4.9291912E-1,-6.9129663E-3,-5.1103453E-3,-3.1867068E-5,1.1832433E-2,-4.678332E-3,-6.240506E-3,2.7429664E-6,-4.2428845E-3,1.2271045E-2,1.0462574E-2,-5.027067E-3],"split_indices":[12682,5881,2800,4603,6216,0,0,9233,2243,5052,11242,97,3392,31,0,46,0,136,0,0,0,0,0,0,0,0,0,0,0],"split_type":[0,0,0,0,0,0,0,0,0,0,0,0,0,0,0,0,0,0,0,0,0,0,0,0,0,0,0,0,0],"sum_hessian":[1.1903951E2,8.847175E1,3.0567766E1,5.411934E1,3.4352413E1,1.3785104E0,2.9189255E1,4.4721012E1,9.398324E0,1.408419E1,2.0268223E1,3.5365183E0,4.1184494E1,6.605747E0,2.7925768E0,1.0139757E1,3.9444327E0,5.4180164E0,1.4850205E1,2.2013612E0,1.3351569E0,3.9441437E1,1.7430576E0,5.2758574E0,1.3298899E0,1.3236552E0,8.816102E0,3.2460644E0,2.1719518E0],"tree_param":{"num_deleted":"0","num_feature":"13163","num_nodes":"29","size_leaf_vector":"1"}},{"base_weights":[-2.0692082E-1,-7.1339756E-3,1.140694E0,1.2564386E-2,-4.634184E-3],"categories":[],"categories_nodes":[],"categories_segments":[],"categories_sizes":[],"default_left":[0,0,0,0,0],"id":33,"left_children":[1,-1,3,-1,-1],"loss_changes":[7.402575E1,0E0,6.0939636E0,0E0,0E0],"parents":[2147483647,0,0,2,2],"right_children":[2,-1,4,-1,-1],"split_conditions":[4.4218373E-1,-7.1339756E-3,-4.093392E-1,1.2564386E-2,-4.634184E-3],"split_indices":[707,0,3731,0,0],"split_type":[0,0,0,0,0],"sum_hessian":[1.062647E2,7.757875E1,2.8685953E1,2.6957571E1,1.7283819E0],"tree_param":{"num_deleted":"0","num_feature":"13163","num_nodes":"5","size_leaf_vector":"1"}},{"base_weights":[4.0830176E-2,2.959243E-1,-6.981759E-3,-4.293369E-1,4.9941567E-1,-5.758066E-1,7.984359E-3,-2.1809576E-1,7.3069113E-1,4.094503E-3,-6.864981E-3,-5.338096E-1,8.258032E-3,9.473485E-1,-1.2538058E-1,-6.7466516E-3,4.0180692E-3,-1.1481236E-3,1.10189365E-2,-5.3367577E-3,9.477695E-3],"categories":[],"categories_nodes":[],"categories_segments":[],"categories_sizes":[],"default_left":[0,0,0,0,0,0,0,0,0,0,0,0,0,0,0,0,0,0,0,0,0],"id":34,"left_children":[1,3,-1,5,7,9,-1,11,13,-1,-1,15,-1,17,19,-1,-1,-1,-1,-1,-1],"loss_changes":[2.0800262E1,1.2303211E1,0E0,3.783856E0,1.085047E1,2.1455102E0,0E0,5.8704348E0,9.198074E0,0E0,0E0,2.0181167E0,0E0,6.5583E0,5.224735E0,0E0,0E0,0E0,0E0,0E0,0E0],"parents":[2147483647,0,0,1,1,3,3,4,4,5,5,7,7,8,8,11,11,13,13,14,14],"right_children":[2,4,-1,6,8,10,-1,12,14,-1,-1,16,-1,18,20,-1,-1,-1,-1,-1,-1],"split_conditions":[6.7434765E-2,-5.582891E-1,-6.981759E-3,1.9464703E0,-7.1575946E-1,-1.1371945E0,7.984359E-3,1.7684694E-1,4.7793978E-1,4.094503E-3,-6.864981E-3,7.380735E-1,8.258032E-3,-7.675658E-1,1.5222414E0,-6.7466516E-3,4.0180692E-3,-1.1481236E-3,1.10189365E-2,-5.3367577E-3,9.477695E-3],"split_indices":[8457,5515,0,3301,7522,13048,0,5436,3317,0,0,769,0,11740,9884,0,0,0,0,0,0],"split_type":[0,0,0,0,0,0,0,0,0,0,0,0,0,0,0,0,0,0,0,0,0],"sum_hessian":[1.08240814E2,8.091106E1,2.7329754E1,1.7484587E1,6.342647E1,1.609546E1,1.3891256E0,1.5474673E1,4.7951797E1,1.3530492E0,1.4742412E1,1.2256493E1,3.21818E0,3.8181965E1,9.769835E0,1.0895153E1,1.3613394E0,4.8825016E0,3.329946E1,7.4413643E0,2.3284712E0],"tree_param":{"num_deleted":"0","num_feature":"13163","num_nodes":"21","size_leaf_vector":"1"}},{"base_weights":[1.9225506E-1,4.9768084E-1,-6.693653E-1,7.651917E-1,8.9763895E-2,8.816702E-5,-7.001614E-3,1.0132468E0,9.000739E-2,-2.9194307E-1,6.380105E-1,1.1630703E0,-1.9900848E-1,-3.850766E-1,9.394682E-3,6.7176735E-1,-5.301981E-1,-5.316033E-3,9.347478E-1,1.2403684E-2,-4.1943253E-3,4.046418E-3,-5.364753E-3,7.805231E-3,-6.5707723E-3,-1.370266E-4,9.54729E-3,5.492367E-3,-6.9027073E-3,-4.2185816E-3,1.1400972E-2],"categories":[],"categories_nodes":[],"categories_segments":[],"categories_sizes":[],"default_left":[0,0,0,0,0,0,0,0,0,0,0,0,0,0,0,0,0,0,0,0,0,0,0,0,0,0,0,0,0,0,0],"id":35,"left_children":[1,3,5,7,9,-1,-1,11,13,15,17,19,21,23,-1,25,27,-1,29,-1,-1,-1,-1,-1,-1,-1,-1,-1,-1,-1,-1],"loss_changes":[3.0631485E1,9.269424E0,6.4437866E-1,8.542379E0,7.5160894E0,0E0,0E0,7.060791E0,6.3941135E0,5.254926E0,5.595535E0,4.631756E0,1.2335837E0,3.777E0,0E0,9.189234E-1,3.4314265E0,0E0,3.8462486E0,0E0,0E0,0E0,0E0,0E0,0E0,0E0,0E0,0E0,0E0,0E0,0E0],"parents":[2147483647,0,0,1,1,2,2,3,3,4,4,7,7,8,8,9,9,10,10,11,11,12,12,13,13,15,15,16,16,18,18],"right_children":[2,4,6,8,10,-1,-1,12,14,16,18,20,22,24,-1,26,28,-1,30,-1,-1,-1,-1,-1,-1,-1,-1,-1,-1,-1,-1],"split_conditions":[-1.12650804E-1,2.8879714E-1,-8.243296E-1,-2.9951753E-2,-1.1343052E-2,8.816702E-5,-7.001614E-3,6.378309E-1,2.4508451E-1,-7.063412E-1,-2.7897567E-1,2.662676E0,-1.1518075E0,-1.1243545E0,9.394682E-3,-7.56344E-1,-8.5622936E-1,-5.316033E-3,-9.564848E-1,1.2403684E-2,-4.1943253E-3,4.046418E-3,-5.364753E-3,7.805231E-3,-6.5707723E-3,-1.370266E-4,9.54729E-3,5.492367E-3,-6.9027073E-3,-4.2185816E-3,1.1400972E-2],"split_indices":[8921,6463,354,2141,4028,0,0,12183,10409,2364,8598,10445,8,5805,0,10,8025,0,7854,0,0,0,0,0,0,0,0,0,0,0,0],"split_type":[0,0,0,0,0,0,0,0,0,0,0,0,0,0,0,0,0,0,0,0,0,0,0,0,0,0,0,0,0,0,0],"sum_hessian":[1.1413235E2,8.45748E1,2.9557547E1,5.054903E1,3.4025772E1,1.3149043E0,2.8242643E1,3.66014E1,1.3947634E1,2.0335228E1,1.3690545E1,3.2611492E1,3.9899065E0,9.295535E0,4.6520987E0,3.670203E0,1.6665024E1,2.610309E0,1.10802355E1,3.1298882E1,1.3126092E0,1.3593271E0,2.6305795E0,1.4050281E0,7.890507E0,1.3504162E0,2.3197868E0,1.8381903E0,1.4826834E1,1.3180983E0,9.762137E0],"tree_param":{"num_deleted":"0","num_feature":"13163","num_nodes":"31","size_leaf_vector":"1"}},{"base_weights":[-2.0294873E-1,-7.114741E-3,1.1598159E0,1.2426446E-2,-4.0511093E-3],"categories":[],"categories_nodes":[],"categories_segments":[],"categories_sizes":[],"default_left":[0,0,0,0,0],"id":36,"left_children":[1,-1,3,-1,-1],"loss_changes":[7.715061E1,0E0,4.432255E0,0E0,0E0],"parents":[2147483647,0,0,2,2],"right_children":[2,-1,4,-1,-1],"split_conditions":[4.4218373E-1,-7.114741E-3,-2.6888093E-1,1.2426446E-2,-4.0511093E-3],"split_indices":[707,0,9,0,0],"split_type":[0,0,0,0,0],"sum_hessian":[1.0913766E2,7.982741E1,2.931025E1,2.803248E1,1.2777684E0],"tree_param":{"num_deleted":"0","num_feature":"13163","num_nodes":"5","size_leaf_vector":"1"}},{"base_weights":[8.4713595E-3,2.5540748E-1,-6.965833E-3,1.1928814E-2,7.767183E-1,4.4374958E-1,-4.148301E-1,-5.5920095E-3,9.735234E-1,1.0681192E0,5.8622636E-2,-5.9310675E-1,6.7745286E-1,1.1440848E0,-2.7239478E-1,1.2152226E-2,-7.6840966E-5,-2.9837096E-3,1.08013665E-2,2.5700382E-3,-7.0132646E-3,9.532132E-3,-4.6210822E-5,-1.2062014E-3,1.2666745E-2,-6.758067E-5,-4.2292136E-3],"categories":[],"categories_nodes":[],"categories_segments":[],"categories_sizes":[],"default_left":[0,0,0,0,0,0,0,0,0,0,0,0,0,0,0,0,0,0,0,0,0,0,0,0,0,0,0],"id":37,"left_children":[1,3,-1,5,7,9,11,-1,13,15,17,19,21,23,25,-1,-1,-1,-1,-1,-1,-1,-1,-1,-1,-1,-1],"loss_changes":[1.9785131E1,1.0670204E1,0E0,1.0940217E1,7.5828056E0,7.029747E0,6.2188463E0,0E0,5.3476086E0,1.7808857E0,7.3606644E0,2.5919228E0,8.8058615E-1,3.4143314E0,1.4353758E-1,0E0,0E0,0E0,0E0,0E0,0E0,0E0,0E0,0E0,0E0,0E0,0E0],"parents":[2147483647,0,0,1,1,3,3,4,4,5,5,6,6,8,8,9,9,10,10,11,11,12,12,13,13,14,14],"right_children":[2,4,-1,6,8,10,12,-1,14,16,18,20,22,24,26,-1,-1,-1,-1,-1,-1,-1,-1,-1,-1,-1,-1],"split_conditions":[5.6504413E-2,3.837496E-1,-6.965833E-3,-1.3000058E-1,-1.2314308E0,-2.4274038E-1,1.8836632E-1,-5.5920095E-3,1.0804882E0,1.4742128E0,9.7762465E-1,-8.4925437E-1,-2.7708843E-1,-7.075654E-1,-2.2024573E-1,1.2152226E-2,-7.6840966E-5,-2.9837096E-3,1.08013665E-2,2.5700382E-3,-7.0132646E-3,9.532132E-3,-4.6210822E-5,-1.2062014E-3,1.2666745E-2,-6.758067E-5,-4.2292136E-3],"split_indices":[5626,11446,0,5937,5419,2576,6489,0,11011,546,10856,11826,58,4706,4,0,0,0,0,0,0,0,0,0,0,0,0],"split_type":[0,0,0,0,0,0,0,0,0,0,0,0,0,0,0,0,0,0,0,0,0,0,0,0,0,0,0],"sum_hessian":[1.1161821E2,8.313798E1,2.8480234E1,5.736738E1,2.5770597E1,2.8494793E1,2.8872587E1,3.0725608E0,2.2698038E1,1.0194308E1,1.8300484E1,2.5214252E1,3.6583347E0,2.0036808E1,2.6612294E0,8.85403E0,1.340279E0,1.4085772E1,4.214712E0,2.6920733E0,2.2522179E1,2.3220253E0,1.3363096E0,1.7719926E0,1.8264816E1,1.3405086E0,1.3207207E0],"tree_param":{"num_deleted":"0","num_feature":"13163","num_nodes":"27","size_leaf_vector":"1"}},{"base_weights":[1.8638018E-1,4.962296E-1,-5.8048415E-1,-8.67829E-2,6.8890774E-1,-6.9820816E-3,5.1201135E-1,1.0304455E-2,-3.5726306E-1,8.6427385E-1,-1.4841032E-1,7.906476E-3,3.5658868E-5,7.408248E-3,-6.1836606E-1,1.0477252E0,7.678418E-2,-5.416928E-1,9.385162E-3,-6.8065054E-3,8.489451E-6,1.1684384E-2,-1.4955715E-3,1.021839E-2,-4.997417E-3,1.1077134E-5,-6.3749393E-3],"categories":[],"categories_nodes":[],"categories_segments":[],"categories_sizes":[],"default_left":[0,0,0,0,0,0,0,0,0,0,0,0,0,0,0,0,0,0,0,0,0,0,0,0,0,0,0],"id":38,"left_children":[1,3,5,7,9,-1,11,-1,13,15,17,-1,-1,-1,19,21,23,25,-1,-1,-1,-1,-1,-1,-1,-1,-1],"loss_changes":[2.6554602E1,8.964624E0,4.5081377E0,6.586796E0,8.893349E0,0E0,5.236626E-1,0E0,5.4212003E0,7.0709267E0,5.291927E0,0E0,0E0,0E0,5.6096315E-1,5.9659843E0,6.194574E0,4.6097708E-1,0E0,0E0,0E0,0E0,0E0,0E0,0E0,0E0,0E0],"parents":[2147483647,0,0,1,1,2,2,3,3,4,4,6,6,8,8,9,9,10,10,14,14,15,15,16,16,17,17],"right_children":[2,4,6,8,10,-1,12,-1,14,16,18,-1,-1,-1,20,22,24,26,-1,-1,-1,-1,-1,-1,-1,-1,-1],"split_conditions":[-6.66838E-2,-6.602765E-1,-3.6723763E-2,-6.416958E-1,5.240834E-1,-6.9820816E-3,-4.220636E-1,1.0304455E-2,-6.857251E-1,3.445274E-1,1.2182194E0,7.906476E-3,3.5658868E-5,7.408248E-3,-3.840714E-1,7.30275E-1,-4.416394E-1,-5.955713E-1,9.385162E-3,-6.8065054E-3,8.489451E-6,1.1684384E-2,-1.4955715E-3,1.021839E-2,-4.997417E-3,1.1077134E-5,-6.3749393E-3],"split_indices":[12815,5462,8720,9452,3858,0,10,0,2940,1193,2730,0,0,0,11278,8634,7096,1107,0,0,0,0,0,0,0,0,0],"split_type":[0,0,0,0,0,0,0,0,0,0,0,0,0,0,0,0,0,0,0,0,0,0,0,0,0,0,0],"sum_hessian":[1.0954365E2,7.827126E1,3.127238E1,1.9578758E1,5.869251E1,2.855616E1,2.7162209E0,3.268482E0,1.6310276E1,4.8502136E1,1.0190373E1,1.396104E0,1.3201168E0,2.7802868E0,1.3529989E1,3.907003E1,9.432106E0,7.851203E0,2.3391705E0,1.2203292E1,1.3266973E0,3.5513546E1,3.5564816E0,3.2811537E0,6.1509523E0,1.3260972E0,6.5251055E0],"tree_param":{"num_deleted":"0","num_feature":"13163","num_nodes":"27","size_leaf_vector":"1"}},{"base_weights":[-1.7061952E-1,1.20246E0,-6.969623E-1,3.8068818E-3,1.2287205E-2,6.790917E-5,-7.090829E-3],"categories":[],"categories_nodes":[],"categories_segments":[],"categories_sizes":[],"default_left":[0,0,0,0,0,0,0],"id":39,"left_children":[1,3,5,-1,-1,-1,-1],"loss_changes":[7.82355E1,1.8058014E-1,6.705742E-1,0E0,0E0,0E0,0E0],"parents":[2147483647,0,0,1,1,2,2],"right_children":[2,4,6,-1,-1,-1,-1],"split_conditions":[-7.2221476E-1,-1.3634297E-1,-1.1250988E0,3.8068818E-3,1.2287205E-2,6.790917E-5,-7.090829E-3],"split_indices":[1792,134,1715,0,0,0,0],"split_type":[0,0,0,0,0,0,0],"sum_hessian":[1.0609326E2,2.90432E1,7.705006E1,1.3792381E0,2.7663961E1,1.3119968E0,7.573806E1],"tree_param":{"num_deleted":"0","num_feature":"13163","num_nodes":"7","size_leaf_vector":"1"}},{"base_weights":[2.2676395E-2,2.6973605E-1,-6.9368863E-3,-9.135971E-2,5.9294194E-1,8.4883255E-1,-3.2804784E-1,8.269589E-1,-2.1589714E-1,-4.20339E-3,1.1429452E-2,-5.3489345E-1,7.7487975E-1,9.954692E-1,-3.8779292E-1,8.734163E-3,-5.4400265E-1,7.755243E-3,-6.3203108E-3,1.0299859E-2,-1.6657895E-4,-6.5778574E-4,1.1779313E-2,1.6910892E-5,-5.313203E-3,-6.394568E-3,-1.3032598E-5],"categories":[],"categories_nodes":[],"categories_segments":[],"categories_sizes":[],"default_left":[0,0,0,0,0,0,0,0,0,0,0,0,0,0,0,0,0,0,0,0,0,0,0,0,0,0,0],"id":40,"left_children":[1,3,-1,5,7,9,11,13,15,-1,-1,17,19,21,23,-1,25,-1,-1,-1,-1,-1,-1,-1,-1,-1,-1],"loss_changes":[1.9959972E1,9.833284E0,0E0,9.278173E0,8.572974E0,3.6205597E0,7.949799E0,7.469408E0,4.315457E0,0E0,0E0,4.105899E0,1.1529188E0,6.016121E0,2.767809E-1,0E0,4.5885634E-1,0E0,0E0,0E0,0E0,0E0,0E0,0E0,0E0,0E0,0E0],"parents":[2147483647,0,0,1,1,3,3,4,4,5,5,6,6,7,7,8,8,11,11,12,12,13,13,14,14,16,16],"right_children":[2,4,-1,6,8,10,12,14,16,-1,-1,18,20,22,24,-1,26,-1,-1,-1,-1,-1,-1,-1,-1,-1,-1],"split_conditions":[5.6504413E-2,-2.216598E-1,-6.9368863E-3,-3.514353E-1,6.5059465E-1,-3.3690217E-1,8.5623896E-1,1.5853667E-1,-5.071728E-1,-4.20339E-3,1.1429452E-2,-1.4045969E0,-5.6670632E-2,-5.337962E-1,-3.577941E-1,8.734163E-3,9.031072E-1,7.755243E-3,-6.3203108E-3,1.0299859E-2,-1.6657895E-4,-6.5778574E-4,1.1779313E-2,1.6910892E-5,-5.313203E-3,-6.394568E-3,-1.3032598E-5],"split_indices":[5626,1193,0,4895,7813,2740,9762,4257,3156,0,0,2391,98,11288,69,0,24,0,0,0,0,0,0,0,0,0,0],"split_type":[0,0,0,0,0,0,0,0,0,0,0,0,0,0,0,0,0,0,0,0,0,0,0,0,0,0,0],"sum_hessian":[1.107206E2,8.27911E1,2.7929493E1,3.944228E1,4.3348824E1,7.4122868E0,3.202999E1,3.360397E1,9.744855E0,1.3137865E0,6.0985003E0,2.7405354E1,4.6246395E0,2.9668827E1,3.9351423E0,1.8710275E0,7.8738275E0,1.4093267E0,2.5996027E1,3.2696204E0,1.3550191E0,4.446472E0,2.5222355E1,1.3257449E0,2.6093974E0,6.5444503E0,1.3293772E0],"tree_param":{"num_deleted":"0","num_feature":"13163","num_nodes":"27","size_leaf_vector":"1"}},{"base_weights":[1.8209532E-1,-6.356585E-1,4.8724857E-1,-6.9711325E-3,4.025315E-3,7.277987E-2,7.7193123E-1,4.2472252E-1,-5.2939105E-1,9.5137256E-1,-1.1917631E-1,-3.282472E-1,8.626021E-1,-6.69819E-3,3.9577107E-3,1.0996529E0,-1.499708E-2,-6.21365E-3,7.4456343E-3,7.819212E-3,-6.387502E-3,1.1436046E-2,-2.7395755E-3,1.170867E-2,-4.18907E-3,8.631021E-3,-5.742891E-3],"categories":[],"categories_nodes":[],"categories_segments":[],"categories_sizes":[],"default_left":[0,0,0,0,0,0,0,0,0,0,0,0,0,0,0,0,0,0,0,0,0,0,0,0,0,0,0],"id":41,"left_children":[1,3,5,-1,-1,7,9,11,13,15,17,19,21,-1,-1,23,25,-1,-1,-1,-1,-1,-1,-1,-1,-1,-1],"loss_changes":[2.8243664E1,2.2491713E0,9.629463E0,0E0,0E0,7.5424857E0,7.8779755E0,7.651163E0,1.9776409E0,5.8242836E0,4.3785844E0,3.581653E0,4.9140854E0,0E0,0E0,4.2919655E0,3.6281378E0,0E0,0E0,0E0,0E0,0E0,0E0,0E0,0E0,0E0,0E0],"parents":[2147483647,0,0,1,1,2,2,5,5,6,6,7,7,8,8,9,9,10,10,11,11,12,12,15,15,16,16],"right_children":[2,4,6,-1,-1,8,10,12,14,16,18,20,22,-1,-1,24,26,-1,-1,-1,-1,-1,-1,-1,-1,-1,-1],"split_conditions":[-7.2277117E-1,2.3606977E0,-1.6190793E-1,-6.9711325E-3,4.025315E-3,3.7852684E-1,9.8730975E-1,-3.1111515E-1,1.0715717E0,1.3379899E0,6.816003E-2,-2.9634178E-1,5.46271E-1,-6.69819E-3,3.9577107E-3,9.964987E-1,-7.397291E-1,-6.21365E-3,7.4456343E-3,7.819212E-3,-6.387502E-3,1.1436046E-2,-2.7395755E-3,1.170867E-2,-4.18907E-3,8.631021E-3,-5.742891E-3],"split_indices":[2453,3709,7039,0,0,3301,11930,11878,7095,5578,3381,1269,2314,0,0,6609,1440,0,0,0,0,0,0,0,0,0,0],"split_type":[0,0,0,0,0,0,0,0,0,0,0,0,0,0,0,0,0,0,0,0,0,0,0,0,0,0,0],"sum_hessian":[1.1094162E2,2.9854378E1,8.108724E1,2.8496105E1,1.3582722E0,3.352864E1,4.75586E1,2.1346956E1,1.21816845E1,3.9530716E1,8.027885E0,7.9414153E0,1.340554E1,1.0815956E1,1.3657277E0,3.4152428E1,5.3782907E0,5.2538466E0,2.7740388E0,1.4038539E0,6.5375614E0,1.0743198E1,2.662343E0,3.284127E1,1.3111563E0,1.8813425E0,3.4969482E0],"tree_param":{"num_deleted":"0","num_feature":"13163","num_nodes":"27","size_leaf_vector":"1"}},{"base_weights":[-1.6378957E-1,-7.071244E-3,1.1696132E0,-3.530093E-5,1.2188989E-2],"categories":[],"categories_nodes":[],"categories_segments":[],"categories_sizes":[],"default_left":[0,0,0,0,0],"id":42,"left_children":[1,-1,3,-1,-1],"loss_changes":[8.2399155E1,0E0,1.9108124E0,0E0,0E0],"parents":[2147483647,0,0,2,2],"right_children":[2,-1,4,-1,-1],"split_conditions":[4.9382588E-1,-7.071244E-3,-1.2298902E0,-3.530093E-5,1.2188989E-2],"split_indices":[707,0,27,0,0],"split_type":[0,0,0,0,0],"sum_hessian":[1.1159334E2,7.961962E1,3.197371E1,1.3265376E0,3.0647173E1],"tree_param":{"num_deleted":"0","num_feature":"13163","num_nodes":"5","size_leaf_vector":"1"}},{"base_weights":[-1.0327335E-2,2.5099653E-1,-6.949994E-3,2.0202998E-2,7.947644E-1,-3.412982E-1,4.2560992E-1,1.0040935E0,-3.5665432E-1,-6.187702E-1,4.590993E-1,8.695222E-1,-2.056489E-1,1.2019767E0,-2.6808557E-1,-1.5712825E-5,-5.0474387E-3,3.969867E-3,-6.9776643E-3,1.08681815E-2,-5.475863E-3,1.1594587E-2,-3.163024E-3,-5.550266E-3,7.442722E-3,1.2474326E-2,3.7569609E-3,-1.7141978E-5,-4.204752E-3],"categories":[],"categories_nodes":[],"categories_segments":[],"categories_sizes":[],"default_left":[0,0,0,0,0,0,0,0,0,0,0,0,0,0,0,0,0,0,0,0,0,0,0,0,0,0,0,0,0],"id":43,"left_children":[1,3,-1,5,7,9,11,13,15,17,19,21,23,25,27,-1,-1,-1,-1,-1,-1,-1,-1,-1,-1,-1,-1,-1,-1],"loss_changes":[2.0354284E1,1.0320545E1,0E0,8.769845E0,6.2670536E0,7.3162475E0,8.0768795E0,5.610483E0,2.363224E-1,2.1978703E0,6.108712E0,6.121937E0,4.543546E0,2.2098541E-1,1.4725024E-1,0E0,0E0,0E0,0E0,0E0,0E0,0E0,0E0,0E0,0E0,0E0,0E0,0E0,0E0],"parents":[2147483647,0,0,1,1,3,3,4,4,5,5,6,6,7,7,8,8,9,9,10,10,11,11,12,12,13,13,14,14],"right_children":[2,4,-1,6,8,10,12,14,16,18,20,22,24,26,28,-1,-1,-1,-1,-1,-1,-1,-1,-1,-1,-1,-1,-1,-1],"split_conditions":[-1.9415252E-1,1.0399033E-1,-6.949994E-3,1.3353948E-1,1.2008046E0,5.326138E-1,3.2143793E-1,2.5062388E-1,-1.21608436E-1,-7.8609055E-1,3.069973E-1,4.3552288E-1,8.017797E-2,1.9384568E0,-2.9000142E-1,-1.5712825E-5,-5.0474387E-3,3.969867E-3,-6.9776643E-3,1.08681815E-2,-5.475863E-3,1.1594587E-2,-3.163024E-3,-5.550266E-3,7.442722E-3,1.2474326E-2,3.7569609E-3,-1.7141978E-5,-4.204752E-3],"split_indices":[1764,247,0,4876,7080,8972,2244,4023,15,1815,4878,1956,8857,6554,23,0,0,0,0,0,0,0,0,0,0,0,0,0,0],"split_type":[0,0,0,0,0,0,0,0,0,0,0,0,0,0,0,0,0,0,0,0,0,0,0,0,0,0,0,0,0],"sum_hessian":[1.11786224E2,8.13646E1,3.0421623E1,5.784877E1,2.351583E1,3.0663908E1,2.7184862E1,2.0006565E1,3.5092633E0,2.2938717E1,7.725192E0,1.5739281E1,1.1445581E1,1.7361263E1,2.6453032E0,1.3302516E0,2.1790118E0,1.3647656E0,2.157395E1,4.709181E0,3.016011E0,1.2664917E1,3.074364E0,8.671827E0,2.7737546E0,1.5972855E1,1.388408E0,1.3306413E0,1.3146619E0],"tree_param":{"num_deleted":"0","num_feature":"13163","num_nodes":"29","size_leaf_vector":"1"}},{"base_weights":[1.4840893E-1,5.4723155E-1,-5.239926E-1,7.812033E-1,-5.6547556E-2,-6.7633057E-1,7.23583E-1,8.9109993E-1,-5.7524643E-3,4.5983684E-1,-6.606663E-3,-7.0047844E-3,7.1685376E-5,-1.04636456E-4,9.852402E-3,-1.16638765E-2,1.0362219E0,1.1088772E-2,-3.0530903E-1,-5.9738117E-3,9.253842E-3,-1.5285122E-3,1.1513203E-2,-5.8303997E-3,3.9985115E-3],"categories":[],"categories_nodes":[],"categories_segments":[],"categories_sizes":[],"default_left":[0,0,0,0,0,0,0,0,0,0,0,0,0,0,0,0,0,0,0,0,0,0,0,0,0],"id":44,"left_children":[1,3,5,7,9,11,13,15,-1,17,-1,-1,-1,-1,-1,19,21,-1,23,-1,-1,-1,-1,-1,-1],"loss_changes":[3.083795E1,1.0215326E1,8.647568E0,8.258017E0,6.8676624E0,6.4494514E-1,1.0002866E0,6.3604393E0,0E0,6.2650023E0,0E0,0E0,0E0,0E0,0E0,4.778724E0,5.890877E0,0E0,1.459338E0,0E0,0E0,0E0,0E0,0E0,0E0],"parents":[2147483647,0,0,1,1,2,2,3,3,4,4,5,5,6,6,7,7,9,9,15,15,16,16,18,18],"right_children":[2,4,6,8,10,12,14,16,-1,18,-1,-1,-1,-1,-1,20,22,-1,24,-1,-1,-1,-1,-1,-1],"split_conditions":[-2.695735E-1,6.965172E-1,1.2396646E0,9.3315345E-1,-4.303714E-1,1.3814814E0,-2.1682777E-1,-4.6157375E-1,-5.7524643E-3,-2.8150102E-1,-6.606663E-3,-7.0047844E-3,7.1685376E-5,-1.04636456E-4,9.852402E-3,6.501489E-1,-1.0151923E0,1.1088772E-2,5.412767E-2,-5.9738117E-3,9.253842E-3,-1.5285122E-3,1.1513203E-2,-5.8303997E-3,3.9985115E-3],"split_indices":[5767,6613,3740,247,5605,5190,5,3170,0,2292,0,0,0,0,0,4511,12342,0,21,0,0,0,0,0,0],"split_type":[0,0,0,0,0,0,0,0,0,0,0,0,0,0,0,0,0,0,0,0,0,0,0,0,0],"sum_hessian":[1.1292519E2,7.0999374E1,4.1925823E1,5.095849E1,2.0040888E1,3.777153E1,4.154291E0,4.745671E1,3.5017745E0,1.0933802E1,9.107087E0,3.6458614E1,1.3129158E0,1.3439677E0,2.8103232E0,6.699651E0,4.075706E1,5.672677E0,5.261124E0,4.3457527E0,2.353898E0,3.5680306E0,3.718903E1,3.898759E0,1.3623655E0],"tree_param":{"num_deleted":"0","num_feature":"13163","num_nodes":"25","size_leaf_vector":"1"}},{"base_weights":[-1.6942947E-1,-7.048358E-3,1.1292064E0,-4.1020443E-3,1.2045494E-2],"categories":[],"categories_nodes":[],"categories_segments":[],"categories_sizes":[],"default_left":[0,0,0,0,0],"id":45,"left_children":[1,-1,3,-1,-1],"loss_changes":[7.8618614E1,0E0,4.328396E0,0E0,0E0],"parents":[2147483647,0,0,2,2],"right_children":[2,-1,4,-1,-1],"split_conditions":[4.9382588E-1,-7.048358E-3,-1.0864842E-1,-4.1020443E-3,1.2045494E-2],"split_indices":[707,0,322,0,0],"split_type":[0,0,0,0,0],"sum_hessian":[1.1092714E2,7.8868286E1,3.2058853E1,1.288461E0,3.0770393E1],"tree_param":{"num_deleted":"0","num_feature":"13163","num_nodes":"5","size_leaf_vector":"1"}},{"base_weights":[9.107396E-3,2.6478305E-1,-6.90764E-3,-3.7568626E-1,4.4364333E-1,7.328322E-3,-6.2005115E-1,-4.535299E-1,5.911266E-1,-6.7792516E-3,6.23711E-5,4.0553757E-3,-6.4205774E-3,7.078641E-1,-4.5658794E-1,8.59805E-3,-4.428076E-4,-5.8264825E-3,6.917111E-5],"categories":[],"categories_nodes":[],"categories_segments":[],"categories_sizes":[],"default_left":[0,0,0,0,0,0,0,0,0,0,0,0,0,0,0,0,0,0,0],"id":46,"left_children":[1,3,-1,5,7,-1,9,11,13,-1,-1,-1,-1,15,17,-1,-1,-1,-1],"loss_changes":[2.0051956E1,9.565878E0,0E0,5.453016E0,8.815446E0,0E0,5.718975E-1,1.8290378E0,7.1615944E0,0E0,0E0,0E0,0E0,5.8319645E0,3.6705768E-1,0E0,0E0,0E0,0E0],"parents":[2147483647,0,0,1,1,3,3,4,4,6,6,7,7,8,8,13,13,14,14],"right_children":[2,4,-1,6,8,-1,10,12,14,-1,-1,-1,-1,16,18,-1,-1,-1,-1],"split_conditions":[5.6504413E-2,-1.0350628E0,-6.90764E-3,-7.5280875E-1,-7.9765725E-1,7.328322E-3,5.5794257E-1,-7.3222184E-1,7.441696E-1,-6.7792516E-3,6.23711E-5,4.0553757E-3,-6.4205774E-3,7.374119E-1,8.1242776E-1,8.59805E-3,-4.428076E-4,-5.8264825E-3,6.917111E-5],"split_indices":[5626,2926,0,1430,6204,0,1990,2778,12600,0,0,0,0,7193,11,0,0,0,0],"split_type":[0,0,0,0,0,0,0,0,0,0,0,0,0,0,0,0,0,0,0],"sum_hessian":[1.10037476E2,8.105008E1,2.898739E1,1.7453066E1,6.3597015E1,2.791408E0,1.4661659E1,8.685581E0,5.4911434E1,1.334594E1,1.3157194E0,1.3559287E0,7.329653E0,4.969836E1,5.213073E0,4.1226955E1,8.471406E0,3.8963315E0,1.3167411E0],"tree_param":{"num_deleted":"0","num_feature":"13163","num_nodes":"19","size_leaf_vector":"1"}},{"base_weights":[1.5249215E-1,4.0487128E-1,-6.251274E-1,8.010092E-1,1.20606326E-1,-6.904611E-3,4.0446566E-3,9.5760727E-1,-3.9498228E-1,7.443376E-1,-1.655945E-1,1.1035063E0,-5.304956E-3,-5.0403447E-5,-5.3687315E-3,1.1139834E0,-2.389527E-1,-3.821652E-1,6.183764E-1,1.1859043E-2,-4.133569E-3,3.7263006E-3,1.1739526E-2,-5.5133128E-3,3.947611E-3,-6.180038E-3,4.1058087E-3,-2.7397494E-3,1.0809637E-2],"categories":[],"categories_nodes":[],"categories_segments":[],"categories_sizes":[],"default_left":[0,0,0,0,0,0,0,0,0,0,0,0,0,0,0,0,0,0,0,0,0,0,0,0,0,0,0,0,0],"id":47,"left_children":[1,3,5,7,9,-1,-1,11,13,15,17,19,-1,-1,-1,21,23,25,27,-1,-1,-1,-1,-1,-1,-1,-1,-1,-1],"loss_changes":[2.3092659E1,9.865637E0,2.2238798E0,7.267475E0,9.528082E0,0E0,0E0,7.71043E0,2.7209663E-1,6.355318E0,6.5067606E0,4.2662315E0,0E0,0E0,0E0,1.117115E-1,1.2867284E0,5.779475E0,3.753663E0,0E0,0E0,0E0,0E0,0E0,0E0,0E0,0E0,0E0,0E0],"parents":[2147483647,0,0,1,1,2,2,3,3,4,4,7,7,8,8,9,9,10,10,11,11,15,15,16,16,17,17,18,18],"right_children":[2,4,6,8,10,-1,-1,12,14,16,18,20,-1,-1,-1,22,24,26,28,-1,-1,-1,-1,-1,-1,-1,-1,-1,-1],"split_conditions":[-2.106305E-1,-5.1256514E-1,2.353613E0,7.70062E-1,-2.6012194E-1,-6.904611E-3,4.0446566E-3,2.1592937E0,-5.2799654E-1,-9.067277E-2,5.7716537E-1,3.6074173E0,-5.304956E-3,-5.0403447E-5,-5.3687315E-3,-7.072044E-1,-3.7478667E-1,-2.3005342E-2,-3.135278E-1,1.1859043E-2,-4.133569E-3,3.7263006E-3,1.1739526E-2,-5.5133128E-3,3.947611E-3,-6.180038E-3,4.1058087E-3,-2.7397494E-3,1.0809637E-2],"split_indices":[12682,6289,10232,769,9709,0,0,8837,120,892,12212,766,0,0,0,1024,81,5693,2118,0,0,0,0,0,0,0,0,0,0],"split_type":[0,0,0,0,0,0,0,0,0,0,0,0,0,0,0,0,0,0,0,0,0,0,0,0,0,0,0,0,0],"sum_hessian":[1.15377014E2,8.746824E1,2.7908775E1,3.5783813E1,5.1684425E1,2.6553204E1,1.3555726E0,3.1817133E1,3.9666815E0,1.57528105E1,3.5931614E1,2.921157E1,2.6055627E0,1.3345685E0,2.632113E0,1.1352268E1,4.4005427E0,2.855568E1,7.375934E0,2.7913464E1,1.2981069E0,1.3894361E0,9.962832E0,3.0346582E0,1.3658844E0,2.2178188E1,6.377492E0,2.6574092E0,4.718525E0],"tree_param":{"num_deleted":"0","num_feature":"13163","num_nodes":"29","size_leaf_vector":"1"}},{"base_weights":[-1.9278398E-1,-6.8009585E-1,1.109653E0,-7.0289075E-3,3.7742686E-3,1.1908533E-2,-4.137253E-3],"categories":[],"categories_nodes":[],"categories_segments":[],"categories_sizes":[],"default_left":[0,0,0,0,0,0,0],"id":48,"left_children":[1,3,5,-1,-1,-1,-1],"loss_changes":[7.153599E1,2.2365875E0,4.29578E0,0E0,0E0,0E0,0E0],"parents":[2147483647,0,0,1,1,2,2],"right_children":[2,4,6,-1,-1,-1,-1],"split_conditions":[8.73393E-2,1.7093331E0,-3.5594243E-1,-7.0289075E-3,3.7742686E-3,1.1908533E-2,-4.137253E-3],"split_indices":[8457,3328,8077,0,0,0,0],"split_type":[0,0,0,0,0,0,0],"sum_hessian":[1.1052056E2,8.07758E1,2.9744755E1,7.939969E1,1.3761154E0,2.8446743E1,1.2980113E0],"tree_param":{"num_deleted":"0","num_feature":"13163","num_nodes":"7","size_leaf_vector":"1"}},{"base_weights":[8.478106E-3,2.7989438E-1,-6.3831615E-1,-3.5784817E-1,5.181585E-1,-6.92937E-3,3.910262E-3,9.181827E-3,-5.5020183E-1,7.064393E-1,-2.2410767E-1,5.383408E-3,-6.8759285E-3,-5.6940005E-3,8.186677E-1,-5.678043E-1,9.165929E-3,9.640126E-3,-4.184762E-3,-6.4997096E-3,2.0893272E-5],"categories":[],"categories_nodes":[],"categories_segments":[],"categories_sizes":[],"default_left":[0,0,0,0,0,0,0,0,0,0,0,0,0,0,0,0,0,0,0,0,0],"id":49,"left_children":[1,3,5,7,9,-1,-1,-1,11,13,15,-1,-1,-1,17,19,-1,-1,-1,-1,-1],"loss_changes":[2.0357796E1,1.2594549E1,2.1984415E0,6.102297E0,8.524254E0,0E0,0E0,0E0,3.4273305E0,7.3376923E0,5.566657E0,0E0,0E0,0E0,8.408766E0,4.934311E-1,0E0,0E0,0E0,0E0,0E0],"parents":[2147483647,0,0,1,1,2,2,3,3,4,4,8,8,9,9,10,10,14,14,15,15],"right_children":[2,4,6,8,10,-1,-1,-1,12,14,16,-1,-1,-1,18,20,-1,-1,-1,-1,-1],"split_conditions":[3.127583E-2,-6.677435E-1,1.5291357E0,-1.1946557E0,8.7109447E-1,-6.92937E-3,3.910262E-3,9.181827E-3,-9.6509475E-1,-1.0020212E0,-3.053384E-1,5.383408E-3,-6.8759285E-3,-5.6940005E-3,2.0993704E-1,-1.0460216E-1,9.165929E-3,9.640126E-3,-4.184762E-3,-6.4997096E-3,2.0893272E-5],"split_indices":[4510,10703,3392,12597,11295,0,0,0,8488,11683,9732,0,0,0,6336,2149,0,0,0,0,0],"split_type":[0,0,0,0,0,0,0,0,0,0,0,0,0,0,0,0,0,0,0,0,0],"sum_hessian":[1.1394776E2,8.066522E1,3.3282536E1,2.180354E1,5.8861683E1,3.1915777E1,1.3667578E0,2.3618898E0,1.944165E1,4.6990498E1,1.1871186E1,1.8517787E0,1.758987E1,3.46993E0,4.3520565E1,9.508483E0,2.3627033E0,3.9142696E1,4.3778706E0,8.187504E0,1.3209792E0],"tree_param":{"num_deleted":"0","num_feature":"13163","num_nodes":"21","size_leaf_vector":"1"}},{"base_weights":[2.2237581E-1,4.837336E-1,-6.495937E-1,7.105487E-1,-3.5137508E-2,-6.8495553E-3,1.5618907E-4,8.2282054E-1,-2.3178138E-1,-3.2597294E-1,7.7450496E-1,-5.3092856E-3,9.0167546E-1,7.5684246E-3,-6.068662E-3,-6.8356805E-3,5.626555E-1,-4.1493634E-3,1.0909145E-2,-2.0580008E-3,9.994014E-3,-4.61193E-3,1.0274399E-2],"categories":[],"categories_nodes":[],"categories_segments":[],"categories_sizes":[],"default_left":[0,0,0,0,0,0,0,0,0,0,0,0,0,0,0,0,0,0,0,0,0,0,0],"id":50,"left_children":[1,3,5,7,9,-1,-1,11,13,15,17,-1,19,-1,-1,-1,21,-1,-1,-1,-1,-1,-1],"loss_changes":[2.5786947E1,1.0213249E1,6.2707424E-1,6.5687428E0,6.6773334E0,0E0,0E0,6.252533E0,3.1285026E0,6.987178E0,3.2779646E0,0E0,5.7773933E0,0E0,0E0,0E0,3.5720267E0,0E0,0E0,0E0,0E0,0E0,0E0],"parents":[2147483647,0,0,1,1,2,2,3,3,4,4,7,7,8,8,9,9,10,10,12,12,16,16],"right_children":[2,4,6,8,10,-1,-1,12,14,16,18,-1,20,-1,-1,-1,22,-1,-1,-1,-1,-1,-1],"split_conditions":[-1.12650804E-1,-1.3247758E-1,1.6971747E0,1.3647435E0,2.092265E-1,-6.8495553E-3,1.5618907E-4,-9.058811E-1,-1.5270935E0,5.7181126E-1,-3.2927582E-1,-5.3092856E-3,-9.1104305E-1,7.5684246E-3,-6.068662E-3,-6.8356805E-3,-2.9554254E-1,-4.1493634E-3,1.0909145E-2,-2.0580008E-3,9.994014E-3,-4.61193E-3,1.0274399E-2],"split_indices":[8921,11636,8119,7045,12755,0,0,940,204,1544,361,0,9751,0,0,0,206,0,0,0,0,0,0],"split_type":[0,0,0,0,0,0,0,0,0,0,0,0,0,0,0,0,0,0,0,0,0,0,0],"sum_hessian":[1.1077342E2,8.557041E1,2.520301E1,5.9285442E1,2.628497E1,2.3902695E1,1.3003145E0,5.3087296E1,6.1981463E0,1.9777859E1,6.50711E0,2.6065278E0,5.0480766E1,1.4248444E0,4.7733016E0,1.4267286E1,5.510573E0,1.3018452E0,5.205265E0,4.003653E0,4.6477116E1,1.7229364E0,3.7876365E0],"tree_param":{"num_deleted":"0","num_feature":"13163","num_nodes":"23","size_leaf_vector":"1"}},{"base_weights":[-1.8108898E-1,-7.0032463E-3,1.104926E0,-4.125926E-3,1.1804531E-2],"categories":[],"categories_nodes":[],"categories_segments":[],"categories_sizes":[],"default_left":[0,0,0,0,0],"id":51,"left_children":[1,-1,3,-1,-1],"loss_changes":[7.5962204E1,0E0,4.2434845E0,0E0,0E0],"parents":[2147483647,0,0,2,2],"right_children":[2,-1,4,-1,-1],"split_conditions":[4.9382588E-1,-7.0032463E-3,-7.0132667E-1,-4.125926E-3,1.1804531E-2],"split_indices":[707,0,298,0,0],"split_type":[0,0,0,0,0],"sum_hessian":[1.11600494E2,7.982581E1,3.1774685E1,1.29487E0,3.0479815E1],"tree_param":{"num_deleted":"0","num_feature":"13163","num_nodes":"5","size_leaf_vector":"1"}},{"base_weights":[-1.5763754E-2,2.2724818E-1,-6.8638516E-3,2.7898534E-3,7.8405017E-1,4.562902E-1,-2.8672218E-1,-1.1887223E-1,1.0305699E0,-5.243225E-1,9.4019294E-1,-5.5539674E-1,3.8875467E-1,7.611126E-3,-5.6911483E-3,1.2118899E-2,-2.0526105E-3,-6.233812E-3,5.6956264E-6,-2.5802637E-3,1.1938532E-2,7.553735E-3,-6.6002742E-3,8.950937E-3,-5.6166933E-3],"categories":[],"categories_nodes":[],"categories_segments":[],"categories_sizes":[],"default_left":[0,0,0,0,0,0,0,0,0,0,0,0,0,0,0,0,0,0,0,0,0,0,0,0,0],"id":52,"left_children":[1,3,-1,5,7,9,11,13,15,17,19,21,23,-1,-1,-1,-1,-1,-1,-1,-1,-1,-1,-1,-1],"loss_changes":[1.7982454E1,1.0126362E1,0E0,7.84592E0,5.304371E0,1.1540911E1,6.8363805E0,2.7665932E0,4.3697433E0,4.3372822E-1,5.155116E0,4.134404E0,5.7815228E0,0E0,0E0,0E0,0E0,0E0,0E0,0E0,0E0,0E0,0E0,0E0,0E0],"parents":[2147483647,0,0,1,1,3,3,4,4,5,5,6,6,7,7,8,8,9,9,10,10,11,11,12,12],"right_children":[2,4,-1,6,8,10,12,14,16,18,20,22,24,-1,-1,-1,-1,-1,-1,-1,-1,-1,-1,-1,-1],"split_conditions":[3.3219156E-1,8.961178E-2,-6.8638516E-3,-4.1048282E-1,-4.513703E-1,-7.633823E-1,2.8983256E-1,-6.880312E-1,8.712912E-1,1.4023553E0,-2.1012662E-1,-7.230527E-1,2.6458138E-1,7.611126E-3,-5.6911483E-3,1.2118899E-2,-2.0526105E-3,-6.233812E-3,5.6956264E-6,-2.5802637E-3,1.1938532E-2,7.553735E-3,-6.6002742E-3,8.950937E-3,-5.6166933E-3],"split_indices":[11544,247,0,12755,589,4591,7706,14,8600,40,4025,901,5754,0,0,0,0,0,0,0,0,0,0,0,0],"split_type":[0,0,0,0,0,0,0,0,0,0,0,0,0,0,0,0,0,0,0,0,0,0,0,0,0],"sum_hessian":[1.0838567E2,8.004209E1,2.834358E1,5.776204E1,2.2280054E1,2.2282305E1,3.5479736E1,4.889433E0,1.7390621E1,7.3348827E0,1.4947422E1,2.5510548E1,9.969187E0,1.4212315E0,3.4682016E0,1.5182439E1,2.208183E0,6.0125456E0,1.3223372E0,2.6084824E0,1.233894E1,1.4260582E0,2.408449E1,6.542097E0,3.4270902E0],"tree_param":{"num_deleted":"0","num_feature":"13163","num_nodes":"25","size_leaf_vector":"1"}},{"base_weights":[2.3699069E-1,5.488467E-1,-6.016267E-1,7.489676E-1,4.9279626E-2,7.6726354E-3,-6.896947E-3,5.0778024E-2,9.2112714E-1,9.5093725E-3,-2.2494361E-1,6.840026E-1,-5.091511E-1,1.0084697E0,-1.5128997E-1,-5.0810474E-1,7.049913E-1,1.0353293E-2,-4.17339E-3,9.902268E-6,-6.1775027E-3,-2.1216937E-3,1.0761945E-2,3.8877046E-3,-5.062154E-3,-6.81166E-3,7.5963954E-3,9.558639E-3,-9.2406306E-5],"categories":[],"categories_nodes":[],"categories_segments":[],"categories_sizes":[],"default_left":[0,0,0,0,0,0,0,0,0,0,0,0,0,0,0,0,0,0,0,0,0,0,0,0,0,0,0,0,0],"id":53,"left_children":[1,3,5,7,9,-1,-1,11,13,-1,15,17,19,21,23,25,27,-1,-1,-1,-1,-1,-1,-1,-1,-1,-1,-1,-1],"loss_changes":[3.0880045E1,8.528019E0,4.403981E0,7.2971954E0,6.5371614E0,0E0,0E0,5.0085473E0,4.7379837E0,0E0,5.734837E0,2.983864E0,4.188279E-1,3.9812622E0,1.0701635E0,4.079041E0,9.378762E-1,0E0,0E0,0E0,0E0,0E0,0E0,0E0,0E0,0E0,0E0,0E0,0E0],"parents":[2147483647,0,0,1,1,2,2,3,3,4,4,7,7,8,8,10,10,11,11,12,12,13,13,14,14,15,15,16,16],"right_children":[2,4,6,8,10,-1,-1,12,14,-1,16,18,20,22,24,26,28,-1,-1,-1,-1,-1,-1,-1,-1,-1,-1,-1,-1],"split_conditions":[-1.7389569E-1,1.0399033E-1,-1.0654576E0,-8.480927E-1,-5.08232E-1,7.6726354E-3,-6.896947E-3,-7.798076E-1,1.6247256E0,9.5093725E-3,6.526181E-2,1.0844306E0,-1.2118219E0,-1.234703E0,-4.287243E-1,7.6559997E-1,5.0029285E-2,1.0353293E-2,-4.17339E-3,9.902268E-6,-6.1775027E-3,-2.1216937E-3,1.0761945E-2,3.8877046E-3,-5.062154E-3,-6.81166E-3,7.5963954E-3,9.558639E-3,-9.2406306E-5],"split_indices":[8921,247,4224,9395,3470,0,0,12817,11395,0,476,9,448,8136,33,6063,13,0,0,0,0,0,0,0,0,0,0,0,0],"split_type":[0,0,0,0,0,0,0,0,0,0,0,0,0,0,0,0,0,0,0,0,0,0,0,0,0,0,0,0,0],"sum_hessian":[1.1581295E2,8.4671684E1,3.1141264E1,6.0097916E1,2.4573769E1,1.4162068E0,2.9725058E1,1.2143827E1,4.795409E1,5.155271E0,1.9418497E1,5.594928E0,6.548899E0,4.4397762E1,3.5563264E0,1.5233559E1,4.1849394E0,4.287241E0,1.3076869E0,1.3233565E0,5.225543E0,2.2217245E0,4.217604E1,1.3725196E0,2.183807E0,1.3810909E1,1.4226487E0,2.8467233E0,1.3382163E0],"tree_param":{"num_deleted":"0","num_feature":"13163","num_nodes":"29","size_leaf_vector":"1"}},{"base_weights":[-2.1794254E-1,-6.987515E-3,1.0862874E0,-4.06718E-3,1.1644502E-2],"categories":[],"categories_nodes":[],"categories_segments":[],"categories_sizes":[],"default_left":[0,0,0,0,0],"id":54,"left_children":[1,-1,3,-1,-1],"loss_changes":[7.184013E1,0E0,4.0822716E0,0E0,0E0],"parents":[2147483647,0,0,2,2],"right_children":[2,-1,4,-1,-1],"split_conditions":[5.7989615E-1,-6.987515E-3,-4.221962E-1,-4.06718E-3,1.1644502E-2],"split_indices":[707,0,175,0,0],"split_type":[0,0,0,0,0],"sum_hessian":[1.1235152E2,8.242828E1,2.9923237E1,1.2795153E0,2.864372E1],"tree_param":{"num_deleted":"0","num_feature":"13163","num_nodes":"5","size_leaf_vector":"1"}},{"base_weights":[-1.6822974E-3,-3.264192E-1,5.7395095E-1,-6.4687467E-1,5.7250496E-2,8.424871E-1,-2.2677998E-1,-6.943054E-3,3.947029E-3,-3.6492735E-1,5.0038713E-1,1.0108395E0,-5.437155E-3,7.2705355E-3,-6.3704527E-3,-5.6044304E-1,8.429843E-3,-5.785217E-3,8.631328E-1,1.1272591E0,-4.6742237E-3,-6.7515657E-3,3.8442463E-3,-4.6099457E-3,1.1039152E-2,1.2235244E-2,-4.0958617E-3],"categories":[],"categories_nodes":[],"categories_segments":[],"categories_sizes":[],"default_left":[0,0,0,0,0,0,0,0,0,0,0,0,0,0,0,0,0,0,0,0,0,0,0,0,0,0,0],"id":55,"left_children":[1,3,5,7,9,11,13,-1,-1,15,17,19,-1,-1,-1,21,-1,-1,23,25,-1,-1,-1,-1,-1,-1,-1],"loss_changes":[2.1207172E1,8.954374E0,8.989716E0,2.230463E0,6.52982E0,7.7502136E0,4.792929E0,0E0,0E0,4.712288E0,7.1426573E0,5.322113E0,0E0,0E0,0E0,1.9994559E0,0E0,0E0,4.6870356E0,4.3657646E0,0E0,0E0,0E0,0E0,0E0,0E0,0E0],"parents":[2147483647,0,0,1,1,2,2,3,3,4,4,5,5,6,6,9,9,10,10,11,11,15,15,18,18,19,19],"right_children":[2,4,6,8,10,12,14,-1,-1,16,18,20,-1,-1,-1,22,-1,-1,24,26,-1,-1,-1,-1,-1,-1,-1],"split_conditions":[1.18008114E-1,-4.2047524E-1,3.4699103E-1,1.2524453E0,-2.2469668E-1,1.4257224E-1,-6.441065E-1,-6.943054E-3,3.947029E-3,1.5363216E0,-1.2714176E0,1.9979867E0,-5.437155E-3,7.2705355E-3,-6.3704527E-3,5.016987E-1,8.429843E-3,-5.785217E-3,-1.2359847E0,9.820994E-1,-4.6742237E-3,-6.7515657E-3,3.8442463E-3,-4.6099457E-3,1.1039152E-2,1.2235244E-2,-4.0958617E-3],"split_indices":[9840,2553,4204,3087,3173,6339,12064,0,0,3525,3458,5958,0,0,0,9529,0,0,11060,736,0,0,0,0,0,0,0],"split_type":[0,0,0,0,0,0,0,0,0,0,0,0,0,0,0,0,0,0,0,0,0,0,0,0,0,0,0],"sum_hessian":[1.11447945E2,7.1528755E1,3.991919E1,3.860139E1,3.292737E1,2.9854818E1,1.0064371E1,3.7239033E1,1.3623585E0,1.6952833E1,1.5974535E1,2.6863115E1,2.9917028E0,2.7947195E0,7.269652E0,1.505243E1,1.9004021E0,3.8698018E0,1.21047325E1,2.5122082E1,1.7410331E0,1.3677353E1,1.3750777E0,1.7217577E0,1.0382976E1,2.3833092E1,1.2889898E0],"tree_param":{"num_deleted":"0","num_feature":"13163","num_nodes":"27","size_leaf_vector":"1"}},{"base_weights":[1.4343308E-1,-5.140821E-1,4.9988252E-1,-6.4312416E-1,5.251983E-1,7.2144467E-1,-8.506507E-2,3.9248033E-3,-6.930788E-3,9.462202E-3,-4.118695E-3,8.263502E-1,-4.147474E-1,6.4285165E-1,-4.3355462E-1,9.5779735E-1,-1.0420646E-1,2.3055738E-5,-5.5196104E-3,-4.6116817E-3,1.05218515E-2,8.445876E-3,-6.7585004E-3,1.0587273E-2,-1.6089005E-3,8.240721E-3,-5.9366175E-3],"categories":[],"categories_nodes":[],"categories_segments":[],"categories_sizes":[],"default_left":[0,0,0,0,0,0,0,0,0,0,0,0,0,0,0,0,0,0,0,0,0,0,0,0,0,0,0],"id":56,"left_children":[1,3,5,7,9,11,13,-1,-1,-1,-1,15,17,19,21,23,25,-1,-1,-1,-1,-1,-1,-1,-1,-1,-1],"loss_changes":[2.7703848E1,5.92502E0,9.969105E0,2.2125025E0,2.4223185E0,6.964052E0,5.833077E0,0E0,0E0,0E0,0E0,6.3613167E0,3.080796E-1,3.8707993E0,5.34133E0,5.245846E0,3.777722E0,0E0,0E0,0E0,0E0,0E0,0E0,0E0,0E0,0E0,0E0],"parents":[2147483647,0,0,1,1,2,2,3,3,4,4,5,5,6,6,11,11,12,12,13,13,14,14,15,15,16,16],"right_children":[2,4,6,8,10,12,14,-1,-1,-1,-1,16,18,20,22,24,26,-1,-1,-1,-1,-1,-1,-1,-1,-1,-1],"split_conditions":[-4.921362E-1,1.1661979E0,3.445274E-1,-1.0455474E0,1.8073505E-1,1.6345165E0,-3.632889E-1,3.9248033E-3,-6.930788E-3,9.462202E-3,-4.118695E-3,1.9326825E-1,-1.3712155E0,-5.7800657E-1,-7.122828E-1,2.4193778E0,-1.2126365E0,2.3055738E-5,-5.5196104E-3,-4.6116817E-3,1.05218515E-2,8.445876E-3,-6.7585004E-3,1.0587273E-2,-1.6089005E-3,8.240721E-3,-5.9366175E-3],"split_indices":[9153,11266,1193,1928,46,9967,12221,0,0,0,0,12144,80,517,8378,6401,24,0,0,0,0,0,0,0,0,0,0],"split_type":[0,0,0,0,0,0,0,0,0,0,0,0,0,0,0,0,0,0,0,0,0,0,0,0,0,0,0],"sum_hessian":[1.1610868E2,4.066142E1,7.544726E1,3.6509415E1,4.152002E0,5.455135E1,2.089591E1,1.364541E0,3.5144875E1,2.858099E0,1.2939029E0,5.0189972E1,4.3613796E0,6.491642E0,1.4404268E1,4.3952168E1,6.2378016E0,1.323098E0,3.0382814E0,1.7216151E0,4.770027E0,1.8993189E0,1.250495E1,4.036405E1,3.5881176E0,1.9175026E0,4.320299E0],"tree_param":{"num_deleted":"0","num_feature":"13163","num_nodes":"27","size_leaf_vector":"1"}},{"base_weights":[-1.6818161E-1,-6.960284E-3,1.1033152E0,1.1542431E-2,-2.715677E-4],"categories":[],"categories_nodes":[],"categories_segments":[],"categories_sizes":[],"default_left":[0,0,0,0,0],"id":57,"left_children":[1,-1,3,-1,-1],"loss_changes":[7.32266E1,0E0,1.8769875E0,0E0,0E0],"parents":[2147483647,0,0,2,2],"right_children":[2,-1,4,-1,-1],"split_conditions":[4.9382588E-1,-6.960284E-3,4.419428E-1,1.1542431E-2,-2.715677E-4],"split_indices":[707,0,4348,0,0],"split_type":[0,0,0,0,0],"sum_hessian":[1.0696105E2,7.59033E1,3.105776E1,2.96988E1,1.3589609E0],"tree_param":{"num_deleted":"0","num_feature":"13163","num_nodes":"5","size_leaf_vector":"1"}},{"base_weights":[-2.146068E-2,2.4794567E-1,-6.5821624E-1,-2.0834753E-1,5.394199E-1,1.0535655E-4,-6.859594E-3,-5.2324057E-1,5.913745E-1,6.777775E-1,-5.9984955E-3,-6.850309E-3,4.810603E-1,1.0997221E-2,-5.242835E-3,-1.0214723E-1,8.954119E-1,7.513969E-3,-6.691858E-5,9.577042E-3,-6.332426E-3,1.00609325E-2,-4.9923277E-3],"categories":[],"categories_nodes":[],"categories_segments":[],"categories_sizes":[],"default_left":[0,0,0,0,0,0,0,0,0,0,0,0,0,0,0,0,0,0,0,0,0,0,0],"id":58,"left_children":[1,3,5,7,9,-1,-1,11,13,15,-1,-1,17,-1,-1,19,21,-1,-1,-1,-1,-1,-1],"loss_changes":[1.9043196E1,1.0494658E1,6.193819E-1,8.153831E0,7.9590206E0,0E0,0E0,4.0472684E0,5.8338027E0,7.423212E0,0E0,0E0,5.0107557E-1,0E0,0E0,6.416073E0,5.7309837E0,0E0,0E0,0E0,0E0,0E0,0E0],"parents":[2147483647,0,0,1,1,2,2,3,3,4,4,7,7,8,8,9,9,12,12,15,15,16,16],"right_children":[2,4,6,8,10,-1,-1,12,14,16,-1,-1,18,-1,-1,20,22,-1,-1,-1,-1,-1,-1],"split_conditions":[9.8162755E-2,-3.896758E-1,-9.3772477E-1,-1.9862176E-1,8.2581645E-1,1.0535655E-4,-6.859594E-3,1.776544E-1,