{"learner":{"attributes":{"scikit_learn":"{\"_estimator_type\": \"classifier\"}"},"feature_names":[],"feature_types":[],"gradient_booster":{"model":{"gbtree_model_param":{"num_parallel_tree":"1","num_trees":"300"},"iteration_indptr":[0,3,6,9,12,15,18,21,24,27,30,33,36,39,42,45,48,51,54,57,60,63,66,69,72,75,78,81,84,87,90,93,96,99,102,105,108,111,114,117,120,123,126,129,132,135,138,141,144,147,150,153,156,159,162,165,168,171,174,177,180,183,186,189,192,195,198,201,204,207,210,213,216,219,222,225,228,231,234,237,240,243,246,249,252,255,258,261,264,267,270,273,276,279,282,285,288,291,294,297,300],"tree_info":[0,1,2,0,1,2,0,1,2,0,1,2,0,1,2,0,1,2,0,1,2,0,1,2,0,1,2,0,1,2,0,1,2,0,1,2,0,1,2,0,1,2,0,1,2,0,1,2,0,1,2,0,1,2,0,1,2,0,1,2,0,1,2,0,1,2,0,1,2,0,1,2,0,1,2,0,1,2,0,1,2,0,1,2,0,1,2,0,1,2,0,1,2,0,1,2,0,1,2,0,1,2,0,1,2,0,1,2,0,1,2,0,1,2,0,1,2,0,1,2,0,1,2,0,1,2,0,1,2,0,1,2,0,1,2,0,1,2,0,1,2,0,1,2,0,1,2,0,1,2,0,1,2,0,1,2,0,1,2,0,1,2,0,1,2,0,1,2,0,1,2,0,1,2,0,1,2,0,1,2,0,1,2,0,1,2,0,1,2,0,1,2,0,1,2,0,1,2,0,1,2,0,1,2,0,1,2,0,1,2,0,1,2,0,1,2,0,1,2,0,1,2,0,1,2,0,1,2,0,1,2,0,1,2,0,1,2,0,1,2,0,1,2,0,1,2,0,1,2,0,1,2,0,1,2,0,1,2,0,1,2,0,1,2,0,1,2,0,1,2,0,1,2,0,1,2,0,1,2,0,1,2,0,1,2,0,1,2,0,1,2,0,1,2,0,1,2,0,1,2],"trees":[{"base_weights":[-2.0738418E-1,-7.24138E-1,3.9600003E-1,-2.2271189E-1,-4.444445E-1,-7.663455E-9,-1.5652177E-1],"categories":[],"categories_nodes":[],"categories_segments":[],"categories_sizes":[],"default_left":[0,0,0,0,0,0,0],"id":0,"left_children":[1,3,-1,-1,5,-1,-1],"loss_changes":[1.1259535E2,2.1237946E-1,0E0,0E0,3.0917895E-1,0E0,0E0],"parents":[2147483647,0,0,1,1,4,4],"right_children":[2,4,-1,-1,6,-1,-1],"split_conditions":[4.665359E-1,2.3841264E-2,3.9600003E-1,-2.2271189E-1,4.1910432E-2,-7.663455E-9,-1.5652177E-1],"split_indices":[0,0,0,0,0,0,0],"split_type":[0,0,0,0,0,0,0],"sum_hessian":[1.4044444E2,1.0533333E2,3.511111E1,9.733333E1,7.9999995E0,1.3333333E0,6.666666E0],"tree_param":{"num_deleted":"0","num_feature":"1","num_nodes":"7","size_leaf_vector":"1"}},{"base_weights":[4.7132317E-3,2.4868831E-1,-7.021277E-1,1.9354796E-2,4.5875248E-1,-2.1818185E-1,-3.658537E-1,5.454545E-1,-2.0408208E-2,2.8536585E-1,4.0645158E-1,-7.663455E-9,-1.5517244E-1,-7.663455E-9,2.5714284E-1,-3.3333337E-1,4.8780445E-2,-7.346941E-2,4.7294116E-1,-6.1224528E-2,-1.7560977E-1,1.4457828E-1,-1.3953494E-1,5.2941173E-1,1.5584412E-1,-3.600001E-2,-9.753488E-9,-1.3138699E-2,1.0413223E-1,-6.494847E-2,2.195121E-2,1.22866884E-1,2.8356165E-1,-9.729732E-2,1.4693877E-1],"categories":[],"categories_nodes":[],"categories_segments":[],"categories_sizes":[],"default_left":[0,0,0,0,0,0,0,0,0,0,0,0,0,0,0,0,0,0,0,0,0,0,0,0,0,0,0,0,0,0,0,0,0,0,0],"id":1,"left_children":[1,3,5,7,9,-1,11,13,15,-1,17,-1,-1,-1,-1,19,21,-1,23,25,-1,27,29,31,33,-1,-1,-1,-1,-1,-1,-1,-1,-1,-1],"loss_changes":[2.4566927E1,5.092292E0,4.302597E-2,1.0919625E0,1.0357046E0,0E0,2.5231284E-1,6.233767E-1,1.0771527E0,0E0,2.3533993E0,0E0,0E0,0E0,0E0,5.813837E-1,7.598221E-1,0E0,7.630873E-1,1.959183E-2,0E0,1.0707185E0,2.504751E-1,1.5896797E0,1.5307628E0,0E0,0E0,0E0,0E0,0E0,0E0,0E0,0E0,0E0,0E0],"parents":[2147483647,0,0,1,1,2,2,3,3,4,4,6,6,7,7,8,8,10,10,15,15,16,16,18,18,19,19,21,21,22,22,23,23,24,24],"right_children":[2,4,6,8,10,-1,12,14,16,-1,18,-1,-1,-1,-1,20,22,-1,24,26,-1,28,30,32,34,-1,-1,-1,-1,-1,-1,-1,-1,-1,-1],"split_conditions":[4.3943214E-1,-6.3568336E-1,2.6258016E0,-8.7961715E-1,-6.176142E-1,-2.1818185E-1,2.7071128E0,-8.976863E-1,-8.344442E-1,2.8536585E-1,-5.905105E-1,-7.663455E-9,-1.5517244E-1,-7.663455E-9,2.5714284E-1,-8.434788E-1,-6.989255E-1,-7.346941E-2,2.3841264E-2,-8.5251343E-1,-1.7560977E-1,-7.53133E-1,-6.5375257E-1,-1.65885E-1,7.8048766E-2,-3.600001E-2,-9.753488E-9,-1.3138699E-2,1.0413223E-1,-6.494847E-2,2.195121E-2,1.22866884E-1,2.8356165E-1,-9.729732E-2,1.4693877E-1],"split_indices":[0,0,0,0,0,0,0,0,0,0,0,0,0,0,0,0,0,0,0,0,0,0,0,0,0,0,0,0,0,0,0,0,0,0,0],"split_type":[0,0,0,0,0,0,0,0,0,0,0,0,0,0,0,0,0,0,0,0,0,0,0,0,0,0,0,0,0,0,0,0,0,0,0],"sum_hessian":[1.4044444E2,1.04888885E2,3.5555553E1,5.0666664E1,5.4222218E1,3.1999998E1,3.5555553E0,2.6666665E0,4.7999996E1,3.5555553E0,5.0666664E1,1.3333333E0,2.222222E0,1.3333333E0,1.3333333E0,7.9999995E0,3.9999996E1,4.444444E0,4.622222E1,4.444444E0,3.5555553E0,2.6666664E1,1.3333332E1,3.8666664E1,7.5555553E0,1.7777777E0,2.6666665E0,1.4222221E1,1.2444444E1,9.777777E0,3.5555553E0,3.1555553E1,7.1111107E0,3.111111E0,4.444444E0],"tree_param":{"num_deleted":"0","num_feature":"1","num_nodes":"35","size_leaf_vector":"1"}},{"base_weights":[2.0267081E-1,4.796238E-1,-6.184616E-1,7.16129E-1,2.5149697E-1,-3.1168836E-1,-2.066148E-1,-3.2511625E-8,7.5510204E-1,-3.658537E-1,3.0063963E-1,-1.7027028E-1,-6.1224528E-2,1.2857142E-1,-1.2857145E-1,2.7052024E-1,6.3898915E-1,-3.600001E-2,-1.4400001E-1,2.3478262E-1,2.127139E-1,3.1034475E-2,-6.206898E-2,4.394904E-1,2.511628E-1,3.3802813E-1,7.317069E-2,1.6179776E-1,8.181818E-2,-1.836736E-2,1.300578E-1,-2.4827601E-2,1.17391296E-1],"categories":[],"categories_nodes":[],"categories_segments":[],"categories_sizes":[],"default_left":[0,0,0,0,0,0,0,0,0,0,0,0,0,0,0,0,0,0,0,0,0,0,0,0,0,0,0,0,0,0,0,0,0],"id":2,"left_children":[1,3,5,7,9,11,-1,13,15,17,19,-1,21,-1,-1,-1,23,-1,-1,-1,25,-1,-1,27,-1,29,31,-1,-1,-1,-1,-1,-1],"loss_changes":[3.2463223E1,5.556917E0,5.636091E-1,1.4420013E0,1.7988195E0,5.1356363E-1,0E0,8.5714287E-1,2.5807E-1,7.0243835E-2,2.0418653E0,0E0,1.5200561E-1,0E0,0E0,0E0,8.4915257E-1,0E0,0E0,0E0,7.6994205E-1,0E0,0E0,1.433413E-1,0E0,9.288995E-1,1.1623067E0,0E0,0E0,0E0,0E0,0E0,0E0],"parents":[2147483647,0,0,1,1,2,2,3,3,4,4,5,5,7,7,8,8,9,9,10,10,12,12,16,16,20,20,23,23,25,25,26,26],"right_children":[2,4,6,8,10,12,-1,14,16,18,20,-1,22,-1,-1,-1,24,-1,-1,-1,26,-1,-1,28,-1,30,32,-1,-1,-1,-1,-1,-1],"split_conditions":[4.665359E-1,-6.3568336E-1,9.453688E-1,-8.7961715E-1,-6.176142E-1,7.285388E-1,-2.066148E-1,-8.976863E-1,-7.7120215E-1,-6.266488E-1,-5.724413E-1,-1.7027028E-1,8.2791924E-1,1.2857142E-1,-1.2857145E-1,2.7052024E-1,-6.989255E-1,-3.600001E-2,-1.4400001E-1,2.3478262E-1,-3.1947294E-1,3.1034475E-2,-6.206898E-2,-7.260292E-1,2.511628E-1,-5.4533756E-1,4.1910432E-2,1.6179776E-1,8.181818E-2,-1.836736E-2,1.300578E-1,-2.4827601E-2,1.17391296E-1],"split_indices":[0,0,0,0,0,0,0,0,0,0,0,0,0,0,0,0,0,0,0,0,0,0,0,0,0,0,0,0,0,0,0,0,0],"split_type":[0,0,0,0,0,0,0,0,0,0,0,0,0,0,0,0,0,0,0,0,0,0,0,0,0,0,0,0,0,0,0,0,0],"sum_hessian":[1.4044444E2,1.0533333E2,3.511111E1,5.0666664E1,5.4666664E1,7.5555553E0,2.7555553E1,2.6666665E0,4.7999996E1,3.5555553E0,5.1111107E1,3.111111E0,4.444444E0,1.3333333E0,1.3333333E0,1.8222221E1,2.9777777E1,1.7777777E0,1.7777777E0,6.666666E0,4.4444443E1,2.222222E0,2.222222E0,1.6444443E1,1.3333332E1,2.2666666E1,2.1777777E1,8.888888E0,7.5555553E0,4.444444E0,1.8222221E1,1.5111111E1,6.666666E0],"tree_param":{"num_deleted":"0","num_feature":"1","num_nodes":"33","size_leaf_vector":"1"}},{"base_weights":[-1.8392913E-1,-6.5289444E-1,2.7180973E-1,-2.0139627E-1,-3.870105E-1,-5.1710727E-3,-1.367347E-1],"categories":[],"categories_nodes":[],"categories_segments":[],"categories_sizes":[],"default_left":[0,0,0,0,0,0,0],"id":3,"left_children":[1,3,-1,-1,5,-1,-1],"loss_changes":[6.848452E1,1.9801712E-1,0E0,0E0,2.0620441E-1,0E0,0E0],"parents":[2147483647,0,0,1,1,4,4],"right_children":[2,4,-1,-1,6,-1,-1],"split_conditions":[4.665359E-1,2.3841264E-2,2.7180973E-1,-2.0139627E-1,4.1910432E-2,-5.1710727E-3,-1.367347E-1],"split_indices":[0,0,0,0,0,0,0],"split_type":[0,0,0,0,0,0,0],"sum_hessian":[1.3182288E2,9.2447525E1,3.937535E1,8.5029884E1,7.4176455E0,1.3593426E0,6.0583024E0],"tree_param":{"num_deleted":"0","num_feature":"1","num_nodes":"7","size_leaf_vector":"1"}},{"base_weights":[1.0532172E-2,1.962976E-1,-6.2327945E-1,2.3074837E-2,3.4632838E-1,-1.9493905E-1,-2.982852E-1,4.379371E-1,-1.0079048E-2,2.1306233E-1,3.0668285E-1,1.1999163E-2,-1.3671727E-1,-2.7172696E-3,2.0548262E-1,-2.8599584E-1,4.8121545E-2,-1.1529471E-1,3.6748967E-1,-3.431078E-2,-1.6036418E-1,1.2223848E-1,-1.0406747E-1,-6.268021E-2,2.107437E-2,4.1054186E-1,1.27662E-1,-2.8054075E-2,5.9175976E-3,-6.512373E-3,8.0284715E-2,-8.7867506E-2,-7.700767E-3,9.557589E-2,2.0902716E-1,-8.968951E-2,1.224304E-1],"categories":[],"categories_nodes":[],"categories_segments":[],"categories_sizes":[],"default_left":[0,0,0,0,0,0,0,0,0,0,0,0,0,0,0,0,0,0,0,0,0,0,0,0,0,0,0,0,0,0,0,0,0,0,0,0,0],"id":4,"left_children":[1,3,5,7,9,-1,11,13,15,-1,17,-1,-1,-1,-1,19,21,23,25,27,-1,29,31,-1,-1,33,35,-1,-1,-1,-1,-1,-1,-1,-1,-1,-1],"loss_changes":[1.649687E1,2.8068848E0,7.989788E-2,7.10582E-1,6.18474E-1,0E0,2.442916E-1,4.2817473E-1,7.929185E-1,0E0,1.4288416E0,0E0,0E0,0E0,0E0,5.193831E-1,4.743348E-1,1.461438E-1,4.3769693E-1,1.8926308E-2,0E0,5.9135294E-1,1.9888769E-1,0E0,0E0,8.253112E-1,1.1599698E0,0E0,0E0,0E0,0E0,0E0,0E0,0E0,0E0,0E0,0E0],"parents":[2147483647,0,0,1,1,2,2,3,3,4,4,6,6,7,7,8,8,10,10,15,15,16,16,17,17,18,18,19,19,21,21,22,22,25,25,26,26],"right_children":[2,4,6,8,10,-1,12,14,16,-1,18,-1,-1,-1,-1,20,22,24,26,28,-1,30,32,-1,-1,34,36,-1,-1,-1,-1,-1,-1,-1,-1,-1,-1],"split_conditions":[4.3943214E-1,-6.3568336E-1,2.6258016E0,-8.7961715E-1,-6.176142E-1,-1.9493905E-1,2.7071128E0,-8.976863E-1,-8.344442E-1,2.1306233E-1,-5.724413E-1,1.1999163E-2,-1.3671727E-1,-2.7172696E-3,2.0548262E-1,-8.434788E-1,-6.989255E-1,-5.905105E-1,2.3841264E-2,-8.5251343E-1,-1.6036418E-1,-7.53133E-1,-6.8989086E-1,-6.268021E-2,2.107437E-2,-1.65885E-1,7.8048766E-2,-2.8054075E-2,5.9175976E-3,-6.512373E-3,8.0284715E-2,-8.7867506E-2,-7.700767E-3,9.557589E-2,2.0902716E-1,-8.968951E-2,1.224304E-1],"split_indices":[0,0,0,0,0,0,0,0,0,0,0,0,0,0,0,0,0,0,0,0,0,0,0,0,0,0,0,0,0,0,0,0,0,0,0,0,0],"split_type":[0,0,0,0,0,0,0,0,0,0,0,0,0,0,0,0,0,0,0,0,0,0,0,0,0,0,0,0,0,0,0,0,0,0,0,0,0],"sum_hessian":[1.3807321E2,1.07311356E2,3.076186E1,5.0341637E1,5.696972E1,2.7517233E1,3.244627E0,2.8218572E0,4.751978E1,3.935401E0,5.3034317E1,1.2673907E0,1.9772363E0,1.3472053E0,1.4746518E0,7.5957856E0,3.9923996E1,6.5668244E0,4.6467495E1,4.3395586E0,3.256227E0,2.6980927E1,1.29430685E1,4.2804856E0,2.2863386E0,3.8792E1,7.675492E0,1.7221587E0,2.6174E0,1.3984623E1,1.2996304E1,2.9945855E0,9.948483E0,3.0958666E1,7.833336E0,3.018082E0,4.65741E0],"tree_param":{"num_deleted":"0","num_feature":"1","num_nodes":"37","size_leaf_vector":"1"}},{"base_weights":[1.6088836E-1,3.5791636E-1,-5.356692E-1,5.1773566E-1,1.9582248E-1,-2.3775055E-1,-1.8279958E-1,-1.3268107E-2,5.447461E-1,-3.2167637E-1,2.3413013E-1,-1.5057763E-1,-1.5048338E-3,1.03808634E-1,-1.1832606E-1,7.336275E-1,4.904224E-1,-2.7238037E-2,-1.3116412E-1,1.740231E-1,1.6758569E-1,4.2705007E-2,-4.4559397E-2,1.4115924E-1,2.6941285E-1,4.1745177E-1,1.791331E-1,2.609064E-1,6.005848E-2,1.5780807E-1,7.796542E-2,-2.0326395E-2,1.0116542E-1,-2.0304538E-2,9.2229486E-2],"categories":[],"categories_nodes":[],"categories_segments":[],"categories_sizes":[],"default_left":[0,0,0,0,0,0,0,0,0,0,0,0,0,0,0,0,0,0,0,0,0,0,0,0,0,0,0,0,0,0,0,0,0,0,0],"id":5,"left_children":[1,3,5,7,9,11,-1,13,15,17,19,-1,21,-1,-1,23,25,-1,-1,-1,27,-1,-1,-1,-1,29,-1,31,33,-1,-1,-1,-1,-1,-1],"loss_changes":[1.9781595E1,2.796606E0,5.546112E-1,8.0640316E-1,1.208195E0,4.959352E-1,0E0,6.3953245E-1,1.8451405E-1,7.6607585E-2,1.1409986E0,0E0,1.3121764E-1,0E0,0E0,2.7632713E-3,9.494877E-2,0E0,0E0,0E0,4.510939E-1,0E0,0E0,0E0,0E0,3.693409E-1,0E0,6.399317E-1,7.4481016E-1,0E0,0E0,0E0,0E0,0E0,0E0],"parents":[2147483647,0,0,1,1,2,2,3,3,4,4,5,5,7,7,8,8,9,9,10,10,12,12,15,15,16,16,20,20,25,25,27,27,28,28],"right_children":[2,4,6,8,10,12,-1,14,16,18,20,-1,22,-1,-1,24,26,-1,-1,-1,28,-1,-1,-1,-1,30,-1,32,34,-1,-1,-1,-1,-1,-1],"split_conditions":[4.665359E-1,-6.3568336E-1,9.453688E-1,-8.7961715E-1,-6.176142E-1,7.285388E-1,-1.8279958E-1,-8.976863E-1,-8.344442E-1,-6.266488E-1,-5.724413E-1,-1.5057763E-1,8.2791924E-1,1.03808634E-1,-1.1832606E-1,-8.434788E-1,-6.989255E-1,-2.7238037E-2,-1.3116412E-1,1.740231E-1,-3.1947294E-1,4.2705007E-2,-4.4559397E-2,1.4115924E-1,2.6941285E-1,-7.53133E-1,1.791331E-1,-5.4533756E-1,4.1910432E-2,1.5780807E-1,7.796542E-2,-2.0326395E-2,1.0116542E-1,-2.0304538E-2,9.2229486E-2],"split_indices":[0,0,0,0,0,0,0,0,0,0,0,0,0,0,0,0,0,0,0,0,0,0,0,0,0,0,0,0,0,0,0,0,0,0,0],"split_type":[0,0,0,0,0,0,0,0,0,0,0,0,0,0,0,0,0,0,0,0,0,0,0,0,0,0,0,0,0,0,0,0,0,0,0],"sum_hessian":[1.417403E2,1.1086673E2,3.0873558E1,5.472027E1,5.6146465E1,6.9584866E0,2.3915071E1,2.6733382E0,5.2046932E1,3.359929E0,5.2786533E1,2.7541492E0,4.204337E0,1.4235575E0,1.2497807E0,8.8323765E0,4.3214554E1,1.7162045E0,1.6437244E0,7.270743E0,4.5515793E1,2.1411667E0,2.0631707E0,4.8820233E0,3.9503534E0,2.857983E1,1.4634725E1,2.3603962E1,2.1911829E1,1.5535982E1,1.3043848E1,4.468978E0,1.9134985E1,1.4929056E1,6.982773E0],"tree_param":{"num_deleted":"0","num_feature":"1","num_nodes":"35","size_leaf_vector":"1"}},{"base_weights":[-1.7631279E-1,-6.059576E-1,7.107623E-1,-1.8772809E-1,-3.421378E-1,4.794863E-1,2.273026E-1,-9.270374E-3,-1.2109665E-1,1.780523E-1,5.246601E-2],"categories":[],"categories_nodes":[],"categories_segments":[],"categories_sizes":[],"default_left":[0,0,0,0,0,0,0,0,0,0,0],"id":6,"left_children":[1,3,5,-1,7,9,-1,-1,-1,-1,-1],"loss_changes":[4.5868538E1,2.0833206E-1,6.37722E-2,0E0,1.3786256E-1,2.2133303E-1,0E0,0E0,0E0,0E0,0E0],"parents":[2147483647,0,0,1,1,2,2,4,4,5,5],"right_children":[2,4,6,-1,8,10,-1,-1,-1,-1,-1],"split_conditions":[4.665359E-1,2.3841264E-2,9.453688E-1,-1.8772809E-1,4.1910432E-2,8.188847E-1,2.273026E-1,-9.270374E-3,-1.2109665E-1,1.780523E-1,5.246601E-2],"split_indices":[0,0,0,0,0,0,0,0,0,0,0],"split_type":[0,0,0,0,0,0,0,0,0,0,0],"sum_hessian":[1.1821962E2,7.985814E1,3.8361485E1,7.300628E1,6.8518605E0,8.3614025E0,3.0000082E1,1.3787352E0,5.473125E0,5.3938336E0,2.967569E0],"tree_param":{"num_deleted":"0","num_feature":"1","num_nodes":"11","size_leaf_vector":"1"}},{"base_weights":[1.6324695E-2,1.6090436E-1,-5.683748E-1,2.8429223E-2,2.720696E-1,-1.7956957E-1,-2.3954509E-1,3.6321178E-1,9.0562925E-4,1.6933179E-1,2.4058016E-1,2.2557037E-2,-1.21905446E-1,-3.443974E-3,1.7117406E-1,-2.4179685E-1,4.940676E-2,-1.7221947E-1,2.7724653E-1,-2.152517E-2,-1.4449E-1,1.0591052E-1,-7.1384996E-2,-1.7194463E-2,-6.303466E-2,3.0497706E-1,1.0813945E-1,-2.3397788E-2,7.984318E-3,-9.2710665E-4,6.3252665E-2,-4.26785E-2,3.1557567E-2,7.0187815E-2,1.6451432E-1,-8.235752E-2,1.0454885E-1],"categories":[],"categories_nodes":[],"categories_segments":[],"categories_sizes":[],"default_left":[0,0,0,0,0,0,0,0,0,0,0,0,0,0,0,0,0,0,0,0,0,0,0,0,0,0,0,0,0,0,0,0,0,0,0,0,0],"id":7,"left_children":[1,3,5,7,9,-1,11,13,15,-1,17,-1,-1,-1,-1,19,21,23,25,27,-1,29,31,-1,-1,33,35,-1,-1,-1,-1,-1,-1,-1,-1,-1,-1],"loss_changes":[1.146125E1,1.5917599E0,1.2351513E-1,4.6659335E-1,4.0683556E-1,0E0,2.3677203E-1,3.0546033E-1,5.749225E-1,0E0,8.794844E-1,0E0,0E0,0E0,0E0,4.194126E-1,2.8528216E-1,1.0163277E-2,2.054863E-1,1.644852E-2,0E0,3.2233867E-1,1.8473849E-1,0E0,0E0,6.173911E-1,8.9709365E-1,0E0,0E0,0E0,0E0,0E0,0E0,0E0,0E0,0E0,0E0],"parents":[2147483647,0,0,1,1,2,2,3,3,4,4,6,6,7,7,8,8,10,10,15,15,16,16,17,17,18,18,19,19,21,21,22,22,25,25,26,26],"right_children":[2,4,6,8,10,-1,12,14,16,-1,18,-1,-1,-1,-1,20,22,24,26,28,-1,30,32,-1,-1,34,36,-1,-1,-1,-1,-1,-1,-1,-1,-1,-1],"split_conditions":[4.3943214E-1,-6.3568336E-1,2.6258016E0,-8.7961715E-1,-6.176142E-1,-1.7956957E-1,2.7071128E0,-8.976863E-1,-8.344442E-1,1.6933179E-1,-5.905105E-1,2.2557037E-2,-1.21905446E-1,-3.443974E-3,1.7117406E-1,-8.434788E-1,-6.989255E-1,-6.0857964E-1,2.3841264E-2,-8.5251343E-1,-1.4449E-1,-7.53133E-1,-6.5375257E-1,-1.7194463E-2,-6.303466E-2,-1.65885E-1,7.8048766E-2,-2.3397788E-2,7.984318E-3,-9.2710665E-4,6.3252665E-2,-4.26785E-2,3.1557567E-2,7.0187815E-2,1.6451432E-1,-8.235752E-2,1.0454885E-1],"split_indices":[0,0,0,0,0,0,0,0,0,0,0,0,0,0,0,0,0,0,0,0,0,0,0,0,0,0,0,0,0,0,0,0,0,0,0,0,0],"split_type":[0,0,0,0,0,0,0,0,0,0,0,0,0,0,0,0,0,0,0,0,0,0,0,0,0,0,0,0,0,0,0,0,0,0,0,0,0],"sum_hessian":[1.3349704E2,1.0761236E2,2.5884687E1,4.9673E1,5.7939358E1,2.2956705E1,2.9279823E0,2.8470159E0,4.6825985E1,3.9879336E0,5.3951424E1,1.2045114E0,1.7234708E0,1.3508394E0,1.4961765E0,7.135274E0,3.9690712E1,4.099642E0,4.9851784E1,4.287384E0,2.8478894E0,2.7125288E1,1.2565422E1,1.6398567E0,2.459785E0,4.213839E1,7.713392E0,1.6876471E0,2.5997372E0,1.3780715E1,1.3344573E1,9.105056E0,3.460367E0,3.4138916E1,7.999474E0,2.9209232E0,4.792469E0],"tree_param":{"num_deleted":"0","num_feature":"1","num_nodes":"37","size_leaf_vector":"1"}},{"base_weights":[1.3445967E-1,2.7999684E-1,-4.7025928E-1,3.6509174E-1,1.05924584E-1,-1.715641E-1,-1.655333E-1,3.420313E-1,2.4714904E-1,-1.1108726E-1,1.3642791E-1,-1.3499911E-1,5.2344758E-2,3.737628E-1,5.557749E-3,4.1550815E-2,-8.782714E-2,2.2936456E-1,1.7589435E-2,5.2873477E-2,-2.894541E-2,-2.0492785E-2,3.9001626E-1,-6.6463076E-2,4.1550815E-2,1.22393586E-1,2.1617652E-1,-1.9352856E-1,2.484285E-1,8.501373E-2,-1.0816675E-1,1.7341642E-1,1.04888104E-1,-1.1477211E-3,-2.5761677E-2,7.411059E-2,-9.791658E-2,-6.7101456E-2,-4.0090866E-3,2.2660117E-1,-1.0546355E-2],"categories":[],"categories_nodes":[],"categories_segments":[],"categories_sizes":[],"default_left":[0,0,0,0,0,0,0,0,0,0,0,0,0,0,0,0,0,0,0,0,0,0,0,0,0,0,0,0,0,0,0,0,0,0,0,0,0,0,0,0,0],"id":8,"left_children":[1,3,5,7,9,11,-1,13,-1,15,17,-1,19,21,23,-1,-1,25,27,-1,-1,29,31,33,-1,35,-1,37,39,-1,-1,-1,-1,-1,-1,-1,-1,-1,-1,-1,-1],"loss_changes":[1.245292E1,1.6421051E0,5.7568645E-1,5.2013206E-1,2.7110207E-1,4.820223E-1,0E0,7.867842E-1,0E0,2.8160024E-1,3.753299E-1,0E0,1.0868549E-1,4.4055462E-1,7.989101E-2,0E0,0E0,9.202782E-1,8.354738E-1,0E0,0E0,4.765342E-1,2.9064465E-1,6.314462E-3,0E0,1.0295776E0,0E0,4.5892954E-2,1.1989654E0,0E0,0E0,0E0,0E0,0E0,0E0,0E0,0E0,0E0,0E0,0E0,0E0],"parents":[2147483647,0,0,1,1,2,2,3,3,4,4,5,5,7,7,9,9,10,10,12,12,13,13,14,14,17,17,18,18,21,21,22,22,23,23,25,25,27,27,28,28],"right_children":[2,4,6,8,10,12,-1,14,-1,16,18,-1,20,22,24,-1,-1,26,28,-1,-1,30,32,34,-1,36,-1,38,40,-1,-1,-1,-1,-1,-1,-1,-1,-1,-1,-1,-1],"split_conditions":[4.665359E-1,-5.001646E-1,9.453688E-1,-5.2726835E-1,-4.549917E-1,7.285388E-1,-1.655333E-1,-5.724413E-1,2.4714904E-1,-4.7306088E-1,-1.65885E-1,-1.3499911E-1,8.2791924E-1,-8.7961715E-1,-5.4533756E-1,4.1550815E-2,-8.782714E-2,-2.291271E-1,4.1910432E-2,5.2873477E-2,-2.894541E-2,-8.976863E-1,-8.344442E-1,-5.5437213E-1,4.1550815E-2,-3.1043836E-1,2.1617652E-1,2.3841264E-2,7.8048766E-2,8.501373E-2,-1.0816675E-1,1.7341642E-1,1.04888104E-1,-1.1477211E-3,-2.5761677E-2,7.411059E-2,-9.791658E-2,-6.7101456E-2,-4.0090866E-3,2.2660117E-1,-1.0546355E-2],"split_indices":[0,0,0,0,0,0,0,0,0,0,0,0,0,0,0,0,0,0,0,0,0,0,0,0,0,0,0,0,0,0,0,0,0,0,0,0,0,0,0,0,0],"split_type":[0,0,0,0,0,0,0,0,0,0,0,0,0,0,0,0,0,0,0,0,0,0,0,0,0,0,0,0,0,0,0,0,0,0,0,0,0,0,0,0,0],"sum_hessian":[1.3899974E2,1.1246893E2,2.6530817E1,7.4803856E1,3.7665073E1,6.3538795E0,2.0176937E1,7.2885544E1,1.9183135E0,4.3162055E0,3.334887E1,2.382047E0,3.9718325E0,6.6503075E1,6.3824673E0,1.9183135E0,2.397892E0,1.8191952E1,1.5156918E1,2.0669198E0,1.9049127E0,2.622762E0,6.3880314E1,4.464154E0,1.9183135E0,1.5964595E1,2.2273567E0,8.001047E0,7.155871E0,1.473112E0,1.1496499E0,8.941186E0,5.493913E1,1.339246E0,3.1249075E0,1.2846295E1,3.1182995E0,6.647404E0,1.3536427E0,1.9703295E0,5.185541E0],"tree_param":{"num_deleted":"0","num_feature":"1","num_nodes":"41","size_leaf_vector":"1"}},{"base_weights":[-1.754974E-1,-5.721494E-1,5.958324E-1,-1.7541431E-1,-1.8193784E-1,3.938565E-1,1.9183567E-1,2.7388653E-2,-1.10600606E-1,1.7158365E-1,2.0121033E-1,1.1435726E-2,9.200007E-2],"categories":[],"categories_nodes":[],"categories_segments":[],"categories_sizes":[],"default_left":[0,0,0,0,0,0,0,0,0,0,0,0,0],"id":9,"left_children":[1,3,5,-1,7,9,-1,-1,-1,-1,11,-1,-1],"loss_changes":[3.230675E1,2.3441696E-1,6.506634E-2,0E0,2.1835873E-1,1.9343829E-1,0E0,0E0,0E0,0E0,8.913924E-2,0E0,0E0],"parents":[2147483647,0,0,1,1,2,2,4,4,5,5,10,10],"right_children":[2,4,6,-1,8,10,-1,-1,-1,-1,12,-1,-1],"split_conditions":[4.665359E-1,1.5936002E-1,9.453688E-1,-1.7541431E-1,3.0391338E-1,7.285388E-1,1.9183567E-1,2.7388653E-2,-1.10600606E-1,1.7158365E-1,8.2791924E-1,1.1435726E-2,9.200007E-2],"split_indices":[0,0,0,0,0,0,0,0,0,0,0,0,0],"split_type":[0,0,0,0,0,0,0,0,0,0,0,0,0],"sum_hessian":[1.03480774E2,6.850876E1,3.4972015E1,6.588867E1,2.6200893E0,7.9926047E0,2.6979412E1,1.2711573E0,1.348932E0,3.1301196E0,4.862485E0,2.4440958E0,2.4183893E0],"tree_param":{"num_deleted":"0","num_feature":"1","num_nodes":"13","size_leaf_vector":"1"}},{"base_weights":[2.1845143E-2,1.3589898E-1,-5.265326E-1,2.9233528E-2,2.1296273E-1,-1.687268E-1,-1.835126E-1,5.3770825E-2,-2.5637406E-1,3.475005E-1,1.8860602E-1,3.287074E-2,-1.088905E-1,3.0843046E-1,2.880466E-2,-1.1504348E-1,-1.5390168E-2,1.0292884E-1,1.4966694E-1,-1.4829664E-1,2.177214E-1,-3.1516983E-3,1.4680225E-1,-1.9453989E-1,7.798359E-2,3.906315E-2,6.1856764E-3,-1.3458741E-2,-5.533502E-2,1.13735296E-1,2.504597E-1,3.3960778E-3,-1.3270183E-1,3.6564562E-2,-1.407882E-3,8.2170434E-2,-7.460703E-2,1.5574504E-1,6.517497E-2],"categories":[],"categories_nodes":[],"categories_segments":[],"categories_sizes":[],"default_left":[0,0,0,0,0,0,0,0,0,0,0,0,0,0,0,0,0,0,0,0,0,0,0,0,0,0,0,0,0,0,0,0,0,0,0,0,0,0,0],"id":10,"left_children":[1,3,5,7,9,-1,11,13,15,17,19,-1,-1,21,23,-1,-1,25,-1,27,29,-1,-1,31,33,-1,-1,-1,-1,35,37,-1,-1,-1,-1,-1,-1,-1,-1],"loss_changes":[8.161762E0,8.8051057E-1,1.7349243E-1,3.3900326E-1,1.3916206E-1,0E0,2.2980902E-1,2.6807466E-1,8.054584E-2,2.5924683E-1,5.725677E-1,0E0,0E0,2.2360873E-1,4.6303943E-1,0E0,0E0,7.346615E-3,0E0,1.0333717E-2,1.4548755E-1,0E0,0E0,3.949613E-1,1.2444505E-1,0E0,0E0,0E0,0E0,8.847672E-1,2.2660804E-1,0E0,0E0,0E0,0E0,0E0,0E0,0E0,0E0],"parents":[2147483647,0,0,1,1,2,2,3,3,4,4,6,6,7,7,8,8,9,9,10,10,13,13,14,14,17,17,19,19,20,20,23,23,24,24,29,29,30,30],"right_children":[2,4,6,8,10,-1,12,14,16,18,20,-1,-1,22,24,-1,-1,26,-1,28,30,-1,-1,32,34,-1,-1,-1,-1,36,38,-1,-1,-1,-1,-1,-1,-1,-1],"split_conditions":[4.3943214E-1,-6.5375257E-1,2.6258016E0,-6.718217E-1,-6.176142E-1,-1.687268E-1,2.7071128E0,-8.7961715E-1,-6.6278714E-1,-6.3568336E-1,-5.905105E-1,3.287074E-2,-1.088905E-1,-8.976863E-1,-8.344442E-1,-1.1504348E-1,-1.5390168E-2,-6.44718E-1,1.4966694E-1,-6.0857964E-1,-4.7306088E-1,-3.1516983E-3,1.4680225E-1,-8.434788E-1,-7.1699464E-1,3.906315E-2,6.1856764E-3,-1.3458741E-2,-5.533502E-2,-5.2726835E-1,-4.549917E-1,3.3960778E-3,-1.3270183E-1,3.6564562E-2,-1.407882E-3,8.2170434E-2,-7.460703E-2,1.5574504E-1,6.517497E-2],"split_indices":[0,0,0,0,0,0,0,0,0,0,0,0,0,0,0,0,0,0,0,0,0,0,0,0,0,0,0,0,0,0,0,0,0,0,0,0,0,0,0],"split_type":[0,0,0,0,0,0,0,0,0,0,0,0,0,0,0,0,0,0,0,0,0,0,0,0,0,0,0,0,0,0,0,0,0,0,0,0,0,0,0],"sum_hessian":[1.2835104E2,1.0687493E2,2.1476105E1,4.5406395E1,6.146854E1,1.8862867E1,2.613237E0,4.256155E1,2.844843E0,7.3887234E0,5.4079815E1,1.1403263E0,1.4729106E0,2.786347E0,3.9775204E1,1.2192184E0,1.6256245E0,3.4672403E0,3.921483E0,3.976233E0,5.0103584E1,1.3493817E0,1.4369652E0,6.644348E0,3.3130856E1,2.167025E0,1.3002151E0,1.6102455E0,2.3659878E0,1.3068472E1,3.703511E1,4.150569E0,2.4937794E0,2.1330774E1,1.1800081E1,9.232583E0,3.8358884E0,2.4643543E0,3.457076E1],"tree_param":{"num_deleted":"0","num_feature":"1","num_nodes":"39","size_leaf_vector":"1"}},{"base_weights":[1.14181995E-1,2.2373563E-1,-4.164172E-1,2.8675872E-1,9.39596E-2,-1.3575791E-1,-1.5126973E-1,2.653248E-1,2.1591938E-1,-1.04002796E-1,1.2185712E-1,-1.2335453E-1,6.348769E-2,3.1856954E-1,1.2570351E-1,3.6063075E-2,-8.075531E-2,1.1336617E-1,8.5863255E-2,5.5860184E-2,-2.6490351E-2,-2.5017614E-2,3.3644393E-1,-4.1001793E-2,2.0899644E-1,-1.5344386E-1,1.3227795E-1,7.019443E-2,-9.871722E-2,1.3911264E-1,8.962315E-2,5.142456E-2,-8.5593835E-2,1.0992652E-1,2.2157341E-4,9.772112E-2,1.651407E-2],"categories":[],"categories_nodes":[],"categories_segments":[],"categories_sizes":[],"default_left":[0,0,0,0,0,0,0,0,0,0,0,0,0,0,0,0,0,0,0,0,0,0,0,0,0,0,0,0,0,0,0,0,0,0,0,0,0],"id":11,"left_children":[1,3,5,7,9,11,-1,13,-1,15,17,-1,19,21,23,-1,-1,-1,25,-1,-1,27,29,31,33,-1,35,-1,-1,-1,-1,-1,-1,-1,-1,-1,-1],"loss_changes":[7.9893837E0,8.992562E-1,5.1311207E-1,5.119095E-1,2.253218E-1,4.0980482E-1,0E0,5.082154E-1,0E0,2.2848232E-1,2.8280848E-1,0E0,1.08145535E-1,3.3230114E-1,3.1421217E-1,0E0,0E0,0E0,9.3509626E-1,0E0,0E0,3.5565037E-1,1.0231924E-1,4.72884E-1,4.8632812E-1,0E0,4.2769283E-1,0E0,0E0,0E0,0E0,0E0,0E0,0E0,0E0,0E0,0E0],"parents":[2147483647,0,0,1,1,2,2,3,3,4,4,5,5,7,7,9,9,10,10,12,12,13,13,14,14,18,18,21,21,22,22,23,23,24,24,26,26],"right_children":[2,4,6,8,10,12,-1,14,-1,16,18,-1,20,22,24,-1,-1,-1,26,-1,-1,28,30,32,34,-1,36,-1,-1,-1,-1,-1,-1,-1,-1,-1,-1],"split_conditions":[4.665359E-1,-5.001646E-1,9.453688E-1,-5.2726835E-1,-4.549917E-1,7.285388E-1,-1.5126973E-1,-6.5375257E-1,2.1591938E-1,-4.7306088E-1,-4.2788795E-1,-1.2335453E-1,8.2791924E-1,-8.7961715E-1,-6.176142E-1,3.6063075E-2,-8.075531E-2,1.1336617E-1,-4.0981877E-1,5.5860184E-2,-2.6490351E-2,-8.976863E-1,-8.344442E-1,-6.3568336E-1,-5.724413E-1,-1.5344386E-1,-3.1947294E-1,7.019443E-2,-9.871722E-2,1.3911264E-1,8.962315E-2,5.142456E-2,-8.5593835E-2,1.0992652E-1,2.2157341E-4,9.772112E-2,1.651407E-2],"split_indices":[0,0,0,0,0,0,0,0,0,0,0,0,0,0,0,0,0,0,0,0,0,0,0,0,0,0,0,0,0,0,0,0,0,0,0,0,0],"split_type":[0,0,0,0,0,0,0,0,0,0,0,0,0,0,0,0,0,0,0,0,0,0,0,0,0,0,0,0,0,0,0,0,0,0,0,0,0],"sum_hessian":[1.3483937E2,1.1224277E2,2.2596603E1,7.473809E1,3.750468E1,5.991999E0,1.6604605E1,7.274949E1,1.9886012E0,4.2955055E0,3.3209175E1,2.0686886E0,3.9233103E0,5.1737625E1,2.1011864E1,1.9376477E0,2.3578577E0,2.9224772E0,3.0286697E1,2.044078E0,1.8792322E0,2.538682E0,4.9198944E1,7.1697745E0,1.384209E1,1.4612386E0,2.8825459E1,1.495312E0,1.04337E0,8.66121E0,4.053773E1,3.9948297E0,3.1749449E0,7.4506035E0,6.391486E0,7.306193E0,2.1519266E1],"tree_param":{"num_deleted":"0","num_feature":"1","num_nodes":"37","size_leaf_vector":"1"}},{"base_weights":[-1.7773697E-1,-5.447827E-1,5.166165E-1,-1.7138118E-1,-2.574683E-1,3.3335721E-1,1.6791356E-1,-8.508343E-2,-1.2864316E-1,1.3422854E-1,2.2757052E-2,-1.9996321E-1,4.2992413E-2,6.4529027E-3,-1.01700924E-1],"categories":[],"categories_nodes":[],"categories_segments":[],"categories_sizes":[],"default_left":[0,0,0,0,0,0,0,0,0,0,0,0,0,0,0],"id":12,"left_children":[1,3,5,-1,7,9,-1,11,-1,-1,-1,13,-1,-1,-1],"loss_changes":[2.3343819E1,3.0713272E-1,6.4608574E-2,0E0,1.6609102E-1,2.1656251E-1,0E0,1.5108967E-1,0E0,0E0,0E0,1.1575198E-1,0E0,0E0,0E0],"parents":[2147483647,0,0,1,1,2,2,4,4,5,5,7,7,11,11],"right_children":[2,4,6,-1,8,10,-1,12,-1,-1,-1,14,-1,-1,-1],"split_conditions":[4.665359E-1,2.3841264E-2,9.453688E-1,-1.7138118E-1,2.0453295E-1,8.188847E-1,1.6791356E-1,7.8048766E-2,-1.2864316E-1,1.3422854E-1,2.2757052E-2,4.1910432E-2,4.2992413E-2,6.4529027E-3,-1.01700924E-1],"split_indices":[0,0,0,0,0,0,0,0,0,0,0,0,0,0,0],"split_type":[0,0,0,0,0,0,0,0,0,0,0,0,0,0,0],"sum_hessian":[8.949055E1,5.8684467E1,3.0806082E1,5.282605E1,5.858417E0,7.528226E0,2.3277855E1,3.6663375E0,2.1920795E0,4.705938E0,2.822288E0,2.52217E0,1.1441674E0,1.29874E0,1.22343E0],"tree_param":{"num_deleted":"0","num_feature":"1","num_nodes":"15","size_leaf_vector":"1"}},{"base_weights":[2.6425958E-2,1.1653876E-1,-4.9147877E-1,3.8216066E-2,1.7211756E-1,-1.6040681E-1,-1.32179E-1,6.0693245E-2,-2.3076814E-1,1.5825094E-1,1.1838921E-1,4.1965276E-2,-9.759346E-2,-1.1805155E-3,1.2920399E-1,-1.0719335E-1,-1.1189672E-2,1.8632661E-1,-1.505859E-1,2.428814E-1,-6.12327E-2,2.915485E-1,7.6694125E-3,1.4850205E-1,3.452186E-1,-1.277671E-1,6.7536645E-2,-2.3199636E-3,1.0235302E-1,-6.426982E-2,1.7141693E-3,2.9044366E-2,1.689652E-1,-2.1730136E-2,5.596822E-2,5.5914667E-2,-1.1259378E-1,1.1678153E-1,8.251872E-3,7.334471E-2,-4.1173376E-2],"categories":[],"categories_nodes":[],"categories_segments":[],"categories_sizes":[],"default_left":[0,0,0,0,0,0,0,0,0,0,0,0,0,0,0,0,0,0,0,0,0,0,0,0,0,0,0,0,0,0,0,0,0,0,0,0,0,0,0,0,0],"id":13,"left_children":[1,3,5,7,9,-1,11,13,15,17,-1,-1,-1,19,21,-1,-1,23,25,27,29,31,33,35,37,-1,39,-1,-1,-1,-1,-1,-1,-1,-1,-1,-1,-1,-1,-1,-1],"loss_changes":[5.8735046E0,4.5904064E-1,2.1906376E-1,2.9020423E-1,1.2971509E-1,0E0,2.2057334E-1,1.8222474E-1,7.802157E-2,5.50874E-1,0E0,0E0,0E0,3.601766E-1,4.001004E-1,0E0,0E0,2.836038E-1,3.6370182E-1,1.2220374E-1,2.0307201E-1,4.0589172E-1,1.9533738E-1,9.9776995E-1,1.2867582E-1,0E0,1.7759383E-1,0E0,0E0,0E0,0E0,0E0,0E0,0E0,0E0,0E0,0E0,0E0,0E0,0E0,0E0],"parents":[2147483647,0,0,1,1,2,2,3,3,4,4,6,6,7,7,8,8,9,9,13,13,14,14,17,17,18,18,19,19,20,20,21,21,22,22,23,23,24,24,26,26],"right_children":[2,4,6,8,10,-1,12,14,16,18,-1,-1,-1,20,22,-1,-1,24,26,28,30,32,34,36,38,-1,40,-1,-1,-1,-1,-1,-1,-1,-1,-1,-1,-1,-1,-1,-1],"split_conditions":[4.3943214E-1,-6.5375257E-1,2.6258016E0,-6.718217E-1,2.6777503E-1,-1.6040681E-1,2.7071128E0,-7.53133E-1,-6.6278714E-1,4.1910432E-2,1.1838921E-1,4.1965276E-2,-9.759346E-2,-8.61548E-1,-7.1699464E-1,-1.0719335E-1,-1.1189672E-2,-1.65885E-1,7.8048766E-2,-8.976863E-1,-8.344442E-1,-7.260292E-1,-6.8989086E-1,-2.291271E-1,2.3841264E-2,-1.277671E-1,1.5936002E-1,-2.3199636E-3,1.0235302E-1,-6.426982E-2,1.7141693E-3,2.9044366E-2,1.689652E-1,-2.1730136E-2,5.596822E-2,5.5914667E-2,-1.1259378E-1,1.1678153E-1,8.251872E-3,7.334471E-2,-4.1173376E-2],"split_indices":[0,0,0,0,0,0,0,0,0,0,0,0,0,0,0,0,0,0,0,0,0,0,0,0,0,0,0,0,0,0,0,0,0,0,0,0,0,0,0,0,0],"split_type":[0,0,0,0,0,0,0,0,0,0,0,0,0,0,0,0,0,0,0,0,0,0,0,0,0,0,0,0,0,0,0,0,0,0,0,0,0,0,0,0,0],"sum_hessian":[1.2362496E2,1.0596293E2,1.7662033E1,4.4682747E1,6.128018E1,1.5330226E1,2.3318076E0,4.1951508E1,2.7312403E0,5.929615E1,1.9840302E0,1.0825466E0,1.2492609E0,2.2559885E1,1.9391623E1,1.1392348E0,1.5920056E0,5.47185E1,4.577654E0,3.8536234E0,1.870626E1,7.7030644E0,1.1688559E1,4.5759876E1,8.958622E0,1.6025103E0,2.9751434E0,1.3452047E0,2.5084186E0,5.0241027E0,1.3682158E1,5.276911E0,2.4261537E0,8.484501E0,3.2040577E0,4.3274612E1,2.4852638E0,7.6699004E0,1.2887218E0,1.4920415E0,1.4831018E0],"tree_param":{"num_deleted":"0","num_feature":"1","num_nodes":"41","size_leaf_vector":"1"}},{"base_weights":[9.738807E-2,1.8063089E-1,-3.6927038E-1,2.3054194E-1,7.95308E-2,-1.1041132E-1,-1.3891068E-1,2.1158773E-1,1.8415967E-1,-9.7641595E-2,1.0423749E-1,-2.7654898E-1,4.511274E-2,2.3117696E-1,6.837764E-3,2.1896748E-2,-6.701932E-2,9.963547E-2,7.21113E-2,-1.1228812E-1,-2.1653373E-2,-8.4111495E-3,2.4153152E-1,-5.8236E-2,3.7517026E-2,-1.4240512E-1,1.1381469E-1,9.407206E-2,5.7036854E-2,-8.206228E-4,-2.2708418E-2,8.39404E-2,1.4081752E-2],"categories":[],"categories_nodes":[],"categories_segments":[],"categories_sizes":[],"default_left":[0,0,0,0,0,0,0,0,0,0,0,0,0,0,0,0,0,0,0,0,0,0,0,0,0,0,0,0,0,0,0,0,0],"id":14,"left_children":[1,3,5,7,9,11,-1,13,-1,15,17,19,-1,21,23,-1,-1,-1,25,-1,-1,-1,27,29,-1,-1,31,-1,-1,-1,-1,-1,-1],"loss_changes":[5.168424E0,5.474386E-1,4.39394E-1,4.116783E-1,1.7907614E-1,3.313062E-1,0E0,2.8941798E-1,0E0,1.2871185E-1,2.2749677E-1,6.1617017E-2,0E0,1.8441963E-1,6.394689E-2,0E0,0E0,0E0,7.6958466E-1,0E0,0E0,0E0,1.764791E-1,5.0573237E-3,0E0,0E0,3.1946507E-1,0E0,0E0,0E0,0E0,0E0,0E0],"parents":[2147483647,0,0,1,1,2,2,3,3,4,4,5,5,7,7,9,9,10,10,11,11,13,13,14,14,18,18,22,22,23,23,26,26],"right_children":[2,4,6,8,10,12,-1,14,-1,16,18,20,-1,22,24,-1,-1,-1,26,-1,-1,-1,28,30,-1,-1,32,-1,-1,-1,-1,-1,-1],"split_conditions":[4.665359E-1,-5.001646E-1,9.453688E-1,-5.2726835E-1,-4.549917E-1,8.188847E-1,-1.3891068E-1,-5.724413E-1,1.8415967E-1,-4.7306088E-1,-4.2788795E-1,7.285388E-1,4.511274E-2,-8.7961715E-1,-5.4533756E-1,2.1896748E-2,-6.701932E-2,9.963547E-2,-4.0981877E-1,-1.1228812E-1,-2.1653373E-2,-8.4111495E-3,-7.53133E-1,-5.5437213E-1,3.7517026E-2,-1.4240512E-1,-3.1947294E-1,9.407206E-2,5.7036854E-2,-8.206228E-4,-2.2708418E-2,8.39404E-2,1.4081752E-2],"split_indices":[0,0,0,0,0,0,0,0,0,0,0,0,0,0,0,0,0,0,0,0,0,0,0,0,0,0,0,0,0,0,0,0,0],"split_type":[0,0,0,0,0,0,0,0,0,0,0,0,0,0,0,0,0,0,0,0,0,0,0,0,0,0,0,0,0,0,0,0,0],"sum_hessian":[1.3033209E2,1.11122856E2,1.920924E1,7.353821E1,3.7584644E1,5.686889E0,1.352235E1,7.155215E1,1.9860623E0,4.238464E0,3.334618E1,3.4369183E0,2.2499707E0,6.518644E1,6.3657126E0,1.9764023E0,2.2620614E0,2.966435E0,3.0379745E1,1.7625164E0,1.6744019E0,2.438319E0,6.2748116E1,4.4329686E0,1.9327437E0,1.4170946E0,2.8962652E1,2.4006618E1,3.8741497E1,1.337569E0,3.0953999E0,7.4033766E0,2.1559275E1],"tree_param":{"num_deleted":"0","num_feature":"1","num_nodes":"33","size_leaf_vector":"1"}},{"base_weights":[-1.8372257E-1,-5.236869E-1,4.5309737E-1,-1.6608112E-1,-2.3697497E-1,2.791731E-1,4.9909088E-1,-7.787912E-2,-1.2120064E-1,1.3615778E-1,1.2435658E-1,1.5792513E-1,2.5157705E-1,-1.9020253E-1,4.174904E-2,-7.95359E-3,7.200415E-2,-1.0893492E-2,1.2034462E-1,6.8805967E-3,-9.8417826E-2],"categories":[],"categories_nodes":[],"categories_segments":[],"categories_sizes":[],"default_left":[0,0,0,0,0,0,0,0,0,0,0,0,0,0,0,0,0,0,0,0,0],"id":15,"left_children":[1,3,5,-1,7,9,11,13,-1,-1,15,-1,17,19,-1,-1,-1,-1,-1,-1,-1],"loss_changes":[1.7141441E1,3.0942822E-1,8.234453E-2,0E0,1.4397529E-1,1.616733E-1,7.2107315E-3,1.391028E-1,0E0,0E0,1.0500443E-1,0E0,1.8543556E-1,1.0939446E-1,0E0,0E0,0E0,0E0,0E0,0E0,0E0],"parents":[2147483647,0,0,1,1,2,2,4,4,5,5,6,6,7,7,10,10,12,12,13,13],"right_children":[2,4,6,-1,8,10,12,14,-1,-1,16,-1,18,20,-1,-1,-1,-1,-1,-1,-1],"split_conditions":[4.665359E-1,2.3841264E-2,9.453688E-1,-1.6608112E-1,2.0453295E-1,7.285388E-1,2.6258016E0,7.8048766E-2,-1.2120064E-1,1.3615778E-1,8.2791924E-1,1.5792513E-1,2.7071128E0,4.1910432E-2,4.174904E-2,-7.95359E-3,7.200415E-2,-1.0893492E-2,1.2034462E-1,6.8805967E-3,-9.8417826E-2],"split_indices":[0,0,0,0,0,0,0,0,0,0,0,0,0,0,0,0,0,0,0,0,0],"split_type":[0,0,0,0,0,0,0,0,0,0,0,0,0,0,0,0,0,0,0,0,0],"sum_hessian":[7.708068E1,5.0369003E1,2.6711681E1,4.4766945E1,5.6020565E0,7.06505E0,1.9646631E1,3.6201124E0,1.9819442E0,2.4119492E0,4.653101E0,1.6678465E1,2.9681668E0,2.4670386E0,1.1530738E0,2.3536563E0,2.2994447E0,1.2737465E0,1.6944203E0,1.2963722E0,1.1706665E0],"tree_param":{"num_deleted":"0","num_feature":"1","num_nodes":"21","size_leaf_vector":"1"}},{"base_weights":[3.0429814E-2,1.0175421E-1,-4.599996E-1,6.189599E-2,1.6646498E-1,-1.5364093E-1,-8.5232794E-2,8.306666E-2,-1.3994446E-1,1.9681089E-1,3.6847994E-2,4.9833704E-2,-8.762448E-2,4.9541842E-2,1.697268E-1,1.5592237E-1,1.20579354E-1,-2.5101304E-1,2.1414007E-1,2.0900178E-1,3.12914E-2,3.9012453E-1,8.5729316E-2,2.1386024E-1,-4.5468688E-2,8.452047E-3,-1.2145308E-1,6.3034736E-2,1.02899455E-1,-5.93208E-3,9.15194E-2,-5.2861575E-2,1.8016184E-2,4.9633835E-2,1.443079E-1,-3.9738543E-2,5.4289963E-2,3.597634E-2,1.345633E-1,-1.04720876E-1,5.659985E-2,6.870025E-2,-3.887455E-2],"categories":[],"categories_nodes":[],"categories_segments":[],"categories_sizes":[],"default_left":[0,0,0,0,0,0,0,0,0,0,0,0,0,0,0,0,0,0,0,0,0,0,0,0,0,0,0,0,0,0,0,0,0,0,0,0,0,0,0,0,0,0,0],"id":16,"left_children":[1,3,5,7,9,-1,11,13,-1,15,17,-1,-1,19,21,23,-1,25,27,29,31,33,35,37,39,-1,-1,41,-1,-1,-1,-1,-1,-1,-1,-1,-1,-1,-1,-1,-1,-1,-1],"loss_changes":[4.2605805E0,2.6306593E-1,2.58739E-1,7.902387E-1,1.4932275E-1,0E0,2.0915404E-1,1.8171611E-1,0E0,2.0592618E-1,5.0194496E-1,0E0,0E0,1.3489409E-1,2.9686582E-1,3.403542E-1,0E0,1.7493242E-1,9.470743E-2,1.1184937E-1,2.7786002E-1,1.52208805E-2,3.1905302E-1,4.352064E-1,5.7448614E-1,0E0,0E0,1.567455E-1,0E0,0E0,0E0,0E0,0E0,0E0,0E0,0E0,0E0,0E0,0E0,0E0,0E0,0E0,0E0],"parents":[2147483647,0,0,1,1,2,2,3,3,4,4,6,6,7,7,9,9,10,10,13,13,14,14,15,15,17,17,18,18,19,19,20,20,21,21,22,22,23,23,24,24,27,27],"right_children":[2,4,6,8,10,-1,12,14,-1,16,18,-1,-1,20,22,24,-1,26,28,30,32,34,36,38,40,-1,-1,42,-1,-1,-1,-1,-1,-1,-1,-1,-1,-1,-1,-1,-1,-1,-1],"split_conditions":[4.3943214E-1,-5.001646E-1,2.6258016E0,-5.2726835E-1,2.3841264E-2,-1.5364093E-1,2.7071128E0,-6.3568336E-1,-1.3994446E-1,-6.6504575E-2,7.8048766E-2,4.9833704E-2,-8.762448E-2,-8.61548E-1,-6.176142E-1,-2.291271E-1,1.20579354E-1,4.1910432E-2,2.6777503E-1,-8.976863E-1,-8.344442E-1,-6.266488E-1,-5.905105E-1,-3.1947294E-1,-1.65885E-1,8.452047E-3,-1.2145308E-1,1.5936002E-1,1.02899455E-1,-5.93208E-3,9.15194E-2,-5.2861575E-2,1.8016184E-2,4.9633835E-2,1.443079E-1,-3.9738543E-2,5.4289963E-2,3.597634E-2,1.345633E-1,-1.04720876E-1,5.659985E-2,6.870025E-2,-3.887455E-2],"split_indices":[0,0,0,0,0,0,0,0,0,0,0,0,0,0,0,0,0,0,0,0,0,0,0,0,0,0,0,0,0,0,0,0,0,0,0,0,0,0,0,0,0,0,0],"split_type":[0,0,0,0,0,0,0,0,0,0,0,0,0,0,0,0,0,0,0,0,0,0,0,0,0,0,0,0,0,0,0,0,0,0,0,0,0,0,0,0,0,0,0],"sum_hessian":[1.1946381E2,1.0498771E2,1.4476109E1,6.618063E1,3.880707E1,1.2386393E1,2.0897162E0,6.444143E1,1.7392056E0,3.1025084E1,7.781989E0,1.0322961E0,1.0574203E0,4.7599182E1,1.6842247E1,2.7336082E1,3.6890018E0,2.8076005E0,4.9743886E0,3.8149428E0,4.378424E1,3.641908E0,1.3200338E1,2.118072E1,6.155362E0,1.2875978E0,1.5200027E0,2.974971E0,1.9994174E0,1.363028E0,2.4519145E0,4.7062864E0,3.9077953E1,1.8613454E0,1.7805625E0,3.892242E0,9.308097E0,1.6205133E1,4.975586E0,2.4663603E0,3.6890018E0,1.4965713E0,1.4783999E0],"tree_param":{"num_deleted":"0","num_feature":"1","num_nodes":"43","size_leaf_vector":"1"}},{"base_weights":[8.3942086E-2,1.3561456E-1,-4.2467177E-1,1.7223743E-1,1.3097902E-2,-2.3943596E-1,-1.4559825E-1,1.5871967E-1,1.1791768E-1,-2.4409969E-1,7.2256416E-2,-1.2332513E-1,5.8731463E-2,1.7849332E-1,-1.1770202E-1,-9.942388E-3,-9.2359796E-2,1.6341487E-1,-8.820182E-3,-8.6495085E-3,1.8521926E-1,-1.3268821E-1,5.9948906E-2,-1.4056386E-1,7.465921E-2,9.565992E-2,4.980982E-2,7.367447E-2,-2.6978144E-2,-2.7601856E-3,-6.366493E-2,1.753253E-1,-1.8903883E-2],"categories":[],"categories_nodes":[],"categories_segments":[],"categories_sizes":[],"default_left":[0,0,0,0,0,0,0,0,0,0,0,0,0,0,0,0,0,0,0,0,0,0,0,0,0,0,0,0,0,0,0,0,0],"id":17,"left_children":[1,3,5,7,9,11,-1,13,-1,15,17,-1,-1,19,21,-1,-1,-1,23,-1,25,-1,27,29,31,-1,-1,-1,-1,-1,-1,-1,-1],"loss_changes":[3.4012232E0,5.193441E-1,1.8345118E-2,2.0451641E-1,4.4115603E-1,4.4859597E-1,0E0,4.907124E-1,0E0,6.288853E-2,9.0120107E-1,0E0,0E0,1.1772561E-1,3.9207438E-1,0E0,0E0,0E0,2.4098542E-1,0E0,1.4757133E-1,0E0,1.6057453E-1,7.782662E-2,9.8297966E-1,0E0,0E0,0E0,0E0,0E0,0E0,0E0,0E0],"parents":[2147483647,0,0,1,1,2,2,3,3,4,4,5,5,7,7,9,9,10,10,13,13,14,14,18,18,20,20,22,22,23,23,24,24],"right_children":[2,4,6,8,10,12,-1,14,-1,16,18,-1,-1,20,22,-1,-1,-1,24,-1,26,-1,28,30,32,-1,-1,-1,-1,-1,-1,-1,-1],"split_conditions":[9.453688E-1,-3.1947294E-1,1.5326169E0,-3.6464587E-1,-2.291271E-1,1.333856E0,-1.4559825E-1,-4.2788795E-1,1.1791768E-1,-3.1043836E-1,-1.65885E-1,-1.2332513E-1,5.8731463E-2,-8.7961715E-1,-4.0981877E-1,-9.942388E-3,-9.2359796E-2,1.6341487E-1,4.1910432E-2,-8.6495085E-3,-8.344442E-1,-1.3268821E-1,-3.9174962E-1,-6.6504575E-2,7.8048766E-2,9.565992E-2,4.980982E-2,7.367447E-2,-2.6978144E-2,-2.7601856E-3,-6.366493E-2,1.753253E-1,-1.8903883E-2],"split_indices":[0,0,0,0,0,0,0,0,0,0,0,0,0,0,0,0,0,0,0,0,0,0,0,0,0,0,0,0,0,0,0,0,0],"split_type":[0,0,0,0,0,0,0,0,0,0,0,0,0,0,0,0,0,0,0,0,0,0,0,0,0,0,0,0,0,0,0,0,0],"sum_hessian":[1.26224556E2,1.1524921E2,1.0975346E1,8.841441E1,2.6834793E1,3.9277856E0,7.04756E0,8.49339E1,3.4805207E0,4.4335012E0,2.240129E1,2.8565714E0,1.0712143E0,7.959443E1,5.339465E0,1.3818034E0,3.051698E0,2.4435265E0,1.9957764E1,2.3977528E0,7.719668E1,1.3617271E0,3.977738E0,7.47586E0,1.2481904E1,7.7303424E0,6.946634E1,1.4916518E0,2.4860861E0,3.0367963E0,4.439064E0,1.9641722E0,1.0517732E1],"tree_param":{"num_deleted":"0","num_feature":"1","num_nodes":"33","size_leaf_vector":"1"}},{"base_weights":[-1.8760036E-1,-5.0550693E-1,4.0239444E-1,-1.6180299E-1,-2.1743816E-1,2.3657727E-1,4.5198372E-1,-6.533163E-2,-1.1530929E-1,3.5058358E-1,1.9428113E-2,1.441888E-1,2.1871352E-1,-1.7307156E-1,3.9179128E-2,1.2545691E-1,4.5804415E-2,1.0752729E-2,-1.7048712E-3,-1.0019357E-2,1.0880504E-1,3.6956724E-3,-8.973473E-2],"categories":[],"categories_nodes":[],"categories_segments":[],"categories_sizes":[],"default_left":[0,0,0,0,0,0,0,0,0,0,0,0,0,0,0,0,0,0,0,0,0,0,0],"id":18,"left_children":[1,3,5,-1,7,9,11,13,-1,15,17,-1,19,21,-1,-1,-1,-1,-1,-1,-1,-1,-1],"loss_changes":[1.2852757E1,3.142252E-1,9.182668E-2,0E0,1.3557833E-1,1.8289316E-1,1.1875153E-2,1.17935106E-1,0E0,2.5936365E-3,1.727413E-3,0E0,1.48223E-1,8.182289E-2,0E0,0E0,0E0,0E0,0E0,0E0,0E0,0E0,0E0],"parents":[2147483647,0,0,1,1,2,2,4,4,5,5,6,6,7,7,9,9,10,10,12,12,13,13],"right_children":[2,4,6,-1,8,10,12,14,-1,16,18,-1,20,22,-1,-1,-1,-1,-1,-1,-1,-1,-1],"split_conditions":[4.665359E-1,2.3841264E-2,9.453688E-1,-1.6180299E-1,2.0453295E-1,8.188847E-1,2.6258016E0,7.8048766E-2,-1.1530929E-1,7.285388E-1,9.272997E-1,1.441888E-1,2.7071128E0,4.1910432E-2,3.9179128E-2,1.2545691E-1,4.5804415E-2,1.0752729E-2,-1.7048712E-3,-1.0019357E-2,1.0880504E-1,3.6956724E-3,-8.973473E-2],"split_indices":[0,0,0,0,0,0,0,0,0,0,0,0,0,0,0,0,0,0,0,0,0,0,0],"split_type":[0,0,0,0,0,0,0,0,0,0,0,0,0,0,0,0,0,0,0,0,0,0,0],"sum_hessian":[6.644042E1,4.3269005E1,2.3171415E1,3.7940292E1,5.3287115E0,6.6628466E0,1.6508568E1,3.5161257E0,1.8125858E0,3.966104E0,2.6967428E0,1.3758611E1,2.749957E0,2.343894E0,1.1722314E0,2.1265376E0,1.8395666E0,1.372332E0,1.3244107E0,1.2787354E0,1.4712216E0,1.3137894E0,1.0301046E0],"tree_param":{"num_deleted":"0","num_feature":"1","num_nodes":"23","size_leaf_vector":"1"}},{"base_weights":[3.276675E-2,9.0187475E-2,-4.3306294E-1,6.084923E-2,1.378279E-1,-1.4771147E-1,-2.132978E-2,7.996602E-2,-1.3007289E-1,2.7589136E-1,1.1218164E-1,5.1438257E-2,1.536135E-1,2.7681142E-2,1.0594807E-1,-4.3130808E-2,1.4044866E-1,8.219427E-2,-3.731452E-2,3.59641E-1,7.6714486E-2,1.5862411E-1,1.0397447E-1,1.1320483E-2,6.226457E-2,-6.389218E-2,8.291592E-3,4.4780526E-2,1.3435753E-1,-1.9359622E-2,5.830172E-2,-1.7162187E-2,4.750823E-2],"categories":[],"categories_nodes":[],"categories_segments":[],"categories_sizes":[],"default_left":[0,0,0,0,0,0,0,0,0,0,0,0,0,0,0,0,0,0,0,0,0,0,0,0,0,0,0,0,0,0,0,0,0],"id":19,"left_children":[1,3,5,7,9,-1,-1,11,-1,13,15,17,19,-1,-1,-1,21,23,25,27,29,-1,31,-1,-1,-1,-1,-1,-1,-1,-1,-1,-1],"loss_changes":[3.1551175E0,1.3772643E-1,2.4313569E-1,6.6310054E-1,1.073249E-1,0E0,0E0,1.2836245E-1,0E0,4.4490606E-2,2.706615E-1,1.3477954E-1,2.5132978E-1,0E0,0E0,0E0,3.9373213E-1,1.93618E-1,1.5541618E-1,1.6919017E-2,2.4665064E-1,0E0,2.738506E-1,0E0,0E0,0E0,0E0,0E0,0E0,0E0,0E0,0E0,0E0],"parents":[2147483647,0,0,1,1,2,2,3,3,4,4,7,7,9,9,10,10,11,11,12,12,16,16,17,17,18,18,19,19,20,20,22,22],"right_children":[2,4,6,8,10,-1,-1,12,-1,14,16,18,20,-1,-1,-1,22,24,26,28,30,-1,32,-1,-1,-1,-1,-1,-1,-1,-1,-1,-1],"split_conditions":[4.3943214E-1,-5.001646E-1,2.6258016E0,-5.2726835E-1,-4.549917E-1,-1.4771147E-1,-2.132978E-2,-6.3568336E-1,-1.3007289E-1,-4.7306088E-1,-4.2788795E-1,-6.989255E-1,-6.176142E-1,2.7681142E-2,1.0594807E-1,-4.3130808E-2,-4.0981877E-1,-7.260292E-1,-6.8989086E-1,-6.266488E-1,-5.724413E-1,1.5862411E-1,-3.1947294E-1,1.1320483E-2,6.226457E-2,-6.389218E-2,8.291592E-3,4.4780526E-2,1.3435753E-1,-1.9359622E-2,5.830172E-2,-1.7162187E-2,4.750823E-2],"split_indices":[0,0,0,0,0,0,0,0,0,0,0,0,0,0,0,0,0,0,0,0,0,0,0,0,0,0,0,0,0,0,0,0,0],"split_type":[0,0,0,0,0,0,0,0,0,0,0,0,0,0,0,0,0,0,0,0,0,0,0,0,0,0,0,0,0,0,0,0,0],"sum_hessian":[1.15495735E2,1.0353931E2,1.195643E1,6.548757E1,3.8051735E1,9.9635935E0,1.9928367E0,6.3856834E1,1.6307377E0,4.432476E0,3.361926E1,4.7251957E1,1.6604877E1,1.9626361E0,2.46984E0,2.93723E0,3.068203E1,3.5146374E1,1.2105581E1,3.5138335E0,1.3091044E1,1.4756818E0,2.9206348E1,2.6905016E1,8.24136E0,2.6527085E0,9.452872E0,1.8335086E0,1.6803248E0,6.153336E0,6.937708E0,7.3554673E0,2.185088E1],"tree_param":{"num_deleted":"0","num_feature":"1","num_nodes":"33","size_leaf_vector":"1"}},{"base_weights":[7.170156E-2,1.1139559E-1,-3.8870263E-1,1.27302E-1,-4.547869E-2,-1.8834785E-1,-1.3813327E-1,1.15338914E-1,1.5325943E-1,-7.037454E-2,2.8836796E-2,-1.13742806E-1,6.604372E-2,1.2934023E-1,-1.7117476E-1,6.389011E-2,-4.7717653E-2,1.485802E-1,7.244798E-2,-2.1520096E-1,-8.5351905E-3,-1.6819118E-1,4.456416E-2,3.9500855E-2,1.5390627E-1,5.646642E-3,7.094853E-2,-1.4986803E-2,-9.9675916E-2,4.4140642E-4,-1.131077E-1],"categories":[],"categories_nodes":[],"categories_segments":[],"categories_sizes":[],"default_left":[0,0,0,0,0,0,0,0,0,0,0,0,0,0,0,0,0,0,0,0,0,0,0,0,0,0,0,0,0,0,0],"id":20,"left_children":[1,3,5,7,9,11,-1,13,-1,-1,15,-1,-1,17,19,-1,21,23,25,27,-1,29,-1,-1,-1,-1,-1,-1,-1,-1,-1],"loss_changes":[2.2950785E0,2.9078305E-1,5.7051063E-2,4.1811025E-1,1.6488194E-1,4.209023E-1,0E0,4.3175197E-1,0E0,0E0,1.3656946E-1,0E0,0E0,9.641945E-2,2.6474878E-2,0E0,1.9406922E-1,3.775524E-1,2.3041295E-1,5.7141677E-2,0E0,1.741721E-1,0E0,0E0,0E0,0E0,0E0,0E0,0E0,0E0,0E0],"parents":[2147483647,0,0,1,1,2,2,3,3,4,4,5,5,7,7,10,10,13,13,14,14,16,16,17,17,18,18,19,19,21,21],"right_children":[2,4,6,8,10,12,-1,14,-1,-1,16,-1,-1,18,20,-1,22,24,26,28,-1,30,-1,-1,-1,-1,-1,-1,-1,-1,-1],"split_conditions":[9.453688E-1,7.8048766E-2,1.5326169E0,4.1910432E-2,2.1356754E-1,1.333856E0,-1.3813327E-1,-6.6504575E-2,1.5325943E-1,-7.037454E-2,3.6715546E-1,-1.13742806E-1,6.604372E-2,-5.001646E-1,2.3841264E-2,6.389011E-2,8.188847E-1,-5.2726835E-1,-2.291271E-1,-3.9400827E-2,-8.5351905E-3,7.6467717E-1,4.456416E-2,3.9500855E-2,1.5390627E-1,5.646642E-3,7.094853E-2,-1.4986803E-2,-9.9675916E-2,4.4140642E-4,-1.131077E-1],"split_indices":[0,0,0,0,0,0,0,0,0,0,0,0,0,0,0,0,0,0,0,0,0,0,0,0,0,0,0,0,0,0,0],"split_type":[0,0,0,0,0,0,0,0,0,0,0,0,0,0,0,0,0,0,0,0,0,0,0,0,0,0,0,0,0,0,0],"sum_hessian":[1.2221433E2,1.1321176E2,9.002574E0,1.0296049E2,1.0251271E1,3.3295135E0,5.6730604E0,1.01107704E2,1.852786E0,2.2836733E0,7.9675984E0,2.318476E0,1.0110375E0,9.692E1,4.187704E0,1.816534E0,6.1510644E0,7.1222275E1,2.5697721E1,2.812362E0,1.3753419E0,3.9001005E0,2.2509642E0,6.9364914E1,1.8573611E0,2.020695E1,5.4907713E0,1.7577262E0,1.0546358E0,2.699727E0,1.2003734E0],"tree_param":{"num_deleted":"0","num_feature":"1","num_nodes":"31","size_leaf_vector":"1"}},{"base_weights":[-1.9064866E-1,-4.8885027E-1,3.574219E-1,-1.5830736E-1,-1.9324023E-1,2.0295121E-1,4.0956843E-1,-4.679284E-2,-1.0905883E-1,1.1679088E-1,6.691764E-2,1.3210933E-1,1.8844418E-1,-4.3800484E-2,3.541341E-2,-2.4965921E-2,5.9487432E-2,-1.33204935E-2,1.0046998E-1],"categories":[],"categories_nodes":[],"categories_segments":[],"categories_sizes":[],"default_left":[0,0,0,0,0,0,0,0,0,0,0,0,0,0,0,0,0,0,0],"id":21,"left_children":[1,3,5,-1,7,9,11,13,-1,-1,15,-1,17,-1,-1,-1,-1,-1,-1],"loss_changes":[9.74094E0,3.381176E-1,8.766723E-2,0E0,1.3334575E-1,1.5985179E-1,1.8271208E-2,8.90128E-2,0E0,0E0,1.2393087E-1,0E0,1.3646679E-1,0E0,0E0,0E0,0E0,0E0,0E0],"parents":[2147483647,0,0,1,1,2,2,4,4,5,5,6,6,7,7,10,10,12,12],"right_children":[2,4,6,-1,8,10,12,14,-1,-1,16,-1,18,-1,-1,-1,-1,-1,-1],"split_conditions":[4.665359E-1,2.3841264E-2,9.453688E-1,-1.5830736E-1,2.0453295E-1,7.285388E-1,2.6258016E0,7.8048766E-2,-1.0905883E-1,1.1679088E-1,8.2791924E-1,1.3210933E-1,2.7071128E0,-4.3800484E-2,3.541341E-2,-2.4965921E-2,5.9487432E-2,-1.33204935E-2,1.0046998E-1],"split_indices":[0,0,0,0,0,0,0,0,0,0,0,0,0,0,0,0,0,0,0],"split_type":[0,0,0,0,0,0,0,0,0,0,0,0,0,0,0,0,0,0,0],"sum_hessian":[5.7532036E1,3.7329403E1,2.0202633E1,3.2300297E1,5.0291076E0,6.3334246E0,1.3869207E1,3.3892033E0,1.6399043E0,1.8868381E0,4.4465866E0,1.1303491E1,2.565717E0,2.187131E0,1.2020724E0,2.2461593E0,2.200427E0,1.2597313E0,1.3059857E0],"tree_param":{"num_deleted":"0","num_feature":"1","num_nodes":"19","size_leaf_vector":"1"}},{"base_weights":[3.3903904E-2,8.011049E-2,-4.0636227E-1,7.345473E-2,8.392837E-2,-1.4228886E-1,-1.6900793E-2,8.412639E-2,-1.372865E-1,6.4850464E-2,1.7604993E-1,-1.0591419E-1,2.1086851E-2,7.963955E-2,-6.404576E-2,3.3282292E-1,8.254828E-2,5.5256832E-2,-4.536218E-2,1.819604E-2,6.9818914E-2,3.3276714E-2,1.14836775E-1,-8.722014E-2,6.365481E-2],"categories":[],"categories_nodes":[],"categories_segments":[],"categories_sizes":[],"default_left":[0,0,0,0,0,0,0,0,0,0,0,0,0,0,0,0,0,0,0,0,0,0,0,0,0],"id":22,"left_children":[1,3,5,7,-1,-1,-1,9,11,13,15,-1,17,19,-1,21,23,-1,-1,-1,-1,-1,-1,-1,-1],"loss_changes":[2.342369E0,1.1710757E-1,2.33639E-1,2.400595E-1,0E0,0E0,0E0,1.6104299E-1,1.877709E-1,3.5471213E-1,2.1129173E-1,0E0,1.3989115E-1,2.1443003E-1,0E0,2.1354437E-2,6.1977357E-1,0E0,0E0,0E0,0E0,0E0,0E0,0E0,0E0],"parents":[2147483647,0,0,1,1,2,2,3,3,7,7,8,8,9,9,10,10,12,12,13,13,15,15,16,16],"right_children":[2,4,6,8,-1,-1,-1,10,12,14,16,-1,18,20,-1,22,24,-1,-1,-1,-1,-1,-1,-1,-1],"split_conditions":[4.3943214E-1,2.6777503E-1,2.6258016E0,4.1910432E-2,8.392837E-2,-1.4228886E-1,-1.6900793E-2,-3.1947294E-1,7.8048766E-2,-3.6464587E-1,-2.291271E-1,-1.0591419E-1,1.5936002E-1,-4.3692252E-1,-6.404576E-2,-3.1043836E-1,-1.65885E-1,5.5256832E-2,-4.536218E-2,1.819604E-2,6.9818914E-2,3.3276714E-2,1.14836775E-1,-8.722014E-2,6.365481E-2],"split_indices":[0,0,0,0,0,0,0,0,0,0,0,0,0,0,0,0,0,0,0,0,0,0,0,0,0],"split_type":[0,0,0,0,0,0,0,0,0,0,0,0,0,0,0,0,0,0,0,0,0,0,0,0,0],"sum_hessian":[1.125424E2,1.0259313E2,9.949261E0,1.0060711E2,1.9860235E0,8.034814E0,1.9144462E0,9.63299E1,4.27721E0,8.104139E1,1.5288507E1,1.2902383E0,2.9869719E0,7.7630455E1,3.4109342E0,4.7554927E0,1.0533014E1,1.4989482E0,1.4880235E0,7.030722E1,7.3232336E0,1.4658023E0,3.2896905E0,2.3947153E0,8.138299E0],"tree_param":{"num_deleted":"0","num_feature":"1","num_nodes":"25","size_leaf_vector":"1"}},{"base_weights":[6.0871948E-2,9.495511E-2,-3.1192458E-1,1.1735157E-1,4.4141836E-2,-1.3521917E-1,-1.3110434E-1,-2.4159798E-2,1.2498468E-1,-2.0982008E-1,7.626602E-2,-2.550071E-1,5.8883075E-2,4.4842567E-2,-4.487162E-2,2.7666077E-1,1.08114935E-1,-1.7457019E-4,-1.1860784E-1,1.9460264E-1,3.2602295E-2,-2.4754649E-2,-1.0231981E-1,1.3971136E-2,1.3656846E-1,4.950583E-2,1.3772681E-1,3.6273025E-2,9.807453E-2,-1.9040851E-1,8.7112725E-2,3.4268703E-2,-1.0967072E-1,6.252754E-2,2.7036753E-2,6.249948E-2,-2.9210275E-2,-1.2337144E-3,-7.63178E-2,1.2378009E-1,5.7915617E-3],"categories":[],"categories_nodes":[],"categories_segments":[],"categories_sizes":[],"default_left":[0,0,0,0,0,0,0,0,0,0,0,0,0,0,0,0,0,0,0,0,0,0,0,0,0,0,0,0,0,0,0,0,0,0,0,0,0,0,0,0,0],"id":23,"left_children":[1,3,5,7,9,11,-1,13,15,17,19,21,-1,-1,-1,23,25,-1,-1,27,29,-1,-1,-1,-1,31,33,35,-1,37,39,-1,-1,-1,-1,-1,-1,-1,-1,-1,-1],"loss_changes":[1.5553696E0,1.2090093E-1,1.6840577E-1,8.5428834E-2,3.055856E-1,2.7695072E-1,0E0,1.2563242E-1,1.5572548E-1,1.6485314E-1,1.6025648E-1,4.0619493E-2,0E0,0E0,0E0,2.5079638E-1,1.0934037E-1,0E0,0E0,1.6598198E-1,3.175063E-1,0E0,0E0,0E0,0E0,6.872321E-1,1.289751E-1,1.3501208E-1,0E0,6.065224E-2,4.4619954E-1,0E0,0E0,0E0,0E0,0E0,0E0,0E0,0E0,0E0,0E0],"parents":[2147483647,0,0,1,1,2,2,3,3,4,4,5,5,7,7,8,8,9,9,10,10,11,11,15,15,16,16,19,19,20,20,25,25,26,26,27,27,29,29,30,30],"right_children":[2,4,6,8,10,12,-1,14,16,18,20,22,-1,-1,-1,24,26,-1,-1,28,30,-1,-1,-1,-1,32,34,36,-1,38,40,-1,-1,-1,-1,-1,-1,-1,-1,-1,-1],"split_conditions":[8.2791924E-1,-4.3692252E-1,1.5326169E0,-8.61548E-1,-4.0981877E-1,1.3157868E0,-1.3110434E-1,-8.976863E-1,-8.344442E-1,-4.2788795E-1,-3.1947294E-1,9.453688E-1,5.8883075E-2,4.4842567E-2,-4.487162E-2,-8.434788E-1,-7.1699464E-1,-1.7457019E-4,-1.1860784E-1,-3.6464587E-1,-2.291271E-1,-2.4754649E-2,-1.0231981E-1,1.3971136E-2,1.3656846E-1,-7.260292E-1,-6.5375257E-1,-3.9174962E-1,9.807453E-2,-3.1043836E-1,-1.65885E-1,3.4268703E-2,-1.0967072E-1,6.252754E-2,2.7036753E-2,6.249948E-2,-2.9210275E-2,-1.2337144E-3,-7.63178E-2,1.2378009E-1,5.7915617E-3],"split_indices":[0,0,0,0,0,0,0,0,0,0,0,0,0,0,0,0,0,0,0,0,0,0,0,0,0,0,0,0,0,0,0,0,0,0,0,0,0,0,0,0,0],"split_type":[0,0,0,0,0,0,0,0,0,0,0,0,0,0,0,0,0,0,0,0,0,0,0,0,0,0,0,0,0,0,0,0,0,0,0,0,0,0,0,0,0],"sum_hessian":[1.1908033E2,1.0978816E2,9.292164E0,7.529269E1,3.4495476E1,4.714005E0,4.5781584E0,3.7426198E0,7.155007E1,3.2523189E0,3.1243156E1,3.632221E0,1.0817841E0,1.4890871E0,2.2535326E0,5.620076E0,6.592999E1,1.9999985E0,1.2523203E0,7.4892054E0,2.3753952E1,1.8609879E0,1.7712331E0,3.0066733E0,2.6134028E0,2.3026588E1,4.2903404E1,3.989445E0,3.4997604E0,4.176041E0,1.9577911E1,2.0547403E1,2.479185E0,1.5904685E1,2.699872E1,1.4997125E0,2.4897325E0,1.3396859E0,2.8363552E0,2.4987266E0,1.7079184E1],"tree_param":{"num_deleted":"0","num_feature":"1","num_nodes":"41","size_leaf_vector":"1"}},{"base_weights":[-1.9205357E-1,-4.9759975E-1,2.8303343E-1,-1.5525848E-1,-2.3053612E-1,4.440653E-2,3.375642E-1,1.1704556E-2,-1.1124282E-1,1.2082404E-1,-3.312229E-2,1.8422645E-1,3.7018403E-1,5.7130117E-2,8.165135E-3,1.2517312E-1,-1.6277129E-2,1.2086223E-1,1.6273277E-1,3.8216386E-3,-1.1674459E-2,-1.5712284E-2,9.3226194E-2],"categories":[],"categories_nodes":[],"categories_segments":[],"categories_sizes":[],"default_left":[0,0,0,0,0,0,0,0,0,0,0,0,0,0,0,0,0,0,0,0,0,0,0],"id":24,"left_children":[1,3,5,-1,7,9,11,-1,-1,13,-1,15,17,-1,-1,-1,19,-1,21,-1,-1,-1,-1],"loss_changes":[7.551624E0,4.798031E-2,2.5332367E-1,0E0,1.651785E-1,7.233839E-2,1.4996648E-2,0E0,0E0,1.9684121E-2,0E0,2.361123E-1,2.0730615E-2,0E0,0E0,0E0,2.8608493E-3,0E0,1.2484497E-1,0E0,0E0,0E0,0E0],"parents":[2147483647,0,0,1,1,2,2,4,4,5,5,6,6,9,9,11,11,12,12,16,16,18,18],"right_children":[2,4,6,-1,8,10,12,-1,-1,14,-1,16,18,-1,-1,-1,20,-1,22,-1,-1,-1,-1],"split_conditions":[1.5936002E-1,2.3841264E-2,7.6467717E-1,-1.5525848E-1,4.1910432E-2,6.0205466E-1,9.453688E-1,1.1704556E-2,-1.1124282E-1,3.0391338E-1,-3.312229E-2,8.188847E-1,2.6258016E0,5.7130117E-2,8.165135E-3,1.2517312E-1,9.272997E-1,1.2086223E-1,2.7071128E0,3.8216386E-3,-1.1674459E-2,-1.5712284E-2,9.3226194E-2],"split_indices":[0,0,0,0,0,0,0,0,0,0,0,0,0,0,0,0,0,0,0,0,0,0,0],"split_type":[0,0,0,0,0,0,0,0,0,0,0,0,0,0,0,0,0,0,0,0,0,0,0],"sum_hessian":[5.005218E1,3.043251E1,1.961967E1,2.7446583E1,2.985927E0,3.9869773E0,1.5632692E1,1.2690891E0,1.7168379E0,2.8163557E0,1.1706214E0,3.9083226E0,1.172437E1,1.0219771E0,1.7943788E0,1.3076477E0,2.6006749E0,9.314568E0,2.409802E0,1.3314124E0,1.2692624E0,1.2456996E0,1.1641024E0],"tree_param":{"num_deleted":"0","num_feature":"1","num_nodes":"23","size_leaf_vector":"1"}},{"base_weights":[3.2488186E-2,6.979917E-2,-3.8008863E-1,6.3896425E-2,7.403361E-2,-1.3707355E-1,-1.3258892E-2,7.5108275E-2,-1.085791E-1,6.774215E-2,1.0850801E-1,-2.2162846E-1,2.0271316E-2,7.310724E-2,-2.8856663E-2,-6.189869E-3,-1.009013E-1,5.180184E-2,-4.2356014E-2,1.9155912E-2,1.22117154E-1],"categories":[],"categories_nodes":[],"categories_segments":[],"categories_sizes":[],"default_left":[0,0,0,0,0,0,0,0,0,0,0,0,0,0,0,0,0,0,0,0,0],"id":25,"left_children":[1,3,5,7,-1,-1,-1,9,11,13,-1,15,17,19,-1,-1,-1,-1,-1,-1,-1],"loss_changes":[1.7352701E0,9.145802E-2,2.2136211E-1,2.0284402E-1,0E0,0E0,0E0,1.763078E-1,9.9962234E-2,8.9680225E-2,0E0,7.548325E-2,1.22292444E-1,2.569728E-1,0E0,0E0,0E0,0E0,0E0,0E0,0E0],"parents":[2147483647,0,0,1,1,2,2,3,3,7,7,8,8,9,9,11,11,12,12,13,13],"right_children":[2,4,6,8,-1,-1,-1,10,12,14,-1,16,18,20,-1,-1,-1,-1,-1,-1,-1],"split_conditions":[4.3943214E-1,2.6777503E-1,2.6258016E0,2.3841264E-2,7.403361E-2,-1.3707355E-1,-1.3258892E-2,-3.9400827E-2,7.8048766E-2,-7.5539164E-2,1.0850801E-1,4.1910432E-2,1.5936002E-1,-1.116775E-1,-2.8856663E-2,-6.189869E-3,-1.009013E-1,5.180184E-2,-4.2356014E-2,1.9155912E-2,1.22117154E-1],"split_indices":[0,0,0,0,0,0,0,0,0,0,0,0,0,0,0,0,0,0,0,0,0],"split_type":[0,0,0,0,0,0,0,0,0,0,0,0,0,0,0,0,0,0,0,0,0],"sum_hessian":[1.1000295E2,1.0164189E2,8.361064E0,9.967838E1,1.9635043E0,6.511502E0,1.8495622E0,9.412432E1,5.554067E0,9.297105E1,1.1532693E0,2.574892E0,2.979175E0,9.056122E1,2.4098315E0,1.3642681E0,1.2106241E0,1.4968385E0,1.4823365E0,8.92784E1,1.2828209E0],"tree_param":{"num_deleted":"0","num_feature":"1","num_nodes":"21","size_leaf_vector":"1"}},{"base_weights":[5.2870758E-2,7.181067E-2,-1.242854E-1,8.647991E-2,-5.827565E-2,7.580008E-2,3.3151376E-1,-1.03418715E-1,6.500373E-2,8.638682E-2,-1.4152789E-1,1.3693072E-1,1.1042318E-2,-3.9229777E-2,-9.375114E-2,-1.7424997E-2,9.064015E-2,-7.6443744E-3,-5.7782836E-2,-7.410115E-2,5.997872E-2,6.375706E-2,2.3624575E-2,8.608121E-2,-1.1574445E-2],"categories":[],"categories_nodes":[],"categories_segments":[],"categories_sizes":[],"default_left":[0,0,0,0,0,0,0,0,0,0,0,0,0,0,0,0,0,0,0,0,0,0,0,0,0],"id":26,"left_children":[1,3,-1,5,7,9,11,13,-1,15,17,-1,-1,19,-1,-1,21,-1,-1,-1,23,-1,-1,-1,-1],"loss_changes":[1.0670595E0,2.216708E-1,0E0,2.4289834E-1,1.7261678E-1,2.4101663E-1,1.2976709E-1,1.363346E-1,0E0,6.39115E-2,2.4719745E-2,0E0,0E0,2.130026E-1,0E0,0E0,1.18205786E-1,0E0,0E0,0E0,1.7463584E-1,0E0,0E0,0E0,0E0],"parents":[2147483647,0,0,1,1,3,3,4,4,5,5,6,6,7,7,9,9,10,10,13,13,16,16,20,20],"right_children":[2,4,-1,6,8,10,12,14,-1,16,18,-1,-1,20,-1,-1,22,-1,-1,-1,24,-1,-1,-1,-1],"split_conditions":[1.5326169E0,1.5936002E-1,-1.242854E-1,4.1910432E-2,1.3157868E0,-6.6504575E-2,7.8048766E-2,9.453688E-1,6.500373E-2,-8.7961715E-1,-3.9400827E-2,1.3693072E-1,1.1042318E-2,3.2198253E-1,-9.375114E-2,-1.7424997E-2,-8.344442E-1,-7.6443744E-3,-5.7782836E-2,-7.410115E-2,4.665359E-1,6.375706E-2,2.3624575E-2,8.608121E-2,-1.1574445E-2],"split_indices":[0,0,0,0,0,0,0,0,0,0,0,0,0,0,0,0,0,0,0,0,0,0,0,0,0],"split_type":[0,0,0,0,0,0,0,0,0,0,0,0,0,0,0,0,0,0,0,0,0,0,0,0,0],"sum_hessian":[1.1623815E2,1.1252243E2,3.7157238E0,1.01420876E2,1.1101553E1,9.843971E1,2.9811602E0,1.0071798E1,1.0297544E0,9.4441666E1,3.9980524E0,1.708266E0,1.272894E0,8.614715E0,1.4570842E0,2.3389788E0,9.2102684E1,1.6800847E0,2.3179677E0,2.3025985E0,6.3121157E0,6.6874514E0,8.541523E1,1.3324766E0,4.979639E0],"tree_param":{"num_deleted":"0","num_feature":"1","num_nodes":"25","size_leaf_vector":"1"}},{"base_weights":[-1.9258992E-1,-4.8605284E-1,2.4363722E-1,-1.5263072E-1,-2.1194473E-1,6.472341E-2,3.1640846E-1,7.971466E-3,-1.0354083E-1,1.7945641E-1,-3.5920545E-2,3.4034392E-1,1.4098266E-1,-1.3529044E-2,1.07445836E-1,2.109896E-1,1.3093896E-1,-1.7352248E-2,8.6867295E-2,9.573541E-2,-4.451231E-2],"categories":[],"categories_nodes":[],"categories_segments":[],"categories_sizes":[],"default_left":[0,0,0,0,0,0,0,0,0,0,0,0,0,0,0,0,0,0,0,0,0],"id":27,"left_children":[1,3,5,-1,7,9,11,-1,-1,13,-1,15,17,-1,-1,19,-1,-1,-1,-1,-1],"loss_changes":[5.884727E0,6.1921597E-2,2.2405136E-1,0E0,1.2990378E-1,1.6301925E-1,6.997347E-3,0E0,0E0,1.9765452E-1,0E0,4.2374253E-2,1.136175E-1,0E0,0E0,3.0171165E-1,0E0,0E0,0E0,0E0,0E0],"parents":[2147483647,0,0,1,1,2,2,4,4,5,5,6,6,9,9,11,11,12,12,15,15],"right_children":[2,4,6,-1,8,10,12,-1,-1,14,-1,16,18,-1,-1,20,-1,-1,-1,-1,-1],"split_conditions":[1.5936002E-1,2.3841264E-2,8.2791924E-1,-1.5263072E-1,4.1910432E-2,7.285388E-1,2.6258016E0,7.971466E-3,-1.0354083E-1,4.665359E-1,-3.5920545E-2,1.5326169E0,2.7071128E0,-1.3529044E-2,1.07445836E-1,1.333856E0,1.3093896E-1,-1.7352248E-2,8.6867295E-2,9.573541E-2,-4.451231E-2],"split_indices":[0,0,0,0,0,0,0,0,0,0,0,0,0,0,0,0,0,0,0,0,0],"split_type":[0,0,0,0,0,0,0,0,0,0,0,0,0,0,0,0,0,0,0,0,0],"sum_hessian":[4.404347E1,2.6262014E1,1.7781454E1,2.3461592E1,2.8004224E0,5.6875567E0,1.2093898E1,1.2902932E0,1.5101291E0,3.52323E0,2.164327E0,9.814662E0,2.2792354E0,1.8925946E0,1.6306355E0,5.5460463E0,4.2686157E0,1.2359625E0,1.0432729E0,4.349365E0,1.1966813E0],"tree_param":{"num_deleted":"0","num_feature":"1","num_nodes":"21","size_leaf_vector":"1"}},{"base_weights":[3.1116731E-2,6.359103E-2,-3.3278623E-1,5.5877306E-2,9.027184E-2,-4.0124786E-1,-1.031582E-2,6.624579E-2,-1.3649392E-1,-3.58897E-2,-1.3076697E-1,5.722498E-2,2.5589564E-1,-2.0093843E-1,-4.891699E-3,6.588575E-2,-6.379177E-2,3.565753E-2,9.900188E-2,-7.7735935E-3,-9.149531E-2,1.5980707E-2,9.255027E-2,-7.274306E-2,2.6094424E-2],"categories":[],"categories_nodes":[],"categories_segments":[],"categories_sizes":[],"default_left":[0,0,0,0,0,0,0,0,0,0,0,0,0,0,0,0,0,0,0,0,0,0,0,0,0],"id":28,"left_children":[1,3,5,7,-1,9,-1,11,13,-1,-1,15,17,19,-1,21,23,-1,-1,-1,-1,-1,-1,-1,-1],"loss_changes":[1.3138429E0,1.6855982E-1,1.7256093E-1,2.071155E-1,0E0,1.9325972E-2,0E0,1.4771E-1,3.859087E-2,0E0,0E0,1.005007E-1,1.6123652E-3,5.456698E-2,0E0,2.4753019E-1,2.0009637E-1,0E0,0E0,0E0,0E0,0E0,0E0,0E0,0E0],"parents":[2147483647,0,0,1,1,2,2,3,3,5,5,7,7,8,8,11,11,12,12,13,13,15,15,16,16],"right_children":[2,4,6,8,-1,10,-1,12,14,-1,-1,16,18,20,-1,22,24,-1,-1,-1,-1,-1,-1,-1,-1],"split_conditions":[3.2198253E-1,2.0453295E-1,2.6258016E0,2.3841264E-2,9.027184E-2,4.665359E-1,-1.031582E-2,-6.6504575E-2,7.8048766E-2,-3.58897E-2,-1.3076697E-1,-2.291271E-1,-3.9400827E-2,4.1910432E-2,-4.891699E-3,-3.1043836E-1,-1.65885E-1,3.565753E-2,9.900188E-2,-7.7735935E-3,-9.149531E-2,1.5980707E-2,9.255027E-2,-7.274306E-2,2.6094424E-2],"split_indices":[0,0,0,0,0,0,0,0,0,0,0,0,0,0,0,0,0,0,0,0,0,0,0,0,0],"split_type":[0,0,0,0,0,0,0,0,0,0,0,0,0,0,0,0,0,0,0,0,0,0,0,0,0],"sum_hessian":[1.0838703E2,1.0026477E2,8.122265E0,9.830491E1,1.9598622E0,6.3261905E0,1.7960745E0,9.389952E1,4.4053884E0,1.1807675E0,5.145423E0,9.087856E1,3.020951E0,2.430369E0,1.9750192E0,8.52342E1,5.6443686E0,1.974226E0,1.0467252E0,1.3717871E0,1.058582E0,8.218014E1,3.0540574E0,2.3047402E0,3.3396285E0],"tree_param":{"num_deleted":"0","num_feature":"1","num_nodes":"25","size_leaf_vector":"1"}},{"base_weights":[4.5715462E-2,6.1062455E-2,-1.1758497E-1,7.171031E-2,-3.6736116E-2,6.2360045E-2,2.952672E-1,-6.6003636E-2,2.9953944E-2,7.1517065E-2,-1.2699889E-1,1.22840494E-1,1.1291318E-2,8.16199E-2,-4.2754497E-2,6.308845E-2,1.7769052E-1,-5.2322652E-2,7.731456E-5,-8.929653E-2,4.3117303E-2,2.2227068E-2,-6.445897E-2,9.801673E-2,1.2506539E-3,6.616014E-2,-2.0996027E-2],"categories":[],"categories_nodes":[],"categories_segments":[],"categories_sizes":[],"default_left":[0,0,0,0,0,0,0,0,0,0,0,0,0,0,0,0,0,0,0,0,0,0,0,0,0,0,0],"id":29,"left_children":[1,3,-1,5,7,9,11,-1,13,15,17,-1,-1,-1,19,21,23,-1,-1,-1,25,-1,-1,-1,-1,-1,-1],"loss_changes":[7.9840964E-1,1.1953843E-1,0E0,1.9391888E-1,1.4939761E-1,1.803436E-1,9.66914E-2,0E0,1.7792936E-1,7.367274E-2,2.9705465E-2,0E0,0E0,0E0,1.907726E-1,2.893829E-1,1.6480537E-1,0E0,0E0,0E0,1.5498091E-1,0E0,0E0,0E0,0E0,0E0,0E0],"parents":[2147483647,0,0,1,1,3,3,4,4,5,5,6,6,8,8,9,9,10,10,14,14,15,15,16,16,20,20],"right_children":[2,4,-1,6,8,10,12,-1,14,16,18,-1,-1,-1,20,22,24,-1,-1,-1,26,-1,-1,-1,-1,-1,-1],"split_conditions":[1.5326169E0,1.5936002E-1,-1.1758497E-1,4.1910432E-2,3.2198253E-1,-6.6504575E-2,7.8048766E-2,-6.6003636E-2,4.665359E-1,-2.291271E-1,2.3841264E-2,1.22840494E-1,1.1291318E-2,8.16199E-2,7.285388E-1,-3.1043836E-1,-1.65885E-1,-5.2322652E-2,7.731456E-5,-8.929653E-2,8.2791924E-1,2.2227068E-2,-6.445897E-2,9.801673E-2,1.2506539E-3,6.616014E-2,-2.0996027E-2],"split_indices":[0,0,0,0,0,0,0,0,0,0,0,0,0,0,0,0,0,0,0,0,0,0,0,0,0,0,0],"split_type":[0,0,0,0,0,0,0,0,0,0,0,0,0,0,0,0,0,0,0,0,0,0,0,0,0,0,0],"sum_hessian":[1.1430354E2,1.1126254E2,3.0410047E0,1.0057874E2,1.0683796E1,9.776852E1,2.8102255E0,2.2370274E0,8.446769E0,9.3852325E1,3.916192E0,1.53876E0,1.2714654E0,1.3175542E0,7.129215E0,8.8426735E1,5.425588E0,2.5832598E0,1.3329322E0,1.1750225E0,5.954192E0,8.576544E1,2.661293E0,2.4438E0,2.981788E0,1.9482737E0,4.0059185E0],"tree_param":{"num_deleted":"0","num_feature":"1","num_nodes":"27","size_leaf_vector":"1"}},{"base_weights":[-1.9080226E-1,-4.7469893E-1,2.125948E-1,-1.5019225E-1,-1.9443862E-1,8.982698E-3,2.6785365E-1,6.943685E-3,-9.731162E-2,4.971675E-2,-8.2996584E-2,1.7851904E-1,3.3400768E-1,-2.3210417E-4,-4.3402918E-2,2.5964782E-1,-4.5202192E-2,1.2301578E-1,3.680452E-2,1.1987794E-1,1.5336557E-1,-1.9332E-2,1.0652168E-1],"categories":[],"categories_nodes":[],"categories_segments":[],"categories_sizes":[],"default_left":[0,0,0,0,0,0,0,0,0,0,0,0,0,0,0,0,0,0,0,0,0,0,0],"id":30,"left_children":[1,3,5,-1,7,9,11,-1,-1,-1,13,15,17,-1,-1,19,-1,-1,-1,-1,21,-1,-1],"loss_changes":[4.668496E0,7.5099945E-2,1.9072509E-1,0E0,1.10541806E-1,8.149589E-2,1.9957304E-2,0E0,0E0,0E0,1.8284505E-2,2.4950653E-1,5.557853E-2,0E0,0E0,3.817907E-2,0E0,0E0,0E0,0E0,2.6115334E-1,0E0,0E0],"parents":[2147483647,0,0,1,1,2,2,4,4,5,5,6,6,10,10,11,11,12,12,15,15,20,20],"right_children":[2,4,6,-1,8,10,12,-1,-1,-1,14,16,18,-1,-1,20,-1,-1,-1,-1,22,-1,-1],"split_conditions":[1.5936002E-1,2.3841264E-2,7.6467717E-1,-1.5019225E-1,4.1910432E-2,3.0391338E-1,1.5326169E0,6.943685E-3,-9.731162E-2,4.971675E-2,6.0205466E-1,1.333856E0,2.6258016E0,-2.3210417E-4,-4.3402918E-2,8.188847E-1,-4.5202192E-2,1.2301578E-1,3.680452E-2,1.1987794E-1,9.453688E-1,-1.9332E-2,1.0652168E-1],"split_indices":[0,0,0,0,0,0,0,0,0,0,0,0,0,0,0,0,0,0,0,0,0,0,0],"split_type":[0,0,0,0,0,0,0,0,0,0,0,0,0,0,0,0,0,0,0,0,0,0,0],"sum_hessian":[3.888347E1,2.2718344E1,1.6165125E1,2.007389E1,2.644452E0,3.6987836E0,1.2466341E1,1.296022E0,1.3484302E0,1.0713623E0,2.6274211E0,6.8774915E0,5.5888495E0,1.5601676E0,1.0672537E0,5.687164E0,1.1903274E0,3.4183788E0,2.1704707E0,1.2636024E0,4.4235616E0,2.4541087E0,1.9694529E0],"tree_param":{"num_deleted":"0","num_feature":"1","num_nodes":"23","size_leaf_vector":"1"}},{"base_weights":[2.9055575E-2,5.4087717E-2,-3.2973152E-1,4.861297E-2,6.660316E-2,-1.2686937E-1,-7.976027E-3,5.82794E-2,-1.0471277E-1,5.0893713E-2,6.5964036E-2,-5.352826E-2,-1.7300166E-2,5.7395935E-2,-6.9270566E-2,4.2709928E-2,-5.0947916E-2,1.397771E-2,5.47268E-2,-4.0601753E-2,1.4018182E-2],"categories":[],"categories_nodes":[],"categories_segments":[],"categories_sizes":[],"default_left":[0,0,0,0,0,0,0,0,0,0,0,0,0,0,0,0,0,0,0,0,0],"id":31,"left_children":[1,3,5,7,-1,-1,-1,9,11,13,-1,-1,15,17,19,-1,-1,-1,-1,-1,-1],"loss_changes":[9.854419E-1,8.2583845E-2,1.9118369E-1,1.5378466E-1,0E0,0E0,0E0,1.01450235E-1,3.7295178E-2,7.550891E-2,0E0,0E0,1.20969445E-1,1.0955411E-1,4.581431E-2,0E0,0E0,0E0,0E0,0E0,0E0],"parents":[2147483647,0,0,1,1,2,2,3,3,7,7,8,8,9,9,12,12,13,13,14,14],"right_children":[2,4,6,8,-1,-1,-1,10,12,14,-1,-1,16,18,20,-1,-1,-1,-1,-1,-1],"split_conditions":[4.3943214E-1,2.6777503E-1,2.6258016E0,2.3841264E-2,6.660316E-2,-1.2686937E-1,-7.976027E-3,-6.6504575E-2,7.8048766E-2,-2.1105793E-1,6.5964036E-2,-5.352826E-2,1.5936002E-1,-3.1947294E-1,-1.116775E-1,4.2709928E-2,-5.0947916E-2,1.397771E-2,5.47268E-2,-4.0601753E-2,1.4018182E-2],"split_indices":[0,0,0,0,0,0,0,0,0,0,0,0,0,0,0,0,0,0,0,0,0],"split_type":[0,0,0,0,0,0,0,0,0,0,0,0,0,0,0,0,0,0,0,0,0],"sum_hessian":[1.0673688E2,1.0056951E2,6.1673646E0,9.8642975E1,1.9265378E0,4.415347E0,1.7520176E0,9.337598E1,5.2669945E0,9.055237E1,2.823607E0,2.292514E0,2.9744806E0,8.639955E1,4.152822E0,1.485768E0,1.4887127E0,8.0791046E1,5.608501E0,2.539606E0,1.6132162E0],"tree_param":{"num_deleted":"0","num_feature":"1","num_nodes":"21","size_leaf_vector":"1"}},{"base_weights":[3.950979E-2,5.1945075E-2,-1.10495605E-1,5.797729E-2,-5.5293716E-2,5.269647E-2,1.8668205E-1,-1.0747264E-1,7.820698E-2,5.958566E-2,-5.524721E-2,7.168339E-2,1.7964076E-2,-1.0308455E-2,6.847073E-2,5.158566E-2,2.5718352E-1,4.9502194E-2,-8.147373E-2,1.7301721E-2,-4.533447E-2,1.112616E-1,8.108677E-3],"categories":[],"categories_nodes":[],"categories_segments":[],"categories_sizes":[],"default_left":[0,0,0,0,0,0,0,0,0,0,0,0,0,0,0,0,0,0,0,0,0,0,0],"id":32,"left_children":[1,3,-1,5,7,9,11,-1,13,15,-1,-1,-1,17,-1,19,21,-1,-1,-1,-1,-1,-1],"loss_changes":[5.941197E-1,7.4944705E-2,0E0,6.1854392E-2,2.8757417E-1,1.7857939E-1,1.06363E-2,0E0,7.241045E-2,1.4571112E-1,0E0,0E0,0E0,2.406156E-1,0E0,1.295113E-1,8.5804105E-2,0E0,0E0,0E0,0E0,0E0,0E0],"parents":[2147483647,0,0,1,1,3,3,4,4,5,5,6,6,8,8,9,9,13,13,15,15,16,16],"right_children":[2,4,-1,6,8,10,12,-1,14,16,-1,-1,-1,18,-1,20,22,-1,-1,-1,-1,-1,-1],"split_conditions":[1.5326169E0,7.6467717E-1,-1.10495605E-1,3.2198253E-1,8.188847E-1,1.5936002E-1,4.665359E-1,-1.0747264E-1,1.3157868E0,4.1910432E-2,-5.524721E-2,7.168339E-2,1.7964076E-2,9.453688E-1,6.847073E-2,-3.9400827E-2,7.8048766E-2,4.9502194E-2,-8.147373E-2,1.7301721E-2,-4.533447E-2,1.112616E-1,8.108677E-3],"split_indices":[0,0,0,0,0,0,0,0,0,0,0,0,0,0,0,0,0,0,0,0,0,0,0],"split_type":[0,0,0,0,0,0,0,0,0,0,0,0,0,0,0,0,0,0,0,0,0,0,0],"sum_hessian":[1.12377E2,1.0989865E2,2.4783409E0,1.04480934E2,5.4177213E0,1.0171687E2,2.7640567E0,1.1422366E0,4.2754846E0,9.9569214E1,2.1476657E0,1.3310549E0,1.4330018E0,3.2747223E0,1.0007623E0,9.6906876E1,2.6623347E0,2.180215E0,1.0945075E0,9.477639E1,2.130489E0,1.3728098E0,1.2895248E0],"tree_param":{"num_deleted":"0","num_feature":"1","num_nodes":"23","size_leaf_vector":"1"}},{"base_weights":[-1.8629071E-1,-4.6444514E-1,1.8365785E-1,-1.479014E-1,-1.8421361E-1,3.703166E-2,2.5343403E-1,2.0890494E-3,-9.0808645E-2,1.5321964E-1,-4.037721E-2,3.2404634E-1,1.4496729E-1,-1.3349817E-2,9.812417E-2,3.7889343E-2,1.1900931E-1,-6.2553756E-2,2.6283133E-1,1.0276474E-1,3.0823423E-2],"categories":[],"categories_nodes":[],"categories_segments":[],"categories_sizes":[],"default_left":[0,0,0,0,0,0,0,0,0,0,0,0,0,0,0,0,0,0,0,0,0],"id":33,"left_children":[1,3,5,-1,7,9,11,-1,-1,13,-1,15,17,-1,-1,-1,-1,-1,19,-1,-1],"loss_changes":[3.7732887E0,7.517958E-2,1.5531719E-1,0E0,8.172345E-2,1.474796E-1,3.525561E-2,0E0,0E0,1.6103676E-1,0E0,3.169465E-2,3.065706E-1,0E0,0E0,0E0,0E0,0E0,2.8285265E-2,0E0,0E0],"parents":[2147483647,0,0,1,1,2,2,4,4,5,5,6,6,9,9,11,11,12,12,18,18],"right_children":[2,4,6,-1,8,10,12,-1,-1,14,-1,16,18,-1,-1,-1,-1,-1,20,-1,-1],"split_conditions":[1.5936002E-1,2.3841264E-2,8.2791924E-1,-1.479014E-1,4.1910432E-2,7.285388E-1,1.5235822E0,2.0890494E-3,-9.0808645E-2,4.665359E-1,-4.037721E-2,9.453688E-1,1.7042739E0,-1.3349817E-2,9.812417E-2,3.7889343E-2,1.1900931E-1,-6.2553756E-2,2.6258016E0,1.0276474E-1,3.0823423E-2],"split_indices":[0,0,0,0,0,0,0,0,0,0,0,0,0,0,0,0,0,0,0,0,0],"split_type":[0,0,0,0,0,0,0,0,0,0,0,0,0,0,0,0,0,0,0,0,0],"sum_hessian":[3.483954E1,1.9741215E1,1.5098322E1,1.7226334E1,2.5148804E0,5.361823E0,9.736499E0,1.3223777E0,1.1925027E0,3.2612154E0,2.1006079E0,4.693496E0,5.043003E0,1.8740501E0,1.3871652E0,1.9968122E0,2.696684E0,1.068732E0,3.974271E0,1.8922299E0,2.0820413E0],"tree_param":{"num_deleted":"0","num_feature":"1","num_nodes":"21","size_leaf_vector":"1"}},{"base_weights":[2.7004387E-2,4.768931E-2,-3.040983E-1,4.2568885E-2,6.199887E-2,-1.2181645E-1,-4.51657E-3,4.910255E-2,-4.5669764E-2,4.3482974E-2,6.726E-2,4.9467638E-2,-6.980142E-2,3.97995E-2,1.2618064E-2],"categories":[],"categories_nodes":[],"categories_segments":[],"categories_sizes":[],"default_left":[0,0,0,0,0,0,0,0,0,0,0,0,0,0,0],"id":34,"left_children":[1,3,5,7,-1,-1,-1,9,-1,11,-1,13,-1,-1,-1],"loss_changes":[7.4502397E-1,7.362649E-2,1.827097E-1,1.3393219E-1,0E0,0E0,0E0,8.558631E-2,0E0,1.6870669E-1,0E0,5.2302733E-2,0E0,0E0,0E0],"parents":[2147483647,0,0,1,1,2,2,3,3,7,7,9,9,11,11],"right_children":[2,4,6,8,-1,-1,-1,10,-1,12,-1,14,-1,-1,-1],"split_conditions":[4.3943214E-1,2.6777503E-1,2.6258016E0,1.2322169E-1,6.199887E-2,-1.2181645E-1,-4.51657E-3,3.2875847E-2,-4.5669764E-2,1.4806679E-2,6.726E-2,-8.434788E-1,-6.980142E-2,3.97995E-2,1.2618064E-2],"split_indices":[0,0,0,0,0,0,0,0,0,0,0,0,0,0,0],"split_type":[0,0,0,0,0,0,0,0,0,0,0,0,0,0,0],"sum_hessian":[1.05663666E2,1.0025633E2,5.4073296E0,9.8356125E1,1.9002074E0,3.6980584E0,1.709271E0,9.588797E1,2.468159E0,9.411575E1,1.7722151E0,9.292285E1,1.1929032E0,6.2144823E0,8.670837E1],"tree_param":{"num_deleted":"0","num_feature":"1","num_nodes":"15","size_leaf_vector":"1"}},{"base_weights":[3.3839542E-2,4.3996394E-2,-1.0350499E-1,-4.132392E-2,4.9710024E-2,3.49753E-2,-9.955133E-2,1.1900902E-1,3.877716E-2,-4.994907E-2,-5.147185E-3,-4.3136273E-3,5.1026426E-2,5.3400274E-2,-1.0548425E-1,8.47403E-2,4.141048E-2,-1.3281437E-2,2.588046E-2,-1.8815903E-2,1.43757E-2],"categories":[],"categories_nodes":[],"categories_segments":[],"categories_sizes":[],"default_left":[0,0,0,0,0,0,0,0,0,0,0,0,0,0,0,0,0,0,0,0,0],"id":35,"left_children":[1,3,-1,5,7,-1,9,-1,11,-1,-1,13,15,17,-1,-1,19,-1,-1,-1,-1],"loss_changes":[4.4685453E-1,5.5746213E-2,0E0,8.0187224E-2,3.7793747E-1,0E0,3.0177224E-2,0E0,5.3859532E-2,0E0,0E0,4.881223E-1,1.6457953E-1,7.106517E-2,0E0,0E0,5.5339262E-2,0E0,0E0,0E0,0E0],"parents":[2147483647,0,0,1,1,3,3,4,4,6,6,8,8,11,11,12,12,13,13,16,16],"right_children":[2,4,-1,6,8,-1,10,-1,12,-1,-1,14,16,18,-1,-1,20,-1,-1,-1,-1],"split_conditions":[1.5326169E0,-8.434788E-1,-1.0350499E-1,-8.976863E-1,-8.344442E-1,3.49753E-2,-8.61548E-1,1.1900902E-1,-7.1699464E-1,-4.994907E-2,-5.147185E-3,-7.260292E-1,-7.0796007E-1,-7.983059E-1,-1.0548425E-1,8.47403E-2,-6.989255E-1,-1.3281437E-2,2.588046E-2,-1.8815903E-2,1.43757E-2],"split_indices":[0,0,0,0,0,0,0,0,0,0,0,0,0,0,0,0,0,0,0,0,0],"split_type":[0,0,0,0,0,0,0,0,0,0,0,0,0,0,0,0,0,0,0,0,0],"sum_hessian":[1.11182045E2,1.0913995E2,2.0420914E0,6.4588547E0,1.026811E2,1.4700278E0,4.9888268E0,2.0586598E0,1.0062244E2,2.1892838E0,2.7995431E0,2.2415707E1,7.820673E1,1.9947159E1,2.4685483E0,1.9878265E0,7.621891E1,4.935037E0,1.5012121E1,3.975653E0,7.2243256E1],"tree_param":{"num_deleted":"0","num_feature":"1","num_nodes":"21","size_leaf_vector":"1"}},{"base_weights":[-1.7991057E-1,-4.5369768E-1,1.6130458E-1,-1.4569014E-1,-1.7363694E-1,-6.8748444E-3,2.1378069E-1,1.5005263E-3,-8.6637184E-2,4.2011123E-2,-9.5274605E-2,2.66028E-1,1.1042083E-1,-2.438826E-3,-4.5659572E-2,1.2582357E-1,1.1365261E-1,-6.5800354E-2,2.3352087E-1,1.0920137E-1,-5.961186E-2,9.472957E-2,2.585059E-2,-1.7691373E-3,-2.6483197E-2],"categories":[],"categories_nodes":[],"categories_segments":[],"categories_sizes":[],"default_left":[0,0,0,0,0,0,0,0,0,0,0,0,0,0,0,0,0,0,0,0,0,0,0,0,0],"id":36,"left_children":[1,3,5,-1,7,9,11,-1,-1,-1,13,15,17,-1,-1,19,-1,-1,21,-1,23,-1,-1,-1,-1],"loss_changes":[3.101557E0,7.888389E-2,1.35342E-1,0E0,7.188686E-2,7.2774515E-2,3.3228576E-2,0E0,0E0,0E0,1.5888073E-2,6.2904E-2,2.7862114E-1,0E0,0E0,2.2549663E-1,0E0,0E0,2.8096095E-2,0E0,4.7972137E-3,0E0,0E0,0E0,0E0],"parents":[2147483647,0,0,1,1,2,2,4,4,5,5,6,6,10,10,11,11,12,12,15,15,18,18,20,20],"right_children":[2,4,6,-1,8,10,12,-1,-1,-1,14,16,18,-1,-1,20,-1,-1,22,-1,24,-1,-1,-1,-1],"split_conditions":[1.5936002E-1,2.3841264E-2,7.6467717E-1,-1.4569014E-1,4.1910432E-2,3.0391338E-1,1.5235822E0,1.5005263E-3,-8.6637184E-2,4.2011123E-2,6.0205466E-1,9.453688E-1,1.7042739E0,-2.438826E-3,-4.5659572E-2,8.188847E-1,1.1365261E-1,-6.5800354E-2,2.6258016E0,1.0920137E-1,9.272997E-1,9.472957E-2,2.585059E-2,-1.7691373E-3,-2.6483197E-2],"split_indices":[0,0,0,0,0,0,0,0,0,0,0,0,0,0,0,0,0,0,0,0,0,0,0,0,0],"split_type":[0,0,0,0,0,0,0,0,0,0,0,0,0,0,0,0,0,0,0,0,0,0,0,0,0],"sum_hessian":[3.1416649E1,1.7247667E1,1.4168982E1,1.4823296E1,2.424371E0,3.5763173E0,1.0592665E1,1.325178E0,1.0991931E0,1.1240762E0,2.452241E0,5.990651E0,4.6020136E0,1.4204614E0,1.0317796E0,3.6142309E0,2.3764203E0,1.0384629E0,3.5635507E0,1.1605719E0,2.453659E0,1.5535251E0,2.0100255E0,1.2733381E0,1.180321E0],"tree_param":{"num_deleted":"0","num_feature":"1","num_nodes":"25","size_leaf_vector":"1"}},{"base_weights":[2.3623636E-2,4.2466804E-2,-2.5798044E-1,3.5954453E-2,7.471278E-2,-3.3946714E-1,-1.7777963E-3,4.1862145E-2,-6.309047E-2,-2.9184874E-2,-1.15092345E-1,3.6744215E-2,5.9938177E-2,4.5627605E-2,-1.3397978E-1,1.1207327E-2,1.101309E-1,-1.5629292E-2,-6.425692E-2],"categories":[],"categories_nodes":[],"categories_segments":[],"categories_sizes":[],"default_left":[0,0,0,0,0,0,0,0,0,0,0,0,0,0,0,0,0,0,0],"id":37,"left_children":[1,3,5,7,-1,9,-1,11,-1,-1,-1,13,-1,15,17,-1,-1,-1,-1],"loss_changes":[5.7325417E-1,1.2581804E-1,1.3739407E-1,1.517929E-1,0E0,1.7360926E-2,0E0,7.091588E-2,0E0,0E0,0E0,1.501988E-1,0E0,2.283529E-1,2.1371365E-2,0E0,0E0,0E0,0E0],"parents":[2147483647,0,0,1,1,2,2,3,3,5,5,7,7,11,11,13,13,14,14],"right_children":[2,4,6,8,-1,10,-1,12,-1,-1,-1,14,-1,16,18,-1,-1,-1,-1],"split_conditions":[3.2198253E-1,2.0453295E-1,2.6258016E0,1.2322169E-1,7.471278E-2,4.665359E-1,-1.7777963E-3,3.2875847E-2,-6.309047E-2,-2.9184874E-2,-1.15092345E-1,-7.5539164E-2,5.9938177E-2,-1.116775E-1,1.4806679E-2,1.1207327E-2,1.101309E-1,-1.5629292E-2,-6.425692E-2],"split_indices":[0,0,0,0,0,0,0,0,0,0,0,0,0,0,0,0,0,0,0],"split_type":[0,0,0,0,0,0,0,0,0,0,0,0,0,0,0,0,0,0,0],"sum_hessian":[1.0496786E2,9.918052E1,5.787338E0,9.728756E1,1.8929636E0,4.1113715E0,1.6759661E0,9.581886E1,1.4686933E0,1.1282113E0,2.9831603E0,9.4005196E1,1.813671E0,9.005219E1,3.953003E0,8.8881935E1,1.1702516E0,2.7723606E0,1.1806424E0],"tree_param":{"num_deleted":"0","num_feature":"1","num_nodes":"19","size_leaf_vector":"1"}},{"base_weights":[2.9893102E-2,3.8708523E-2,-9.8423295E-2,3.5021376E-2,6.5110534E-2,4.288942E-2,-1.3138004E-1,3.66258E-2,1.618902E-1,-9.963E-2,1.4601311E-3,4.3723766E-2,-5.8136497E-2,8.5614696E-2,1.0384018E-2,1.8088741E-2,-1.2986604E-2,1.0938171E-2,1.0208553E-1,-4.3090235E-2,5.2758485E-2],"categories":[],"categories_nodes":[],"categories_segments":[],"categories_sizes":[],"default_left":[0,0,0,0,0,0,0,0,0,0,0,0,0,0,0,0,0,0,0,0,0],"id":38,"left_children":[1,3,-1,5,-1,7,9,11,13,-1,15,17,-1,-1,19,-1,-1,-1,-1,-1,-1],"loss_changes":[3.6409888E-1,6.444536E-2,0E0,1.4774914E-1,0E0,7.1887314E-2,1.3771817E-1,1.7279115E-1,8.9236826E-2,0E0,1.3385564E-2,1.9929647E-1,0E0,0E0,1.0810913E-1,0E0,0E0,0E0,0E0,0E0,0E0],"parents":[2147483647,0,0,1,1,3,3,5,5,6,6,7,7,8,8,10,10,11,11,14,14],"right_children":[2,4,-1,6,-1,8,10,12,14,-1,16,18,-1,-1,20,-1,-1,-1,-1,-1,-1],"split_conditions":[1.5326169E0,1.3157868E0,-9.8423295E-2,7.6467717E-1,6.5110534E-2,2.1356754E-1,8.188847E-1,7.8048766E-2,3.6715546E-1,-9.963E-2,9.272997E-1,4.1910432E-2,-5.8136497E-2,8.5614696E-2,5.749509E-1,1.8088741E-2,-1.2986604E-2,1.0938171E-2,1.0208553E-1,-4.3090235E-2,5.2758485E-2],"split_indices":[0,0,0,0,0,0,0,0,0,0,0,0,0,0,0,0,0,0,0,0,0],"split_type":[0,0,0,0,0,0,0,0,0,0,0,0,0,0,0,0,0,0,0,0,0],"sum_hessian":[1.1035521E2,1.0857333E2,1.7818701E0,1.0754607E2,1.0272728E0,1.0339924E2,4.146826E0,9.947133E1,3.9279087E0,1.0540985E0,3.0927274E0,9.728469E1,2.1866417E0,1.6771972E0,2.2507114E0,1.1859777E0,1.9067497E0,9.605511E1,1.229577E0,1.2340878E0,1.0166235E0],"tree_param":{"num_deleted":"0","num_feature":"1","num_nodes":"21","size_leaf_vector":"1"}},{"base_weights":[-1.736714E-1,-4.429038E-1,1.3828915E-1,-1.4351219E-1,-1.6281003E-1,1.7327042E-2,2.0292692E-1,9.45882E-4,-8.2320586E-2,1.4042683E-1,-4.6966452E-2,2.8956082E-1,8.075655E-2,-1.333723E-2,9.332347E-2,3.4030132E-2,1.09087914E-1,-6.7052476E-2,2.0703064E-1,1.7627407E-2,9.582265E-2],"categories":[],"categories_nodes":[],"categories_segments":[],"categories_sizes":[],"default_left":[0,0,0,0,0,0,0,0,0,0,0,0,0,0,0,0,0,0,0,0,0],"id":39,"left_children":[1,3,5,-1,7,9,11,-1,-1,13,-1,15,17,-1,-1,-1,-1,-1,19,-1,-1],"loss_changes":[2.5487378E0,8.241558E-2,1.09711885E-1,0E0,6.252856E-2,1.5334153E-1,7.552293E-2,0E0,0E0,1.4382607E-1,0E0,2.5032222E-2,2.4851927E-1,0E0,0E0,0E0,0E0,0E0,5.186878E-2,0E0,0E0],"parents":[2147483647,0,0,1,1,2,2,4,4,5,5,6,6,9,9,11,11,12,12,18,18],"right_children":[2,4,6,-1,8,10,12,-1,-1,14,-1,16,18,-1,-1,-1,-1,-1,20,-1,-1],"split_conditions":[1.5936002E-1,2.3841264E-2,8.2791924E-1,-1.4351219E-1,4.1910432E-2,7.285388E-1,1.5235822E0,9.45882E-4,-8.2320586E-2,4.665359E-1,-4.6966452E-2,9.453688E-1,1.7042739E0,-1.333723E-2,9.332347E-2,3.4030132E-2,1.09087914E-1,-6.7052476E-2,2.6890435E0,1.7627407E-2,9.582265E-2],"split_indices":[0,0,0,0,0,0,0,0,0,0,0,0,0,0,0,0,0,0,0,0,0],"split_type":[0,0,0,0,0,0,0,0,0,0,0,0,0,0,0,0,0,0,0,0,0],"sum_hessian":[2.8616531E1,1.513488E1,1.3481652E1,1.28053465E1,2.3295338E0,5.136796E0,8.344856E0,1.327291E0,1.0022428E0,3.1202288E0,2.016567E0,4.0808725E0,4.2639832E0,1.8526E0,1.2676289E0,1.9574972E0,2.1233754E0,1.0247539E0,3.2392297E0,2.053149E0,1.1860806E0],"tree_param":{"num_deleted":"0","num_feature":"1","num_nodes":"21","size_leaf_vector":"1"}},{"base_weights":[2.1244727E-2,3.7319757E-2,-2.3527811E-1,3.098795E-2,7.186646E-2,-3.184388E-1,3.525183E-4,3.824334E-2,-1.6006353E-1,-2.5915002E-2,-1.1035222E-1,3.3259604E-2,5.1356226E-2,-1.2722823E-2,-6.1821215E-2,3.9932862E-2,-4.9928356E-2,9.687874E-3,1.0415909E-1],"categories":[],"categories_nodes":[],"categories_segments":[],"categories_sizes":[],"default_left":[0,0,0,0,0,0,0,0,0,0,0,0,0,0,0,0,0,0,0],"id":40,"left_children":[1,3,5,7,-1,9,-1,11,13,-1,-1,15,-1,-1,-1,17,-1,-1,-1],"loss_changes":[4.4374248E-1,1.2078649E-1,1.2537733E-1,1.4228684E-1,0E0,2.2182256E-2,0E0,5.7544738E-2,1.1758648E-2,0E0,0E0,1.3089198E-1,0E0,0E0,0E0,2.0247842E-1,0E0,0E0,0E0],"parents":[2147483647,0,0,1,1,2,2,3,3,5,5,7,7,8,8,11,11,15,15],"right_children":[2,4,6,8,-1,10,-1,12,14,-1,-1,16,-1,-1,-1,18,-1,-1,-1],"split_conditions":[3.2198253E-1,2.0453295E-1,2.6258016E0,4.1910432E-2,7.186646E-2,4.665359E-1,3.525183E-4,-3.9400827E-2,1.2322169E-1,-2.5915002E-2,-1.1035222E-1,-7.5539164E-2,5.1356226E-2,-1.2722823E-2,-6.1821215E-2,-1.116775E-1,-4.9928356E-2,9.687874E-3,1.0415909E-1],"split_indices":[0,0,0,0,0,0,0,0,0,0,0,0,0,0,0,0,0,0,0],"split_type":[0,0,0,0,0,0,0,0,0,0,0,0,0,0,0,0,0,0,0],"sum_hessian":[1.044808E2,9.912372E1,5.3570814E0,9.723267E1,1.8910439E0,3.7067018E0,1.6503797E0,9.4445816E1,2.786855E0,1.1330434E0,2.5736585E0,9.223822E1,2.2075968E0,1.3236599E0,1.4631951E0,9.0029594E1,2.208631E0,8.892365E1,1.1059395E0],"tree_param":{"num_deleted":"0","num_feature":"1","num_nodes":"19","size_leaf_vector":"1"}},{"base_weights":[2.62209E-2,3.3971556E-2,-9.3737036E-2,3.0165577E-2,6.636855E-2,3.607789E-2,-4.649345E-2,3.0608665E-2,6.599192E-2,3.743677E-2,-6.75159E-2,9.243928E-3,8.081379E-2],"categories":[],"categories_nodes":[],"categories_segments":[],"categories_sizes":[],"default_left":[0,0,0,0,0,0,0,0,0,0,0,0,0],"id":41,"left_children":[1,3,-1,5,-1,7,-1,9,-1,11,-1,-1,-1],"loss_changes":[3.011974E-1,7.109912E-2,0E0,1.2392999E-1,0E0,9.94498E-2,0E0,1.8942964E-1,0E0,1.4816839E-1,0E0,0E0,0E0],"parents":[2147483647,0,0,1,1,3,3,5,5,7,7,9,9],"right_children":[2,4,-1,6,-1,8,-1,10,-1,12,-1,-1,-1],"split_conditions":[1.5326169E0,1.3157868E0,-9.3737036E-2,8.2791924E-1,6.636855E-2,7.285388E-1,-4.649345E-2,3.6715546E-1,6.599192E-2,2.1356754E-1,-6.75159E-2,9.243928E-3,8.081379E-2],"split_indices":[0,0,0,0,0,0,0,0,0,0,0,0,0],"split_type":[0,0,0,0,0,0,0,0,0,0,0,0,0],"sum_hessian":[1.09699295E2,1.0812456E2,1.5747422E0,1.0710867E2,1.0158807E0,1.0457437E2,2.5343034E0,1.0268681E2,1.8875604E0,1.00847E2,1.8398091E0,9.914843E1,1.6985734E0],"tree_param":{"num_deleted":"0","num_feature":"1","num_nodes":"13","size_leaf_vector":"1"}},{"base_weights":[-1.667206E-1,-4.3091893E-1,1.2034324E-1,-1.4130467E-1,-4.5000866E-2,5.290793E-2,2.3690861E-1,1.0369859E-1,-5.7243805E-2,1.0189924E-1,1.4440363E-2,-1.8184513E-2,1.820214E-1,4.3626975E-2,-1.1638153E-1,1.0306068E-1,6.4841494E-2,-1.15848705E-2,-4.4364557E-2,-2.341586E-2,8.013343E-2],"categories":[],"categories_nodes":[],"categories_segments":[],"categories_sizes":[],"default_left":[0,0,0,0,0,0,0,0,0,0,0,0,0,0,0,0,0,0,0,0,0],"id":42,"left_children":[1,3,5,-1,-1,7,9,11,-1,-1,-1,13,15,-1,17,-1,19,-1,-1,-1,-1],"loss_changes":[2.1091526E0,9.091306E-2,9.580222E-2,0E0,0E0,1.438049E-1,7.605189E-2,8.8641174E-2,0E0,0E0,0E0,8.771216E-2,8.243643E-2,0E0,2.395045E-3,0E0,1.4915138E-1,0E0,0E0,0E0,0E0],"parents":[2147483647,0,0,1,1,2,2,5,5,6,6,7,7,11,11,12,12,14,14,16,16],"right_children":[2,4,6,-1,-1,8,10,12,-1,-1,-1,14,16,-1,18,-1,20,-1,-1,-1,-1],"split_conditions":[1.5936002E-1,2.3841264E-2,1.5326169E0,-1.4130467E-1,-4.5000866E-2,1.333856E0,2.6258016E0,7.6467717E-1,-5.7243805E-2,1.0189924E-1,1.4440363E-2,3.0391338E-1,8.188847E-1,4.3626975E-2,6.0205466E-1,1.0306068E-1,9.453688E-1,-1.15848705E-2,-4.4364557E-2,-2.341586E-2,8.013343E-2],"split_indices":[0,0,0,0,0,0,0,0,0,0,0,0,0,0,0,0,0,0,0,0,0],"split_type":[0,0,0,0,0,0,0,0,0,0,0,0,0,0,0,0,0,0,0,0,0],"sum_hessian":[2.612613E1,1.3343945E1,1.2782186E1,1.1085011E1,2.258934E0,9.018627E0,3.7635584E0,7.938736E0,1.0798908E0,1.9194355E0,1.8441228E0,3.406105E0,4.532631E0,1.0971655E0,2.3089397E0,1.0935918E0,3.439039E0,1.3073543E0,1.0015854E0,2.3751912E0,1.0638478E0],"tree_param":{"num_deleted":"0","num_feature":"1","num_nodes":"21","size_leaf_vector":"1"}},{"base_weights":[1.9232169E-2,3.16812E-2,-2.369668E-1,2.6454872E-2,6.028322E-2,-1.08433895E-1,5.698713E-3,3.3417944E-2,-1.1840163E-1,2.72578E-2,1.3888404E-1,-1.6682219E-2,-4.635904E-2,3.286176E-2,-3.9772768E-2,5.862733E-2,-2.7684253E-3,8.054644E-3,5.6531746E-2],"categories":[],"categories_nodes":[],"categories_segments":[],"categories_sizes":[],"default_left":[0,0,0,0,0,0,0,0,0,0,0,0,0,0,0,0,0,0,0],"id":43,"left_children":[1,3,5,7,-1,-1,-1,9,11,13,15,-1,-1,17,-1,-1,-1,-1,-1],"loss_changes":[3.426738E-1,8.4118634E-2,1.6578117E-1,1.0403714E-1,0E0,0E0,0E0,5.822794E-2,2.2304729E-3,8.62492E-2,4.3870546E-2,0E0,0E0,7.8322425E-2,0E0,0E0,0E0,0E0,0E0],"parents":[2147483647,0,0,1,1,2,2,3,3,7,7,8,8,9,9,10,10,13,13],"right_children":[2,4,6,8,-1,-1,-1,10,12,14,16,-1,-1,18,-1,-1,-1,-1,-1],"split_conditions":[4.3943214E-1,2.6777503E-1,2.6258016E0,4.1910432E-2,6.028322E-2,-1.08433895E-1,5.698713E-3,-6.6504575E-2,1.5936002E-1,-1.3878125E-1,2.3841264E-2,-1.6682219E-2,-4.635904E-2,-2.200925E-1,-3.9772768E-2,5.862733E-2,-2.7684253E-3,8.054644E-3,5.6531746E-2],"split_indices":[0,0,0,0,0,0,0,0,0,0,0,0,0,0,0,0,0,0,0],"split_type":[0,0,0,0,0,0,0,0,0,0,0,0,0,0,0,0,0,0,0],"sum_hessian":[1.04086655E2,1.0009906E2,3.987598E0,9.8222534E1,1.8765218E0,2.4056013E0,1.5819966E0,9.445167E1,3.7708702E0,9.0428314E1,4.0233526E0,2.3045437E0,1.4663264E0,8.8132675E1,2.295638E0,2.6806169E0,1.3427358E0,8.59821E1,2.1505704E0],"tree_param":{"num_deleted":"0","num_feature":"1","num_nodes":"19","size_leaf_vector":"1"}},{"base_weights":[2.2708626E-2,2.9732168E-2,-9.011294E-2,2.5853377E-2,6.682674E-2,3.181549E-2,-1.06804855E-1,2.6225891E-2,1.7693344E-1,-9.5538236E-2,3.0939497E-2,3.2046E-2,-5.0617423E-2,6.601459E-2,1.781092E-2,1.5625564E-2,6.6814816E-4,7.6861684E-3,6.0892887E-2],"categories":[],"categories_nodes":[],"categories_segments":[],"categories_sizes":[],"default_left":[0,0,0,0,0,0,0,0,0,0,0,0,0,0,0,0,0,0,0],"id":44,"left_children":[1,3,-1,5,-1,7,9,11,13,-1,15,17,-1,-1,-1,-1,-1,-1,-1],"loss_changes":[2.5889185E-1,7.563949E-2,0E0,8.858815E-2,0E0,7.959578E-2,1.5160607E-1,1.20197736E-1,5.576648E-3,0E0,2.2256202E-3,1.0361663E-1,0E0,0E0,0E0,0E0,0E0,0E0,0E0],"parents":[2147483647,0,0,1,1,3,3,5,5,6,6,7,7,8,8,10,10,11,11],"right_children":[2,4,-1,6,-1,8,10,12,14,-1,16,18,-1,-1,-1,-1,-1,-1,-1],"split_conditions":[1.5326169E0,1.3157868E0,-9.011294E-2,7.6467717E-1,6.682674E-2,3.2198253E-1,8.188847E-1,1.5936002E-1,4.665359E-1,-9.5538236E-2,9.272997E-1,4.1910432E-2,-5.0617423E-2,6.601459E-2,1.781092E-2,1.5625564E-2,6.6814816E-4,7.6861684E-3,6.0892887E-2],"split_indices":[0,0,0,0,0,0,0,0,0,0,0,0,0,0,0,0,0,0,0],"split_type":[0,0,0,0,0,0,0,0,0,0,0,0,0,0,0,0,0,0,0],"sum_hessian":[1.0915374E2,1.07719986E2,1.4337491E0,1.0670961E2,1.0103805E0,1.0284746E2,3.862148E0,1.0016987E2,2.6775866E0,1.0053589E0,2.856789E0,9.807746E1,2.092412E0,1.3212819E0,1.3563046E0,1.176384E0,1.680405E0,9.563243E1,2.4450295E0],"tree_param":{"num_deleted":"0","num_feature":"1","num_nodes":"19","size_leaf_vector":"1"}},{"base_weights":[-1.575077E-1,-4.176155E-1,1.0358782E-1,-1.390206E-1,-4.004464E-2,6.2270287E-2,8.96609E-2,1.3354151E-1,-1.462433E-1,3.7878964E-2,1.0444147E-1,-6.0922068E-2,-1.2467082E-2,9.886578E-2,-7.0778586E-2,-1.350198E-2,5.54277E-2,-3.335868E-4,-3.3337664E-2],"categories":[],"categories_nodes":[],"categories_segments":[],"categories_sizes":[],"default_left":[0,0,0,0,0,0,0,0,0,0,0,0,0,0,0,0,0,0,0],"id":45,"left_children":[1,3,5,-1,-1,7,-1,9,11,13,-1,-1,-1,15,17,-1,-1,-1,-1],"loss_changes":[1.7501061E0,1.0452247E-1,8.9055076E-2,0E0,0E0,2.0197529E-1,0E0,1.8537132E-1,1.3006173E-2,5.8765315E-2,0E0,0E0,0E0,7.530417E-2,9.4085075E-3,0E0,0E0,0E0,0E0],"parents":[2147483647,0,0,1,1,2,2,5,5,7,7,8,8,9,9,13,13,14,14],"right_children":[2,4,6,-1,-1,8,-1,10,12,14,-1,-1,-1,16,18,-1,-1,-1,-1],"split_conditions":[1.5936002E-1,2.3841264E-2,2.6890435E0,-1.390206E-1,-4.004464E-2,1.5235822E0,8.96609E-2,9.453688E-1,1.7946198E0,8.188847E-1,1.0444147E-1,-6.0922068E-2,-1.2467082E-2,4.665359E-1,9.272997E-1,-1.350198E-2,5.54277E-2,-3.335868E-4,-3.3337664E-2],"split_indices":[0,0,0,0,0,0,0,0,0,0,0,0,0,0,0,0,0,0,0],"split_type":[0,0,0,0,0,0,0,0,0,0,0,0,0,0,0,0,0,0,0],"sum_hessian":[2.4132843E1,1.1788983E1,1.2343861E1,9.6095295E0,2.1794534E0,1.12768E1,1.0670605E0,8.672158E0,2.604642E0,6.81202E0,1.8601382E0,1.0790429E0,1.525599E0,4.4208317E0,2.3911881E0,1.8305877E0,2.5902438E0,1.2538095E0,1.1373787E0],"tree_param":{"num_deleted":"0","num_feature":"1","num_nodes":"19","size_leaf_vector":"1"}},{"base_weights":[1.7283302E-2,2.9077733E-2,-1.950052E-1,2.3149611E-2,6.677959E-2,-2.837997E-1,6.2249857E-3,2.7978476E-2,-5.2811664E-2,-2.3192698E-2,-1.0075293E-1,2.2527987E-2,6.1874684E-2,3.1176794E-2,-1.431804E-1,7.157619E-3,1.00531004E-1,-1.8159362E-2,-6.580608E-2],"categories":[],"categories_nodes":[],"categories_segments":[],"categories_sizes":[],"default_left":[0,0,0,0,0,0,0,0,0,0,0,0,0,0,0,0,0,0,0],"id":46,"left_children":[1,3,5,7,-1,9,-1,11,-1,-1,-1,13,-1,15,17,-1,-1,-1,-1],"loss_changes":[2.677235E-1,1.09594576E-1,1.1391105E-1,9.934659E-2,0E0,1.7695963E-2,0E0,8.93184E-2,0E0,0E0,0E0,1.4055714E-1,0E0,1.945581E-1,1.750265E-2,0E0,0E0,0E0,0E0],"parents":[2147483647,0,0,1,1,2,2,3,3,5,5,7,7,11,11,13,13,14,14],"right_children":[2,4,6,8,-1,10,-1,12,-1,-1,-1,14,-1,16,18,-1,-1,-1,-1],"split_conditions":[3.2198253E-1,2.0453295E-1,2.6258016E0,1.2322169E-1,6.677959E-2,4.665359E-1,6.2249857E-3,3.2875847E-2,-5.2811664E-2,-2.3192698E-2,-1.0075293E-1,-7.5539164E-2,6.1874684E-2,-1.116775E-1,1.4806679E-2,7.157619E-3,1.00531004E-1,-1.8159362E-2,-6.580608E-2],"split_indices":[0,0,0,0,0,0,0,0,0,0,0,0,0,0,0,0,0,0,0],"split_type":[0,0,0,0,0,0,0,0,0,0,0,0,0,0,0,0,0,0,0],"sum_hessian":[1.03661285E2,9.902275E1,4.6385283E0,9.716589E1,1.8568578E0,3.0626922E0,1.5758362E0,9.5705284E1,1.4606161E0,1.1168557E0,1.9458363E0,9.395892E1,1.7463561E0,9.006978E1,3.8891487E0,8.900517E1,1.0646006E0,2.7260218E0,1.163127E0],"tree_param":{"num_deleted":"0","num_feature":"1","num_nodes":"19","size_leaf_vector":"1"}},{"base_weights":[1.9598773E-2,2.5540898E-2,-8.384569E-2,2.1797152E-2,6.333821E-2,2.6827237E-2,-4.1614752E-2,2.1615399E-2,6.1372917E-2,2.780694E-2,-6.474775E-2,6.287446E-3,8.178015E-2],"categories":[],"categories_nodes":[],"categories_segments":[],"categories_sizes":[],"default_left":[0,0,0,0,0,0,0,0,0,0,0,0,0],"id":47,"left_children":[1,3,-1,5,-1,7,-1,9,-1,11,-1,-1,-1],"loss_changes":[2.0207307E-1,7.075906E-2,0E0,9.046492E-2,0E0,9.285917E-2,0E0,1.5762556E-1,0E0,1.6429052E-1,0E0,0E0,0E0],"parents":[2147483647,0,0,1,1,3,3,5,5,7,7,9,9],"right_children":[2,4,-1,6,-1,8,-1,10,-1,12,-1,-1,-1],"split_conditions":[1.5326169E0,1.333856E0,-8.384569E-2,8.2791924E-1,6.333821E-2,7.285388E-1,-4.1614752E-2,3.6715546E-1,6.1372917E-2,2.1356754E-1,-6.474775E-2,6.287446E-3,8.178015E-2],"split_indices":[0,0,0,0,0,0,0,0,0,0,0,0,0],"split_type":[0,0,0,0,0,0,0,0,0,0,0,0,0],"sum_hessian":[1.0868664E2,1.0746613E2,1.220504E0,1.0643649E2,1.0296413E0,1.0400994E2,2.4265509E0,1.02136765E2,1.873177E0,1.0040157E2,1.7351915E0,9.8725075E1,1.6764958E0],"tree_param":{"num_deleted":"0","num_feature":"1","num_nodes":"13","size_leaf_vector":"1"}},{"base_weights":[-1.5025976E-1,-4.0459886E-1,8.89189E-2,-1.3666698E-1,-3.6923926E-2,3.1347297E-2,1.9800754E-1,7.742314E-2,-4.9523383E-2,9.259069E-2,7.3135085E-3,-2.9460311E-2,1.5131316E-1,4.02393E-2,-3.862395E-2,1.4192872E-2,5.399734E-2],"categories":[],"categories_nodes":[],"categories_segments":[],"categories_sizes":[],"default_left":[0,0,0,0,0,0,0,0,0,0,0,0,0,0,0,0,0],"id":48,"left_children":[1,3,5,-1,-1,7,9,11,-1,-1,-1,13,15,-1,-1,-1,-1],"loss_changes":[1.4556789E0,1.0877037E-1,7.447888E-2,0E0,0E0,9.964118E-2,7.410911E-2,7.1228564E-2,0E0,0E0,0E0,8.69937E-2,6.880276E-3,0E0,0E0,0E0,0E0],"parents":[2147483647,0,0,1,1,2,2,5,5,6,6,7,7,11,11,12,12],"right_children":[2,4,6,-1,-1,8,10,12,-1,-1,-1,14,16,-1,-1,-1,-1],"split_conditions":[1.5936002E-1,2.3841264E-2,1.5326169E0,-1.3666698E-1,-3.6923926E-2,1.333856E0,2.6258016E0,7.6467717E-1,-4.9523383E-2,9.259069E-2,7.3135085E-3,3.0391338E-1,8.2791924E-1,4.02393E-2,-3.862395E-2,1.4192872E-2,5.399734E-2],"split_indices":[0,0,0,0,0,0,0,0,0,0,0,0,0,0,0,0,0],"split_type":[0,0,0,0,0,0,0,0,0,0,0,0,0,0,0,0,0],"sum_hessian":[2.2337902E1,1.04906645E1,1.1847237E1,8.359335E0,2.1313298E0,8.597341E0,3.249896E0,7.4545517E0,1.1427892E0,1.5101475E0,1.7397487E0,3.2927766E0,4.161775E0,1.1110971E0,2.1816795E0,1.4722376E0,2.6895373E0],"tree_param":{"num_deleted":"0","num_feature":"1","num_nodes":"17","size_leaf_vector":"1"}},{"base_weights":[1.5294013E-2,2.4475345E-2,-1.9871695E-1,1.9432386E-2,5.75622E-2,-9.974584E-2,9.529629E-3,2.540589E-2,-1.0454549E-1,1.9659255E-2,1.26498E-1,-1.1836457E-2,-4.4855237E-2,2.705084E-2,-1.14542454E-1,5.442938E-2,-3.6512637E-3,5.9174276E-3,4.3118533E-2,-4.4710986E-2,-5.3090453E-3],"categories":[],"categories_nodes":[],"categories_segments":[],"categories_sizes":[],"default_left":[0,0,0,0,0,0,0,0,0,0,0,0,0,0,0,0,0,0,0,0,0],"id":49,"left_children":[1,3,5,7,-1,-1,-1,9,11,13,15,-1,-1,17,19,-1,-1,-1,-1,-1,-1],"loss_changes":[2.1004198E-1,8.154777E-2,1.4637977E-1,7.6103136E-2,0E0,0E0,0E0,5.2946653E-2,8.017823E-3,9.383537E-2,3.9903246E-2,0E0,0E0,7.19641E-2,1.3952494E-2,0E0,0E0,0E0,0E0,0E0,0E0],"parents":[2147483647,0,0,1,1,2,2,3,3,7,7,8,8,9,9,10,10,13,13,14,14],"right_children":[2,4,6,8,-1,-1,-1,10,12,14,16,-1,-1,18,20,-1,-1,-1,-1,-1,-1],"split_conditions":[4.3943214E-1,2.6777503E-1,2.6258016E0,4.1910432E-2,5.75622E-2,-9.974584E-2,9.529629E-3,-6.6504575E-2,1.5936002E-1,-2.1105793E-1,2.3841264E-2,-1.1836457E-2,-4.4855237E-2,-3.1043836E-1,-1.116775E-1,5.442938E-2,-3.6512637E-3,5.9174276E-3,4.3118533E-2,-4.4710986E-2,-5.3090453E-3],"split_indices":[0,0,0,0,0,0,0,0,0,0,0,0,0,0,0,0,0,0,0,0,0],"split_type":[0,0,0,0,0,0,0,0,0,0,0,0,0,0,0,0,0,0,0,0,0],"sum_hessian":[1.0342145E2,1.0001626E2,3.4051852E0,9.817478E1,1.8414744E0,1.874615E0,1.5305701E0,9.4420494E1,3.7542908E0,9.047203E1,3.948461E0,2.3010964E0,1.4531944E0,8.650588E1,3.9661536E0,2.6072352E0,1.3412259E0,8.249514E1,4.010741E0,2.5271373E0,1.4390162E0],"tree_param":{"num_deleted":"0","num_feature":"1","num_nodes":"21","size_leaf_vector":"1"}},{"base_weights":[1.7465929E-2,2.3008676E-2,-8.121923E-2,1.9236935E-2,6.33253E-2,2.3604365E-2,-3.7336014E-2,1.8564787E-2,5.863998E-2,2.4004275E-2,-5.89388E-2,5.2528493E-3,7.653455E-2],"categories":[],"categories_nodes":[],"categories_segments":[],"categories_sizes":[],"default_left":[0,0,0,0,0,0,0,0,0,0,0,0,0],"id":50,"left_children":[1,3,-1,5,-1,7,-1,9,-1,11,-1,-1,-1],"loss_changes":[1.8088913E-1,7.2692454E-2,0E0,7.019395E-2,0E0,8.718385E-2,0E0,1.2515223E-1,0E0,1.476148E-1,0E0,0E0,0E0],"parents":[2147483647,0,0,1,1,3,3,5,5,7,7,9,9],"right_children":[2,4,-1,6,-1,8,-1,10,-1,12,-1,-1,-1],"split_conditions":[1.5326169E0,1.333856E0,-8.121923E-2,8.2791924E-1,6.33253E-2,7.285388E-1,-3.7336014E-2,3.6715546E-1,5.863998E-2,2.1356754E-1,-5.89388E-2,5.2528493E-3,7.653455E-2],"split_indices":[0,0,0,0,0,0,0,0,0,0,0,0,0],"split_type":[0,0,0,0,0,0,0,0,0,0,0,0,0],"sum_hessian":[1.0834003E2,1.07198494E2,1.1415339E0,1.0617157E2,1.026923E0,1.03850784E2,2.32079E0,1.0196874E2,1.8820446E0,1.0031935E2,1.6493838E0,9.862356E1,1.6957992E0],"tree_param":{"num_deleted":"0","num_feature":"1","num_nodes":"13","size_leaf_vector":"1"}},{"base_weights":[-1.4162338E-1,-1.3417795E-1,4.1471653E-2,-7.508733E-2,1.1731285E-1,8.806367E-2,-2.0634022E-1,2.0042932E-1,-2.4506947E-2,-2.9504367E-3,4.9475275E-2,-9.930704E-2,-1.5879164E-3,6.862747E-2,1.0076852E-1,-6.8088174E-2,3.1742133E-2,5.572284E-2,-4.3358993E-2],"categories":[],"categories_nodes":[],"categories_segments":[],"categories_sizes":[],"default_left":[0,0,0,0,0,0,0,0,0,0,0,0,0,0,0,0,0,0,0],"id":51,"left_children":[1,-1,3,5,7,9,11,13,15,-1,-1,-1,-1,17,-1,-1,-1,-1,-1],"loss_changes":[1.2424802E0,0E0,1.3780828E-1,1.5440662E-1,1.137203E-1,2.8235456E-2,9.412411E-2,8.280592E-2,1.3750984E-1,0E0,0E0,0E0,0E0,1.33238E-1,0E0,0E0,0E0,0E0,0E0],"parents":[2147483647,0,0,2,2,3,3,4,4,5,5,6,6,7,7,8,8,13,13],"right_children":[2,-1,4,6,8,10,12,14,16,-1,-1,-1,-1,18,-1,-1,-1,-1,-1],"split_conditions":[2.3841264E-2,-1.3417795E-1,7.6467717E-1,2.0453295E-1,1.5235822E0,6.9014184E-2,4.665359E-1,9.453688E-1,1.8217236E0,-2.9504367E-3,4.9475275E-2,-9.930704E-2,-1.5879164E-3,9.272997E-1,1.0076852E-1,-6.8088174E-2,3.1742133E-2,5.572284E-2,-4.3358993E-2],"split_indices":[0,0,0,0,0,0,0,0,0,0,0,0,0,0,0,0,0,0,0],"split_type":[0,0,0,0,0,0,0,0,0,0,0,0,0,0,0,0,0,0,0],"sum_hessian":[2.0871342E1,7.2785864E0,1.3592755E1,5.361974E0,8.230782E0,2.5372074E0,2.8247662E0,4.9288554E0,3.3019264E0,1.4993412E0,1.0378662E0,1.3444705E0,1.4802957E0,3.2618406E0,1.6670146E0,1.002624E0,2.2993023E0,2.1881921E0,1.0736486E0],"tree_param":{"num_deleted":"0","num_feature":"1","num_nodes":"19","size_leaf_vector":"1"}},{"base_weights":[1.3527862E-2,2.2748217E-2,-1.6786855E-1,1.647459E-2,6.91956E-2,-2.6034024E-1,9.1124065E-3,2.176072E-2,-1.2260887E-1,-2.4725985E-2,-9.163526E-2,1.758917E-2,4.160872E-2,-1.0581006E-2,-4.6312734E-2,2.4313873E-2,-5.455923E-2,5.24606E-3,9.5588796E-2],"categories":[],"categories_nodes":[],"categories_segments":[],"categories_sizes":[],"default_left":[0,0,0,0,0,0,0,0,0,0,0,0,0,0,0,0,0,0,0],"id":52,"left_children":[1,3,5,7,-1,9,-1,11,13,-1,-1,15,-1,-1,-1,17,-1,-1,-1],"loss_changes":[1.7791198E-1,1.2654631E-1,1.02395E-1,7.4781165E-2,0E0,3.8731992E-3,0E0,4.4068526E-2,4.9376264E-3,0E0,0E0,1.2943244E-1,0E0,0E0,0E0,1.7736575E-1,0E0,0E0,0E0],"parents":[2147483647,0,0,1,1,2,2,3,3,5,5,7,7,8,8,11,11,15,15],"right_children":[2,4,6,8,-1,10,-1,12,14,-1,-1,16,-1,-1,-1,18,-1,-1,-1],"split_conditions":[3.2198253E-1,2.0453295E-1,2.6258016E0,4.1910432E-2,6.91956E-2,4.665359E-1,9.1124065E-3,-3.9400827E-2,1.2322169E-1,-2.4725985E-2,-9.163526E-2,-7.5539164E-2,4.160872E-2,-1.0581006E-2,-4.6312734E-2,-1.116775E-1,-5.455923E-2,5.24606E-3,9.5588796E-2],"split_indices":[0,0,0,0,0,0,0,0,0,0,0,0,0,0,0,0,0,0,0],"split_type":[0,0,0,0,0,0,0,0,0,0,0,0,0,0,0,0,0,0,0],"sum_hessian":[1.0308919E2,9.893493E1,4.1542554E0,9.708458E1,1.850347E0,2.6192532E0,1.5350021E0,9.434246E1,2.7421227E0,1.101581E0,1.5176723E0,9.22036E1,2.1388614E0,1.2941918E0,1.4479308E0,9.0045746E1,2.1578557E0,8.903977E1,1.005971E0],"tree_param":{"num_deleted":"0","num_feature":"1","num_nodes":"19","size_leaf_vector":"1"}},{"base_weights":[1.55010875E-2,1.97433E-2,-1.12232566E-1,1.5633538E-2,4.488855E-2,-9.314881E-2,4.372231E-2,2.0970937E-2,-1.21963374E-1,1.4822379E-2,7.151178E-2,-5.6006227E-2,-4.1822597E-4,2.2214454E-2,-6.385629E-2,4.759307E-3,9.203731E-2],"categories":[],"categories_nodes":[],"categories_segments":[],"categories_sizes":[],"default_left":[0,0,0,0,0,0,0,0,0,0,0,0,0,0,0,0,0],"id":53,"left_children":[1,3,5,7,-1,-1,-1,9,11,13,-1,-1,-1,15,-1,-1,-1],"loss_changes":[6.1272003E-2,5.442071E-2,2.3208086E-1,7.9074174E-2,0E0,0E0,0E0,1.316753E-1,3.1245414E-2,1.7207742E-1,0E0,0E0,0E0,1.7080621E-1,0E0,0E0,0E0],"parents":[2147483647,0,0,1,1,2,2,3,3,7,7,8,8,9,9,13,13],"right_children":[2,4,6,8,-1,-1,-1,10,12,14,-1,-1,-1,16,-1,-1,-1],"split_conditions":[9.453688E-1,8.188847E-1,1.5235822E0,3.6715546E-1,4.488855E-2,-9.314881E-2,4.372231E-2,2.1356754E-1,7.285388E-1,7.8048766E-2,7.151178E-2,-5.6006227E-2,-4.1822597E-4,4.1910432E-2,-6.385629E-2,4.759307E-3,9.203731E-2],"split_indices":[0,0,0,0,0,0,0,0,0,0,0,0,0,0,0,0,0],"split_type":[0,0,0,0,0,0,0,0,0,0,0,0,0,0,0,0,0],"sum_hessian":[1.0798521E2,1.05332405E2,2.6528013E0,1.0318776E2,2.14465E0,1.3848727E0,1.2679286E0,1.001505E2,3.037257E0,9.8434746E1,1.7157533E0,1.6194959E0,1.4177611E0,9.621337E1,2.2213707E0,9.514601E1,1.0673602E0],"tree_param":{"num_deleted":"0","num_feature":"1","num_nodes":"17","size_leaf_vector":"1"}},{"base_weights":[-1.3348612E-1,-1.3159215E-1,3.413509E-2,-7.318241E-2,1.0464449E-1,8.139885E-2,-2.0344639E-1,1.8317665E-1,-2.2760473E-2,-4.691534E-3,4.915058E-2,-9.4373405E-2,-5.329892E-3,6.824666E-2,9.313405E-2,-6.484115E-2,3.0916478E-2,5.2415375E-2,-3.663151E-2],"categories":[],"categories_nodes":[],"categories_segments":[],"categories_sizes":[],"default_left":[0,0,0,0,0,0,0,0,0,0,0,0,0,0,0,0,0,0,0],"id":54,"left_children":[1,-1,3,5,7,9,11,13,15,-1,-1,-1,-1,17,-1,-1,-1,-1,-1],"loss_changes":[1.0667347E0,0E0,1.151058E-1,1.4178294E-1,9.402735E-2,3.1025238E-2,6.9946826E-2,6.1700612E-2,1.2723964E-1,0E0,0E0,0E0,0E0,1.0766076E-1,0E0,0E0,0E0,0E0,0E0],"parents":[2147483647,0,0,2,2,3,3,4,4,5,5,6,6,7,7,8,8,13,13],"right_children":[2,-1,4,6,8,10,12,14,16,-1,-1,-1,-1,18,-1,-1,-1,-1,-1],"split_conditions":[2.3841264E-2,-1.3159215E-1,7.6467717E-1,2.0453295E-1,1.5235822E0,7.8048766E-2,4.665359E-1,9.453688E-1,1.7946198E0,-4.691534E-3,4.915058E-2,-9.4373405E-2,-5.329892E-3,9.272997E-1,9.313405E-2,-6.484115E-2,3.0916478E-2,5.2415375E-2,-3.663151E-2],"split_indices":[0,0,0,0,0,0,0,0,0,0,0,0,0,0,0,0,0,0,0],"split_type":[0,0,0,0,0,0,0,0,0,0,0,0,0,0,0,0,0,0,0],"sum_hessian":[1.9562164E1,6.3624578E0,1.3199708E1,5.21873E0,7.980978E0,2.558153E0,2.660577E0,4.666689E0,3.3142886E0,1.5472065E0,1.0109463E0,1.2301344E0,1.4304427E0,3.2594826E0,1.4072065E0,1.0234175E0,2.2908711E0,2.1429672E0,1.1165154E0],"tree_param":{"num_deleted":"0","num_feature":"1","num_nodes":"19","size_leaf_vector":"1"}},{"base_weights":[1.1936745E-2,2.0073764E-2,-1.535641E-1,1.4354851E-2,6.321296E-2,-2.4765751E-1,1.1283242E-2,1.8346533E-2,-4.4819016E-2,-2.3684049E-2,-8.778757E-2,1.3018293E-2,5.93168E-2,2.1425266E-2,-1.4714152E-1,4.0193065E-3,6.365427E-2,-1.884915E-2,-6.715143E-2],"categories":[],"categories_nodes":[],"categories_segments":[],"categories_sizes":[],"default_left":[0,0,0,0,0,0,0,0,0,0,0,0,0,0,0,0,0,0,0],"id":55,"left_children":[1,3,5,7,-1,9,-1,11,